Layer: layerStack.1.weight
Shape: torch.Size([5, 784])
Values:
[[-0.03108937107026577, -0.0007997378706932068, -0.03465326502919197, 0.0007373057305812836, -0.02655036188662052, 0.03242286667227745, -0.013969600200653076, -4.839152097702026e-06, 0.013091940432786942, 0.02255120500922203, 0.00972384586930275, -0.033176593482494354, 0.005509901326149702, 0.005128287710249424, -0.02392762340605259, -0.0071221101097762585, 0.015093505382537842, 0.025557752698659897, -0.01826053485274315, -0.013625366613268852, -0.031402215361595154, 0.018695972859859467, -6.168708205223083e-05, -0.009993208572268486, 0.0016970150172710419, 0.01192905381321907, -0.004715276882052422, -0.03423985093832016, 0.008089467883110046, -0.0007570981979370117, 0.015622057020664215, 0.008346959948539734, -0.016364678740501404, -0.02581734023988247, -0.022481273859739304, 0.020487431436777115, -0.0144306356087327, 0.012092995457351208, -0.019158609211444855, 0.0552481934428215, 0.031379327178001404, 0.01925249956548214, 0.02109512686729431, -0.028971968218684196, -0.03235616534948349, -0.014033930376172066, 0.026084333658218384, 0.0027370534371584654, -0.007743549533188343, -0.0020370061974972486, 0.0021723818499594927, -0.02532760053873062, 0.005364198237657547, 0.01083647832274437, -0.03511112928390503, 0.018280919641256332, 0.004115816205739975, 0.005764175206422806, -0.011448313482105732, -0.03537188842892647, 0.031472574919462204, -0.014483935199677944, 0.003633118700236082, 0.029466301202774048, 0.07838904857635498, 0.0668758824467659, 0.07764661312103271, 0.0370677225291729, 0.009824343957006931, 0.01793469302356243, 0.01264564972370863, 0.002451319480314851, 0.0037857554852962494, 0.00737532926723361, 0.0330064594745636, 0.09195797890424728, 0.049305785447359085, 0.042632266879081726, 0.05082032456994057, -0.005757002625614405, -0.016551168635487556, -0.021053355187177658, -0.0006655678153038025, -0.0015503354370594025, 0.027679312974214554, 0.017094522714614868, 0.02608129382133484, 0.037056706845760345, 0.02259448729455471, 0.0012430122587829828, 0.04988965764641762, 0.06580696254968643, 0.10786373913288116, 0.007064471952617168, 0.02410283125936985, 0.024222232401371002, 0.014247508719563484, 0.01844857633113861, 0.045588504523038864, 0.04715215042233467, 0.03815733641386032, 0.03556402027606964, 0.11289527267217636, 0.10290678590536118, 0.10178282856941223, 0.08010417968034744, 0.04634872451424599, 0.02792712114751339, 0.033167868852615356, 0.03139335662126541, -0.022265832871198654, 0.01575247198343277, -0.004114221781492233, -0.02586284466087818, -0.03519774600863457, 0.03309492766857147, 0.0049969968385994434, -0.02181331068277359, -0.06175350397825241, -0.025139523670077324, -0.11507447808980942, -0.11521847546100616, -0.14317242801189423, -0.1402091234922409, -0.11062798649072647, -0.1581505686044693, -0.046292271465063095, -0.006519363261759281, 0.0022779153659939766, 0.0875607281923294, 0.09379052370786667, 0.04503903537988663, 0.01078111957758665, 0.08903858810663223, 0.13048358261585236, 0.16309326887130737, 0.061176594346761703, -0.010332298465073109, 0.004623965825885534, 0.024809621274471283, -0.014024879783391953, -0.027310973033308983, -0.02127743698656559, -0.02801138535141945, -0.023396315053105354, -0.07724065333604813, -0.10074930638074875, -0.14972347021102905, -0.16677621006965637, -0.10819035768508911, -0.0528394877910614, -0.20491641759872437, -0.193027526140213, -0.20206701755523682, -0.12318826466798782, -0.0905831828713417, 0.004759450908750296, 0.1292347013950348, 0.08428271859884262, 0.11952060461044312, 0.17586076259613037, 0.14403143525123596, 0.23171484470367432, 0.32306644320487976, 0.17465801537036896, 0.050527796149253845, 0.05266634374856949, 0.034670062363147736, -0.02809755876660347, -0.02070578560233116, -0.004034200217574835, -0.04036754369735718, -0.10241308808326721, -0.11336278170347214, -0.14645236730575562, -0.06643786281347275, -0.0942613035440445, -0.16347743570804596, -0.1535552591085434, -0.11052675545215607, -0.15555796027183533, -0.17404547333717346, -0.19270844757556915, -0.23928400874137878, -0.25005432963371277, -0.15894293785095215, -0.06622409075498581, 0.03494787961244583, 0.0957985371351242, 0.10232416540384293, 0.2866593897342682, 0.4564838707447052, 0.4046335816383362, 0.16446401178836823, 0.07392614334821701, 0.00822480209171772, 0.014745568856596947, -0.0289901252835989, -0.016441727057099342, -0.12951675057411194, -0.1440095752477646, -0.11999625712633133, -0.13312691450119019, -0.02246055379509926, -0.0264426376670599, -0.02042742259800434, 0.00031783440499566495, -0.019694972783327103, -0.15448904037475586, -0.28807973861694336, -0.14012286067008972, -0.3220573663711548, -0.22901110351085663, -0.06772605329751968, -0.08775190263986588, -0.01939207687973976, -0.04120217263698578, 0.0072034988552331924, 0.05268499627709389, 0.3694905638694763, 0.4525011479854584, 0.3120028078556061, 0.0865945816040039, 0.01724964752793312, 0.0026668005157262087, 0.025583092123270035, -0.05814388766884804, -0.09922174364328384, -0.19183512032032013, -0.1187773197889328, -0.11581705510616302, -0.13882358372211456, -0.06077210605144501, -0.026280278339982033, -0.08365533500909805, -0.0363597609102726, -0.18335653841495514, -0.23956647515296936, -0.2770162522792816, -0.2764078378677368, -0.12198495864868164, -0.13344329595565796, -0.18085063993930817, -0.11923404037952423, -0.018620934337377548, 0.0029770664405077696, -0.047478023916482925, 0.3074221909046173, 0.5887905955314636, 0.36700573563575745, 0.06367380172014236, 0.0026376822497695684, -0.026582593098282814, 0.023139920085668564, -0.015813058242201805, -0.18054965138435364, -0.2176278680562973, -0.25511813163757324, -0.13088710606098175, -0.06848568469285965, 0.009743615053594112, -0.14310625195503235, -0.1245134174823761, -0.03568550571799278, -0.09659483283758163, -0.1589583158493042, -0.3578265309333801, -0.32865414023399353, -0.28304505348205566, -0.2381274700164795, -0.15244784951210022, -0.15598896145820618, -0.0656328946352005, -0.00881215650588274, -0.10133026540279388, 0.2601815462112427, 0.6071235537528992, 0.4073377251625061, 0.0820726528763771, 0.010836161673069, -0.03650953620672226, -0.044307492673397064, -0.047522079199552536, -0.13980156183242798, -0.14819121360778809, -0.1365010291337967, -0.1764853298664093, -0.03267884626984596, 0.05418768152594566, 0.05783473700284958, 0.09002094715833664, 0.1280859261751175, 0.19743669033050537, 0.16216419637203217, -0.08917555958032608, -0.25969067215919495, -0.3201437294483185, -0.23215238749980927, -0.2671070396900177, -0.2870837450027466, -0.20899470150470734, -0.27202263474464417, -0.266666054725647, 0.14019586145877838, 0.4843807518482208, 0.3309641182422638, 0.09806929528713226, 0.010092809796333313, -0.029833374544978142, -0.03972949832677841, -0.059336066246032715, -0.1660880148410797, -0.14925694465637207, -0.030224410817027092, 0.046642765402793884, 0.043052028864622116, 0.12392280250787735, 0.14598912000656128, 0.1511247605085373, 0.147009938955307, 0.23465698957443237, 0.30665168166160583, -0.14465458691120148, -0.3707311451435089, -0.18870210647583008, -0.16970406472682953, -0.2373296171426773, -0.21828459203243256, -0.3547968566417694, -0.30769383907318115, -0.36572107672691345, 0.014581587165594101, 0.1577729731798172, 0.13672660291194916, 0.04251797869801521, -0.01775454171001911, -0.02800809219479561, 0.008150089532136917, -0.04638700559735298, -0.09676890075206757, -0.11130046844482422, 0.04340009763836861, 0.2788899540901184, 0.20245110988616943, 0.10019037872552872, 0.1208844780921936, 0.22781631350517273, 0.24248889088630676, 0.45374464988708496, 0.4109498858451843, -0.09623304754495621, -0.19400419294834137, -0.16025778651237488, -0.051055796444416046, -0.051008064299821854, -0.264362633228302, -0.2967740595340729, -0.3019877076148987, -0.20161578059196472, 0.04267701879143715, 0.020160790532827377, -0.08767242729663849, -0.04309924319386482, -0.002483176300302148, 0.033154841512441635, -0.027475008741021156, -0.004681848455220461, -0.08240333199501038, -0.020938491448760033, 0.19145935773849487, 0.2512013018131256, 0.22417327761650085, 0.2038857340812683, 0.19185520708560944, 0.25880691409111023, 0.22823366522789001, 0.40128853917121887, 0.2525056302547455, -0.10660155117511749, -0.1328972429037094, -0.2594127953052521, -0.0569663904607296, 0.034996259957551956, -0.034993018954992294, -0.18587462604045868, -0.15380334854125977, 0.016219614073634148, 0.2059761881828308, 0.06337960809469223, -0.1320825219154358, -0.10731179267168045, 8.806962796370499e-06, -0.0031790491193532944, 0.016694292426109314, -0.02160484716296196, -0.03471476212143898, -0.024605417624115944, 0.12295568734407425, 0.18577490746974945, 0.12181224673986435, 0.18404917418956757, 0.2104831039905548, 0.20323090255260468, 0.18595357239246368, 0.2957324981689453, 0.12150085717439651, -0.0791051983833313, -0.08328481018543243, -0.13927586376667023, -0.13773846626281738, -0.17860852181911469, -0.18629400432109833, -0.06944762170314789, 0.0024739899672567844, 0.048745106905698776, 0.17917108535766602, 0.15998877584934235, -0.09559555351734161, -0.04580597206950188, 0.02319253608584404, -0.008455733768641949, -0.012267718091607094, -0.02102682553231716, -0.07356362044811249, -0.054607413709163666, -0.018518831580877304, -0.021620308980345726, 0.043317925184965134, 0.13658371567726135, 0.16108879446983337, 0.08561312407255173, 0.1408313810825348, 0.2760598063468933, 0.018101315945386887, -0.0334353931248188, -0.15469112992286682, -0.08524994552135468, -0.21013598144054413, -0.05495196580886841, -0.10089649260044098, -0.007798722945153713, 0.0018800401594489813, 0.05911489203572273, 0.18627133965492249, 0.050463829189538956, -0.16162793338298798, -0.11811134219169617, 0.002167921047657728, 0.01978989504277706, 0.011498512700200081, 0.005586826708167791, -0.08268573135137558, -0.13178357481956482, -0.07707284390926361, -0.05564158037304878, -0.05977405235171318, -0.047844547778367996, -0.08042404055595398, -0.019573964178562164, 0.137860506772995, 0.0270102396607399, 0.0012850051280111074, 0.07141610980033875, -0.06426600366830826, -0.22710347175598145, -0.20224612951278687, -0.04322829842567444, 0.05274593085050583, 0.05055217817425728, -0.03501446917653084, 0.047624457627534866, 0.12344518303871155, 0.003473273478448391, -0.2133714258670807, -0.10129428654909134, 0.015902407467365265, 0.011349435895681381, -0.029652340337634087, 0.011512973345816135, -0.042955074459314346, -0.12017538398504257, 0.015182207338511944, 0.05395412817597389, -0.0796000137925148, -0.13021937012672424, -0.2104894518852234, -0.06821470707654953, -0.0580657534301281, -0.24215461313724518, -0.2409663200378418, -0.0945141464471817, -0.12021346390247345, -0.023164374753832817, 0.00031894250423647463, 0.07872256636619568, 0.10180220752954483, 0.0626879334449768, 0.007381508592516184, 0.0032227609772235155, 0.08614015579223633, -0.11436112970113754, -0.274091899394989, -0.1231098547577858, 0.015248250216245651, 0.0340241938829422, -0.03258062154054642, -0.006524954456835985, -0.024803051725029945, -0.10833091288805008, -0.05093205347657204, 0.16862869262695312, 0.05620797723531723, 0.04197140038013458, 0.01399645209312439, -0.08146065473556519, -0.0523119755089283, -0.08403608202934265, -0.18180285394191742, -0.070283904671669, 0.03363994136452675, 0.028600893914699554, 0.05639030784368515, 0.0560089610517025, 0.010052152909338474, 0.014544122852385044, 0.013864940032362938, 0.048850275576114655, 0.03888090327382088, -0.1537102460861206, -0.14857210218906403, -0.006179859861731529, -0.02565515972673893, 0.032004304230213165, 0.019608478993177414, -0.009822094812989235, -0.053780145943164825, -0.024371540173888206, -0.07334230095148087, 0.12744808197021484, 0.0024646527599543333, 0.10393209755420685, 0.04529622942209244, 0.12860576808452606, 0.1746499091386795, 0.11165090650320053, 0.03004917874932289, 0.10111019760370255, 0.14232341945171356, 0.1797322928905487, 0.14308343827724457, 0.19654472172260284, 0.12464135140180588, 0.09094268083572388, 0.1230168268084526, 0.05636030063033104, 0.007157729472965002, -0.12654845416545868, -0.14735141396522522, -0.023188645020127296, -0.005099695175886154, -0.02756168693304062, 0.011220617219805717, -0.004070707131177187, -0.033353012055158615, -0.0513555184006691, -0.03541535884141922, 0.04928617551922798, -0.02969086728990078, 0.10613103955984116, 0.13885924220085144, 0.19177818298339844, 0.2324911653995514, 0.23172324895858765, 0.22190457582473755, 0.19036369025707245, 0.22075550258159637, 0.1980224996805191, 0.22330714762210846, 0.19066187739372253, 0.06527465581893921, 0.04245471954345703, 0.05881796404719353, 0.12481864541769028, -0.034092050045728683, -0.13152313232421875, -0.07216523587703705, 0.020339036360383034, 0.007427078206092119, 0.027325419709086418, 0.02309327945113182, 0.021838625892996788, -0.03899042680859566, -0.005387294106185436, 0.014688719995319843, -0.03074793703854084, 0.10422278195619583, 0.0814155861735344, 0.04774243012070656, 0.0707092136144638, 0.2202438861131668, 0.23447267711162567, 0.21054060757160187, 0.26480329036712646, 0.28847774863243103, 0.14358554780483246, 0.19773024320602417, 0.04972182214260101, -0.021274883300065994, 0.09792543947696686, 0.10136902332305908, 0.09475302696228027, -0.022724507376551628, -0.08191601186990738, -0.041754867881536484, 0.027500545606017113, -0.018203526735305786, -0.035470735281705856, 0.005294518545269966, 0.03944241255521774, -0.0029737839940935373, 0.0002330073475604877, 0.0061722490936517715, -0.08062241971492767, -0.10550188273191452, -0.08653534203767776, -0.057095836848020554, -0.10250457376241684, 0.010290903970599174, 0.0017129492480307817, 0.1803334802389145, 0.050633177161216736, 0.10821694880723953, 0.13444370031356812, 0.10131236165761948, 0.08678066730499268, 0.1452227234840393, 0.10854609310626984, 0.09542568773031235, -0.00451448792591691, -0.0021965699270367622, -0.05771202594041824, -0.03053736314177513, 0.033263273537158966, -0.03443525731563568, -0.01964862458407879, -0.012397294864058495, 0.022120773792266846, -0.0010203499114140868, 0.02018045447766781, 0.006103083025664091, -0.047152869403362274, -0.13273932039737701, 0.03949422016739845, 0.04022446647286415, 0.04520757496356964, -0.03839881345629692, -0.06892755627632141, -0.061464227735996246, -0.0057428330183029175, 0.06852125376462936, 0.16539312899112701, 0.15957538783550262, 0.05553799122571945, 0.10871430486440659, 0.1410570591688156, 0.05215281620621681, -0.014532574452459812, -0.012996342964470387, 0.005486072041094303, 0.0013339165598154068, 0.031958721578121185, -0.006736453622579575, -0.021533068269491196, -0.03502839431166649, -0.010418474674224854, 0.031251415610313416, -0.006335070822387934, -0.08558554202318192, -0.10357688367366791, -0.0425519123673439, -0.08114257454872131, 0.08533526957035065, 0.03778964281082153, 0.05891653522849083, 0.043443478643894196, 0.07791983336210251, 0.06545494496822357, 0.05613821744918823, 0.042363084852695465, 0.061872296035289764, 0.08453033119440079, 0.04398185387253761, 0.019910365343093872, 0.0005674705607816577, 0.015245351940393448, 0.04486440494656563, 0.018842149525880814, 0.01591050811111927, 0.02879398502409458, 0.00693608820438385, 0.000957585871219635, 0.0274515263736248, 0.011147303506731987, 0.03580806031823158, -0.020118216052651405, -0.04611227661371231, -0.07900398969650269, -0.11275699734687805, -0.12518930435180664, -0.05360346660017967, -0.01840677298605442, -0.07253331691026688, -0.12253334373235703, -0.11942658573389053, -0.15384401381015778, -0.15799355506896973, -0.088322214782238, -0.11814899742603302, -0.11931139975786209, -0.09725154936313629, -0.07659287750720978, -0.010156692005693913, 0.05721403658390045, 0.026653537526726723, -0.0013255689991638064, 0.03071875497698784, -0.027430620044469833, -0.01995166763663292, -0.02125818096101284, 0.02947261556982994, -0.012044558301568031, -0.013818399049341679, -0.02700711600482464, -0.010629687458276749, -0.05723435431718826, -0.07013566046953201, -0.17983391880989075, -0.1691269874572754, -0.18086367845535278, -0.08923668414354324, -0.09943901747465134, -0.17737643420696259, -0.2216096967458725, -0.20824825763702393, -0.15232375264167786, -0.16785018146038055, -0.12970049679279327, -0.07537943124771118, -0.0534655824303627, -0.04107656329870224, 0.01947086676955223, 0.001630445010960102, -0.028420569375157356, -0.004804244730621576, -0.020369896665215492, 0.00791449099779129, -0.0073758624494075775, -0.01472993940114975, 0.02548404410481453, -0.028135428205132484, -0.010045137256383896, -0.022633029147982597, -0.024207530543208122, -0.002447716426104307, -0.008598013781011105, -0.0428718663752079, -0.06042913347482681, -0.04446486383676529, -0.010487829335033894, -0.0644395723938942, -0.07314163446426392, -0.025491008535027504, -0.04474787786602974, -0.037196043878793716, -0.008853771723806858, -0.03519418463110924, -0.016436325386166573, -0.020590657368302345, -0.0010893804719671607, -0.011695344001054764, 0.025997500866651535, 0.019416693598031998, -0.007942140102386475, -0.026523202657699585], [-0.02640550211071968, -0.00407009944319725, -0.0029510483145713806, 0.0331878624856472, 0.031102214008569717, -0.025882164016366005, 0.03519027307629585, -0.024091526865959167, 0.027534764260053635, 0.034468453377485275, 0.017160210758447647, -0.034385453909635544, 0.016622617840766907, -0.014276007190346718, 0.013573451898992062, 0.02860632911324501, -0.016953248530626297, -0.017105579376220703, -0.010839313268661499, 0.015841100364923477, 0.024612873792648315, 0.026133451610803604, -0.004428822547197342, -0.022230319678783417, -0.004976646974682808, -0.011157488450407982, 0.015467438846826553, 0.012465830892324448, -0.03247158229351044, -0.008753925561904907, 0.008965425193309784, -0.01805828884243965, -0.029408372938632965, 0.010050623677670956, -0.006566177122294903, -0.024825025349855423, -0.010401204228401184, -0.019356466829776764, -0.0317426435649395, 0.012113843113183975, 0.043573047965765, -0.015568130649626255, 0.01115227397531271, 0.004214564338326454, 0.02055048942565918, 0.03782527148723602, -0.009955433197319508, -0.02093680016696453, -0.030835364013910294, -0.007266514468938112, 0.029715407639741898, -0.02652219496667385, 0.024683233350515366, 0.03439313545823097, 0.02799861505627632, -0.0058531127870082855, 0.028559591621160507, -0.00410919263958931, 0.0014322674833238125, 0.013181974180042744, 0.02667449414730072, -0.008520801551640034, -0.03985610604286194, -0.02096390165388584, 0.04103507474064827, 0.04849230870604515, 0.04855160042643547, 0.016101349145174026, -0.007267388980835676, -0.048743847757577896, -0.011332749389111996, -0.06879351288080215, -0.07106824219226837, -0.009687441401183605, -0.02037101984024048, -0.0006993903662078083, -0.0003349473117850721, -0.011065918952226639, 0.032875970005989075, 0.02017822675406933, 0.028838444501161575, -0.020103000104427338, -0.016412079334259033, 0.019920174032449722, 0.020740777254104614, -0.020544573664665222, 0.022261090576648712, -0.015657566487789154, 0.007640348747372627, -0.006455484312027693, 0.01822233758866787, 0.005939252208918333, 0.03510317951440811, 0.05408257246017456, 0.06689809262752533, 0.1023852750658989, 0.014076507650315762, 0.04092327132821083, 0.009009506553411484, 0.004840352572500706, 0.03691527619957924, 0.07005530595779419, -0.0018002978758886456, -0.04399172589182854, -0.05878787860274315, 0.009378958493471146, -0.03159799054265022, -0.021846164017915726, 0.01787748374044895, -0.005684293806552887, 0.01918712444603443, 0.025485895574092865, 0.019417107105255127, -0.008796172216534615, 0.004181412514299154, -0.029841367155313492, -0.02882981114089489, -0.015702201053500175, -0.056582409888505936, -0.03344101086258888, -0.05667269229888916, 0.02459617517888546, -0.01562594249844551, 0.03418058156967163, -0.07496553659439087, -0.09733006358146667, -0.13028740882873535, -0.09412236511707306, -0.09805386513471603, -0.028592798858880997, -0.09901595860719681, -0.09733806550502777, -0.10580306500196457, -0.07333098351955414, -0.04275180771946907, -0.06399615854024887, -0.01966341771185398, -0.0038196085952222347, -0.011845484375953674, -0.010614446364343166, 0.023512721061706543, 0.0028229914605617523, 0.013257695361971855, -0.03385483846068382, -0.04888954758644104, -0.0475388765335083, -0.07071448117494583, 0.005939225200563669, 0.02864185720682144, 0.015291313640773296, 0.04465560242533684, 0.053870514035224915, 0.017045626416802406, -0.023674141615629196, -0.04159430041909218, -0.07574030011892319, -0.055862221866846085, 0.05282416567206383, 0.021822595968842506, -0.07187431305646896, -0.12888368964195251, -0.13397574424743652, -0.10892229527235031, -0.08837278187274933, -0.040267810225486755, -0.013188760727643967, -0.013161786831915379, -0.028997154906392097, 0.017244957387447357, 0.01563464105129242, 0.0209280326962471, 0.031599752604961395, -0.021417196840047836, -0.014857977628707886, -0.013840852305293083, 0.0853441134095192, 0.09147114306688309, 0.07108656316995621, 0.08975304663181305, 0.059904731810092926, 0.011868889443576336, 0.03970509022474289, 0.03194018080830574, 0.05069851502776146, 0.0468505397439003, 0.13973037898540497, 0.060280267149209976, -0.009225125424563885, 0.02272801846265793, 0.10462629795074463, 0.06405630707740784, -0.10431742668151855, -0.11084447801113129, -0.06533832103013992, 0.0011423600371927023, 0.030340248718857765, 0.011995832435786724, 0.031972113996744156, -0.004324623849242926, 0.019568748772144318, -0.06867411732673645, -0.02160576544702053, 0.08087994158267975, 0.13019807636737823, 0.04744526743888855, 0.12597842514514923, 0.08383479714393616, 0.16782931983470917, 0.03842383623123169, 0.04023943468928337, 0.03912067040801048, 0.011062555015087128, 0.045589253306388855, 0.17299851775169373, 0.12218876928091049, 0.02492366172373295, 0.014129365794360638, 0.040806811302900314, 0.10058960318565369, 0.02927650697529316, -0.11954635381698608, -0.07010362297296524, -0.05204753205180168, -0.03455488756299019, 0.0071265376172959805, 0.019776685163378716, 0.021490955725312233, 0.03692182898521423, -0.04469914361834526, 0.0010073023149743676, 0.0249565988779068, 0.06925511360168457, 0.1252398043870926, 0.10987424850463867, 0.07873768359422684, 0.13914169371128082, 0.11027760803699493, -0.008115129545331001, 0.1332007348537445, 0.07384337484836578, 0.20984698832035065, 0.04818200692534447, 0.09500633180141449, 0.02715539187192917, 0.08531155437231064, 0.0010691629722714424, 0.09932361543178558, 0.21859364211559296, -0.060759756714105606, -0.12119746953248978, -0.03853307664394379, -0.00994248315691948, -0.024876372888684273, 0.010740379802882671, 0.03790602087974548, 0.027758682146668434, -0.019727183505892754, 0.03733811527490616, -0.016189061105251312, -0.04024656489491463, 0.04999673366546631, 0.055985696613788605, 0.15383709967136383, 0.15600350499153137, 0.19578592479228973, 0.1123989075422287, 0.11374065279960632, 0.014756312593817711, 0.10182737559080124, 0.13247743248939514, 0.12130546569824219, 0.1566312164068222, 0.05707539618015289, 0.002088194014504552, 0.0800020769238472, 0.17468401789665222, 0.03198396787047386, -0.1271880865097046, -0.029468338936567307, 6.365273293340579e-05, -0.0328095518052578, -0.004142618738114834, 0.009319514967501163, 0.10612773895263672, 0.05649302899837494, 0.06499335914850235, -0.03996022790670395, -0.003869361709803343, 0.055140431970357895, 0.19960536062717438, 0.1175706535577774, 0.17684641480445862, 0.14364880323410034, 0.11167380958795547, -0.007758025545626879, -0.045644067227840424, 0.09443000704050064, 0.15570968389511108, 0.149736687541008, 0.16275346279144287, 0.24897199869155884, 0.1337684988975525, 0.15954861044883728, 0.16381222009658813, 0.011816433630883694, -0.09965228289365768, -0.06598032265901566, -0.004870099946856499, -0.03271862864494324, -0.014518435113132, 0.01950540393590927, 0.06815316528081894, -0.03469497710466385, -0.030046939849853516, 0.014702090062201023, 0.03308473899960518, 0.09194019436836243, 0.10976489633321762, 0.08698051422834396, 0.12860584259033203, -0.0015144686913117766, -0.07428053021430969, -0.3889453709125519, -0.29402783513069153, -0.08225411921739578, 0.032934680581092834, -0.05329292267560959, 0.11557869613170624, 0.14807164669036865, 0.23326446115970612, 0.15585164725780487, 0.0681484192609787, 0.006981720682233572, -0.10602541267871857, -0.07600818574428558, 0.024264328181743622, -0.027035009115934372, 0.015987437218427658, 0.06913590431213379, 0.027179520577192307, -0.012259995564818382, -0.09370259940624237, 0.0030607625376433134, 0.0500933974981308, 0.020738985389471054, -0.06878295540809631, 0.01719852350652218, 0.17340677976608276, -0.01741420291364193, -0.37263622879981995, -0.6751098036766052, -0.3116479814052582, -0.08176736533641815, -0.12696528434753418, -0.17306797206401825, -0.054145824164152145, 0.004688076674938202, 0.07610084116458893, 0.15775001049041748, 0.16210263967514038, 0.11911222338676453, -0.04170922562479973, -0.026044851168990135, -0.00018268311396241188, 0.0043252152390778065, 0.011897065676748753, 0.046246252954006195, 0.019826490432024002, -0.04195408895611763, 0.030344100669026375, 0.06402406096458435, 0.07511290907859802, -0.07469718903303146, -0.09342191368341446, 0.14865945279598236, 0.22446051239967346, -0.028591087087988853, -0.5048814415931702, -0.6274139285087585, -0.33441367745399475, -0.16204625368118286, -0.21673984825611115, -0.09572922438383102, -0.16398495435714722, -0.09658266603946686, 0.046929072588682175, 0.24871724843978882, 0.2996697425842285, 0.18240027129650116, 0.016866574063897133, -0.009863683022558689, -0.03723078966140747, -0.004326522350311279, 0.013432739302515984, 0.04435190185904503, -0.04016118496656418, -0.03016284480690956, 0.15430431067943573, 0.08590579032897949, 0.1392868310213089, 0.007232376839965582, -0.02465968020260334, 0.1544768363237381, 0.15982501208782196, -0.14433462917804718, -0.46422305703163147, -0.6343764662742615, -0.29904207587242126, -0.07954820990562439, -0.06001979112625122, -0.058169931173324585, -0.022910716012120247, 0.08089691400527954, 0.15422044694423676, 0.30491310358047485, 0.3922131359577179, 0.17127768695354462, 0.021030262112617493, -0.005326860584318638, -0.03337021544575691, 0.021321624517440796, 0.004966055508702993, -0.008786587975919247, -0.043514322489500046, 0.024072770029306412, 0.16173869371414185, 0.12730048596858978, 0.154705211520195, 0.09183225780725479, 0.1112072691321373, 0.2305602878332138, 0.03505837544798851, -0.25971782207489014, -0.5346546769142151, -0.679797351360321, -0.14841221272945404, -0.06827106326818466, 0.09301495552062988, 0.052635062485933304, 0.04665379226207733, 0.1874437779188156, 0.1622014045715332, 0.2309451401233673, 0.2589399218559265, 0.13606101274490356, -0.009100633673369884, -0.001253710244782269, -0.033910855650901794, -0.0009217585320584476, -0.02673047035932541, -0.005387470591813326, -0.06892265379428864, 0.014249978587031364, 0.15242326259613037, 0.12678684294223785, 0.16872620582580566, 0.22470742464065552, 0.12600857019424438, 0.055101361125707626, -0.11478874087333679, -0.28569382429122925, -0.48658379912376404, -0.46469584107398987, 0.0033700240310281515, 0.021635882556438446, 0.14787544310092926, 0.08805100619792938, 0.12619981169700623, 0.19212132692337036, 0.09916239231824875, 0.10600753128528595, 0.02030382864177227, -0.00902796071022749, 0.01569891721010208, -0.02430643141269684, -0.006803230382502079, -0.004445236176252365, 0.005708445329219103, -0.04027467593550682, -0.06274541467428207, 0.03859281167387962, 0.1390014886856079, 0.09865593165159225, 0.14098766446113586, 0.17789821326732635, 0.1411682665348053, -0.02436491660773754, -0.07392887026071548, -0.22893407940864563, -0.32854610681533813, -0.2901548445224762, -0.01136521715670824, 0.10385832190513611, 0.2107715606689453, 0.1529833823442459, 0.037482813000679016, 0.10474719852209091, 0.007440505083650351, 0.06315203756093979, 0.008978279307484627, 0.060887016355991364, 0.08566732704639435, -0.026391124352812767, 0.03199153020977974, 0.012099545449018478, -0.004897465463727713, -0.024179963394999504, -0.10131093859672546, -0.00205364846624434, 0.10961057245731354, 0.029139846563339233, 0.1307932585477829, 0.15882816910743713, 0.07447735220193863, 0.013627796433866024, -0.029700204730033875, -0.09707717597484589, -0.160546213388443, -0.11963890492916107, 0.007276369724422693, 0.06830007582902908, 0.1349887251853943, 0.09655740112066269, 0.06463436037302017, 0.026010772213339806, 0.022234627977013588, 0.042878929525613785, -0.021856239065527916, 0.033841632306575775, 0.016912128776311874, 0.0015390876214951277, 0.020910466089844704, -0.033494580537080765, -0.02874578721821308, 0.006585113704204559, -0.05197268724441528, 0.09471716731786728, 0.11864259839057922, 0.15004882216453552, 0.03970044106245041, 0.029605435207486153, -0.046504996716976166, 0.007189219351857901, 0.05290134623646736, 0.16659288108348846, -0.031206617131829262, -0.03609442710876465, -0.038897495716810226, -0.12491824477910995, 0.023326072841882706, -0.0006500859162770212, 0.007739270571619272, 0.006736407522112131, -0.02100715972483158, 0.0064736781641840935, -0.02070949599146843, 0.008071220479905605, 0.01338908076286316, 0.02326250821352005, -0.029483063146471977, 0.00029655545949935913, 0.023634670302271843, 0.006001031957566738, -0.01285453513264656, 0.046388812363147736, 0.18192915618419647, -0.01186992134898901, -0.10113640874624252, -0.07569538801908493, -0.016583651304244995, -0.018300892785191536, -0.024326007813215256, 0.12150231748819351, 0.10749135166406631, 0.039120569825172424, 0.017512207850813866, -0.09752301126718521, -0.07318159937858582, -0.10026052594184875, -0.09039905667304993, -0.08572524785995483, -0.0481245219707489, -0.04389336332678795, -0.00356372632086277, 0.031745269894599915, 0.03436243534088135, -0.018441254273056984, -0.02179023250937462, -0.0254634078592062, 0.025608833879232407, -0.005248096771538258, -0.019619189202785492, -0.03138067573308945, -0.02938714064657688, -0.1117105558514595, -0.05300932005047798, -0.11473828554153442, -0.031037351116538048, -0.047306764870882034, 0.05464945361018181, 0.07490368187427521, 0.01136642973870039, -0.05593373253941536, -0.05915100499987602, -0.03241683170199394, -0.07871124893426895, -0.10508143901824951, -0.09470924735069275, -0.08683722466230392, -0.05250626429915428, -0.0020918434020131826, 0.011997861787676811, 0.0024317263159900904, 0.012916898354887962, 0.02159402333199978, 0.013001284562051296, 0.010456927120685577, -0.010360370390117168, -0.02945530042052269, -0.05242403224110603, -0.12245824187994003, -0.14425337314605713, -0.10097399353981018, -0.0030633590649813414, 0.10087127238512039, 0.09341701120138168, 0.044171858578920364, 0.06664957851171494, 0.15360604226589203, 0.1796095073223114, 0.06408454477787018, 0.05038287863135338, 0.030356409028172493, -0.08711783587932587, -0.09361227601766586, -0.10117274522781372, -0.06255055218935013, -0.045559126883745193, 0.0412110909819603, 0.04374244064092636, -0.04057837277650833, -0.028909821063280106, -0.028710581362247467, 0.002364721382036805, 0.02292816713452339, 0.00826040655374527, 0.0007098281639628112, -0.04371111840009689, -0.10514214634895325, -0.11240434646606445, -0.08711674809455872, 0.05396890267729759, -0.04486183449625969, 0.022262990474700928, 0.08986756950616837, 0.09838053584098816, 0.02579343691468239, 0.022808535024523735, 0.08769077062606812, 0.030774477869272232, -0.0858631432056427, -0.07079813629388809, -0.10226258635520935, -0.12030376493930817, -0.0988028272986412, -0.03530944883823395, -0.0039616357535123825, -0.025164810940623283, 0.028584633022546768, -0.0366254597902298, -0.019878549501299858, 0.027662809938192368, 0.010889049619436264, 0.02307501807808876, -0.03981494531035423, -0.002590164542198181, 0.002933397190645337, 0.04711700975894928, 0.0021617659367620945, 0.013891048729419708, -0.018911821767687798, -0.053780004382133484, -0.010431620292365551, -0.03927147015929222, 0.007502131629735231, 0.07360389828681946, 0.05490456148982048, 0.031747642904520035, 0.03481707349419594, 0.019448766484856606, -0.12313199043273926, -0.14431563019752502, -0.14569702744483948, -0.07414468377828598, -0.04140918701887131, -0.053053248673677444, 0.006481520365923643, -0.021998297423124313, -0.013867555186152458, 0.02067786455154419, -0.023318002000451088, -0.002295352518558502, 0.017677396535873413, 0.019853033125400543, 0.012988814152777195, 0.049427278339862823, 0.011305250227451324, 0.003975962288677692, -0.022512372583150864, 0.02847283147275448, -0.0245185736566782, -0.002233709441497922, -0.05485454946756363, 0.0006114373099990189, 0.03395026549696922, 0.06426095217466354, 0.02374802529811859, -0.06543710827827454, -0.05931688845157623, -0.0711434930562973, -0.1412581503391266, -0.10579404979944229, -0.019460363313555717, -0.02198565937578678, 0.02875213883817196, 0.03133046627044678, 0.03168342262506485, 0.035303834825754166, -0.008512195199728012, 0.025964125990867615, 0.01809915155172348, 0.016842380166053772, 0.010647032409906387, -0.0025758480187505484, 0.01857745088636875, 0.027269572019577026, 0.06015264242887497, 0.007240824867039919, 0.038112591952085495, 0.013484258204698563, -0.010124706663191319, 0.03882855921983719, 0.009515590034425259, 0.017801383510231972, 0.048245660960674286, -0.02849767357110977, -0.0010925569804385304, -0.010295312851667404, -0.05213294178247452, -0.026679757982492447, 0.017511604353785515, -0.0034348408225923777, -0.0007420289912261069, 0.019923480227589607, -0.01594812236726284, 0.029439929872751236, 0.019048001617193222, -0.007329264655709267, 0.006453204900026321, 0.02218010276556015, 0.016812263056635857, 0.003105124458670616, 0.009969516657292843, -0.029850400984287262, 0.030477359890937805, 0.03583865612745285, 0.05173671990633011, 0.02512642741203308, -0.004622850567102432, 0.0557083785533905, 0.05947800725698471, -0.015177933499217033, 0.017712809145450592, 0.04184198006987572, 0.03171380236744881, 0.030452029779553413, -0.026934290304780006, -0.026195824146270752, 0.01003353949636221, 0.030280282720923424, 0.012056425213813782, 0.008600268512964249, 0.027164015918970108, 0.005768615752458572], [0.013840876519680023, 0.009785972535610199, -0.027920043095946312, 0.01878489926457405, -0.02123628556728363, 0.011800888925790787, -0.012641707435250282, -0.007524307817220688, 0.028439711779356003, -0.022763032466173172, 0.002533305436372757, -0.01196630485355854, -0.010812596417963505, 0.0030050468631088734, 0.019169021397829056, -0.0044047343544662, 0.027730893343687057, -0.024125710129737854, -0.034480299800634384, 0.03434869274497032, 0.01039126142859459, -0.026604946702718735, -0.024961993098258972, 0.020982805639505386, 0.010124675929546356, 0.02065179869532585, -0.0177137553691864, -0.01842140033841133, 0.010290920734405518, -0.012092506512999535, 0.009909335523843765, -0.014065539464354515, -0.03185711055994034, 0.025469068437814713, -0.03573702648282051, 0.021323727443814278, -0.021445905789732933, 0.006647991947829723, -0.02514832094311714, 0.014527658931910992, -0.039311494678258896, 0.018474392592906952, -0.029429104179143906, -0.011908384971320629, 0.0028287325985729694, 0.038039494305849075, -0.023965096101164818, -0.025804534554481506, 0.02050826884806156, -0.0354980044066906, 8.707508823135868e-05, 0.013774448074400425, 0.015986498445272446, -0.0344104990363121, -0.03163935989141464, 0.035587672144174576, -0.03074585646390915, -0.01861964911222458, 0.030014365911483765, -0.03338733687996864, -0.005276395473629236, -0.007843619212508202, 0.003619592636823654, 0.010181068442761898, -0.018802819773554802, -0.029896607622504234, -0.05352502688765526, -0.01317509263753891, -0.07766871899366379, -0.05223536491394043, -0.07649262249469757, -0.04060811549425125, -0.07868021726608276, -0.06494959443807602, -0.009579015895724297, -0.06603272259235382, -0.00965410377830267, -0.0072351060807704926, 0.0065455930307507515, -0.03777306154370308, 0.009981578215956688, 0.00140695134177804, 0.029947418719530106, -0.03227396681904793, 0.003797437995672226, -0.014923075214028358, 0.015811992809176445, -0.011522754095494747, 0.013333269394934177, 0.01341931987553835, -0.019818685948848724, -0.06980736553668976, -0.042084161192178726, 0.009759391658008099, -0.026648083701729774, 0.014497760683298111, -0.012401660904288292, -0.05419144779443741, -0.08182048052549362, -0.08417258411645889, -0.008769271895289421, -0.03009156323969364, -0.011348901316523552, -0.08765054494142532, -0.010152587667107582, -0.03478894382715225, -0.0192634928971529, 0.011953766457736492, 0.024167116731405258, -0.013636100105941296, 0.009812206961214542, 0.002295553684234619, 0.03491218015551567, -0.0035869998391717672, 0.0010939768981188536, -0.016734227538108826, -0.027339844033122063, -0.048578836023807526, -0.017275281250476837, -0.009983873926103115, 0.013674295507371426, 0.03545060753822327, 0.09511744976043701, 0.16875873506069183, 0.21650777757167816, 0.1287315934896469, 0.21058717370033264, 0.24042654037475586, 0.15245473384857178, 0.028198041021823883, 0.015850404277443886, -0.0759047120809555, -0.09616807103157043, -0.18306413292884827, -0.16619068384170532, -0.09412837773561478, 0.0002185859193559736, 0.03678387403488159, 0.027974357828497887, -0.03413529694080353, -0.03543895110487938, 0.00714058056473732, -0.03031662479043007, -0.008248438127338886, -0.04558051377534866, -0.07121764868497849, -0.09396664798259735, -0.03699390962719917, -0.10540571063756943, -0.012253648601472378, 0.02271214686334133, 0.21874146163463593, 0.18244266510009766, 0.11228929460048676, 0.14611691236495972, 0.09399277716875076, 0.23352964222431183, 0.23577846586704254, 0.08442145586013794, 0.05932880565524101, 0.12173327058553696, -0.037442080676555634, -0.06409026682376862, -0.09438775479793549, 0.012018891982734203, 0.0793091207742691, 0.00925998855382204, 0.017361169680953026, -0.003955695778131485, -0.02551654353737831, -0.016349591314792633, 0.011478545144200325, -0.07391374558210373, -0.06779998540878296, -0.12432430684566498, -0.08289044350385666, -0.09400421380996704, -0.039749592542648315, -0.027369575574994087, 0.009187339805066586, 0.11733163148164749, 0.09656620025634766, 0.03481428325176239, 0.137556791305542, 0.05511569231748581, 0.006626002490520477, 0.005919921677559614, 0.1172213926911354, 0.024501148611307144, -0.017449907958507538, 0.052919190376996994, 0.15100058913230896, 0.1878901869058609, 0.15212467312812805, 0.04946478083729744, 0.002710134955123067, 0.017515534535050392, -0.002922241110354662, -0.021920107305049896, -0.04155367985367775, -0.0514899417757988, -0.03634946048259735, -0.09474790841341019, -0.08318504691123962, 0.0626663789153099, -0.036643169820308685, 0.007446266710758209, 0.021280184388160706, 0.013315893709659576, 0.13081005215644836, 0.17638395726680756, 0.18246562778949738, 0.13735249638557434, 0.01924292929470539, 0.03594997152686119, -0.046454574912786484, -0.12549622356891632, -0.012311991304159164, -0.02354034222662449, 0.20795419812202454, 0.2855338156223297, 0.1820104420185089, 0.026252152398228645, 0.03293588012456894, -0.03286793455481529, -0.00877088587731123, -0.055855367332696915, -0.06701482087373734, -0.09194829314947128, -0.07784070819616318, 0.024343790486454964, -0.027019023895263672, -0.05024632811546326, 0.06334957480430603, 0.08371198177337646, 0.022051900625228882, 0.14032769203186035, 0.1853080838918686, 0.11028347164392471, 0.12895631790161133, 0.13825245201587677, -0.07705044746398926, -0.015628458932042122, 0.03321712836623192, 0.016727296635508537, -0.02508566342294216, 0.01718711107969284, 0.24664929509162903, 0.3628823459148407, 0.21134108304977417, 0.04069530963897705, -0.009734127670526505, -0.018294528126716614, -0.00019462293130345643, -0.0803174301981926, -0.11650411039590836, -0.09065350890159607, -0.017932133749127388, 0.08215133845806122, 0.010034012608230114, 0.031519416719675064, 0.09351220726966858, 0.17888303101062775, 0.12154490500688553, 0.03597094118595123, 0.07183633744716644, -0.16103845834732056, -0.24385127425193787, -0.07138823717832565, -0.03654472157359123, -0.036928869783878326, 0.035961415618658066, 0.022480852901935577, 0.01126788929104805, 0.1706734150648117, 0.3539814352989197, 0.40085431933403015, 0.2165815830230713, 0.11714497953653336, -0.008895360864698887, 0.030211320146918297, -0.0022328004706650972, -0.036398954689502716, -0.07512147724628448, -0.036458052694797516, -0.03996705263853073, 0.13383212685585022, 0.10223765671253204, 0.08774206042289734, 0.13719819486141205, 0.12596161663532257, 0.1501423716545105, 0.2007979452610016, -0.11953850090503693, -0.29362013936042786, -0.40237003564834595, -0.23571856319904327, -0.10085046291351318, 0.02113949880003929, 0.017567116767168045, -0.00466599315404892, 0.021304620429873466, 0.1239643543958664, 0.3428482711315155, 0.42692920565605164, 0.2306232452392578, 0.11027033627033234, -0.021082082763314247, 0.007011157460510731, -0.009030608460307121, -0.07743360847234726, -0.13777928054332733, -0.090793177485466, 0.0027152257971465588, 0.12220779806375504, 0.057430122047662735, 0.12013544887304306, 0.10259892046451569, -0.03205830976366997, 0.050554607063531876, 0.026380112394690514, 0.014033802784979343, -0.22452324628829956, -0.3402820825576782, -0.2095591127872467, -0.15583790838718414, -0.11814276874065399, -0.00045137639972381294, -0.010743153281509876, -0.08756671100854874, 0.04314301162958145, 0.2714056074619293, 0.3647523820400238, 0.2247777134180069, 0.07121241837739944, 0.030666854232549667, 0.010916223749518394, -0.045710522681474686, -0.04358676075935364, -0.11027015000581741, -0.08488158881664276, -0.07318688184022903, -0.03727497160434723, -0.12477511167526245, -0.11844296753406525, 0.011127508245408535, 0.041135407984256744, -0.036013077944517136, 0.17334362864494324, 0.33046865463256836, -0.026205120608210564, -0.18702451884746552, -0.127481609582901, -0.11583015322685242, -0.11364762485027313, 0.13438619673252106, 0.12488225847482681, 0.08610476553440094, 0.008377565070986748, 0.10154370218515396, 0.16362221539020538, 0.16383066773414612, 0.03976290673017502, -0.020819542929530144, -0.008215679787099361, 0.015852829441428185, -0.03203009441494942, -0.027955597266554832, -0.0702059417963028, -0.04927843436598778, -0.1601603627204895, -0.060088034719228745, -0.0482778325676918, -0.0568578876554966, -0.10048237442970276, 0.15650367736816406, 0.3522205650806427, 0.36163243651390076, -0.05812942609190941, -0.01921125501394272, -0.0533364973962307, -0.12077727168798447, -0.00071340351132676, 0.051810599863529205, 0.057541921734809875, 0.0007761981105431914, -0.0009390169288963079, -0.11697961390018463, -0.0329461470246315, 0.07306239008903503, 0.03972426429390907, -0.006245909258723259, -0.03091578558087349, -0.004458631854504347, -0.011845257133245468, -0.0149049311876297, -0.04108953848481178, -0.023962106555700302, -0.039575155824422836, -0.018025752156972885, -0.035824455320835114, -0.02520899474620819, 0.032736796885728836, 0.2671147584915161, 0.29680725932121277, 0.2887133061885834, -0.06695736944675446, -0.0538785345852375, -0.015737444162368774, -0.001321294461376965, -0.14094246923923492, -0.1852329820394516, -0.16845759749412537, -0.1106187179684639, -0.2189478874206543, -0.19897758960723877, -0.07645908743143082, 0.07537490874528885, 0.02448558248579502, 0.021701233461499214, -0.009726827032864094, 0.009078174829483032, 0.02138104848563671, 0.022970056161284447, 0.11529276520013809, 0.04850837588310242, -0.011665748432278633, 0.07546178251504898, 0.13117946684360504, 0.11659172922372818, 0.07602962851524353, 0.08714238554239273, 0.28999555110931396, 0.18468981981277466, -0.07122722268104553, -0.036520011723041534, 0.00022260482364799827, -0.21125094592571259, -0.1855335533618927, -0.23744985461235046, -0.3113615810871124, -0.3257031738758087, -0.27949583530426025, -0.09291790425777435, 0.009577377699315548, 0.10422554612159729, 0.052806030958890915, 0.026505790650844574, -0.012370297685265541, -0.0318535678088665, 0.03282073140144348, 0.10259909927845001, 0.09673747420310974, 0.03690791502594948, 0.02699309028685093, 0.06320076435804367, 0.09616589546203613, 0.1433963179588318, 0.13422167301177979, 0.1521768569946289, 0.32806140184402466, 0.029264474287629128, -0.15512636303901672, 0.00013662739365827292, 0.06704394519329071, 0.02132181078195572, -0.09253797680139542, -0.20179788768291473, -0.21207721531391144, -0.23042209446430206, -0.11263024061918259, 0.03143103048205376, 0.14695952832698822, 0.16312216222286224, 0.0479460172355175, 0.019951244816184044, 0.021405506879091263, 0.024640528485178947, 0.022046053782105446, 0.047810498625040054, 0.08084309846162796, 0.05502445623278618, 0.07036344707012177, 0.0684160366654396, 0.13348188996315002, 0.1943376362323761, 0.1872715801000595, 0.3168984055519104, 0.2819957137107849, -0.0403180755674839, -0.190726175904274, -0.09563732892274857, 0.11904113739728928, 0.017516881227493286, -0.12241622805595398, -0.10640954226255417, -0.11383896321058273, -0.10085424780845642, -0.1110149547457695, 0.08013150095939636, 0.132198765873909, 0.08449006825685501, 0.03540118411183357, -0.027316028252243996, -0.024687135592103004, -0.0036940809804946184, -0.013334880582988262, -0.012647615745663643, 0.012483449652791023, 0.08764779567718506, 0.20903928577899933, 0.14490468800067902, 0.13050690293312073, 0.21016502380371094, 0.3161630928516388, 0.3009135127067566, 0.18414492905139923, -0.029729604721069336, -0.09197822213172913, 0.019131354987621307, -0.034910332411527634, -0.10153395682573318, -0.09192715585231781, -0.02083745226264, 0.010752875357866287, -0.10267970710992813, 0.08719596266746521, 0.1970815807580948, 0.21641403436660767, 0.07472674548625946, 0.03203238174319267, -0.011156972497701645, 0.022342853248119354, -0.014922428876161575, 0.0030478336848318577, 0.019073570147156715, 0.02544359304010868, 0.1811777651309967, 0.2119930386543274, 0.20198532938957214, 0.20648100972175598, 0.22254952788352966, 0.245015487074852, 0.0828547552227974, 0.065330870449543, -0.06053164228796959, -0.05083611235022545, 0.03254879638552666, -0.005623918026685715, 0.009161285124719143, 0.04910443350672722, -0.03334670141339302, 0.06556563079357147, 0.0923842042684555, 0.21862193942070007, 0.2760157287120819, 0.1087847575545311, 0.035643115639686584, 0.012317425571382046, -0.017272792756557465, -0.02565079927444458, 0.030420901253819466, 0.03299367427825928, -0.0035926667042076588, 0.10113966464996338, 0.21317151188850403, 0.25313761830329895, 0.29095661640167236, 0.19726520776748657, 0.15434251725673676, 0.1099649965763092, -0.020881427451968193, 0.0023603818845003843, -0.08111467957496643, -0.21102260053157806, 0.05940382927656174, -0.020399965345859528, 0.04780857637524605, 0.13883665204048157, 0.15008138120174408, 0.18426604568958282, 0.26701366901397705, 0.31498295068740845, 0.17988938093185425, 0.06977283954620361, 0.028436830267310143, -0.03041166625916958, -0.004195122048258781, -0.013098451308906078, 0.00699950847774744, 0.016348890960216522, 0.03785905987024307, 0.13117724657058716, 0.07184512913227081, 0.2131544053554535, 0.21896465122699738, 0.06411238014698029, 0.08957836776971817, 0.011247387155890465, 0.022741565480828285, -0.08452937006950378, -0.0525495670735836, -0.05361117422580719, -0.024126769974827766, -0.010909986682236195, 0.07503539323806763, 0.04387737438082695, 0.15620829164981842, 0.1917162537574768, 0.21302202343940735, 0.2750186622142792, 0.1458253562450409, 0.02465231716632843, 0.005197213497012854, 0.035405490547418594, -0.024189883843064308, -0.0017087451415136456, -0.018310004845261574, 0.005747707094997168, 0.0737563893198967, 0.03742681071162224, -0.058204106986522675, 0.025696424767374992, 0.034000642597675323, 0.02282894030213356, 0.008354075253009796, -0.0004126687999814749, 0.21311365067958832, 0.13025915622711182, 0.22798025608062744, 0.040692199021577835, -0.07696305960416794, 0.0037883573677390814, 0.02622874639928341, 0.12460703402757645, 0.12453258037567139, 0.15473030507564545, 0.21731658279895782, 0.15471607446670532, 0.09599731117486954, -0.007384752854704857, 0.004298245068639517, 0.021624237298965454, -0.031160598620772362, 0.017103277146816254, 0.016241785138845444, 0.03142278641462326, 0.079341821372509, 0.0240694060921669, -0.21085940301418304, -0.21761105954647064, -0.17606252431869507, 0.08766162395477295, 0.0584099180996418, 0.03427707776427269, 0.18635675311088562, 0.21931321918964386, 0.2563556432723999, 0.21166352927684784, 0.16594389081001282, 0.13428878784179688, 0.08982660621404648, 0.10706073045730591, 0.18102173507213593, 0.2067776322364807, 0.18790094554424286, 0.16173116862773895, 0.09730827063322067, 0.017433274537324905, -0.01400196272879839, -0.03149019181728363, 0.026408366858959198, 0.021363023668527603, 0.01750132068991661, 0.02738967165350914, 0.006828649900853634, -0.06070319935679436, -0.23352333903312683, -0.2599107027053833, -0.11182285845279694, 0.04079899191856384, 0.05810030177235603, 0.08813656866550446, 0.16866588592529297, 0.1517799198627472, 0.17947445809841156, 0.1249055415391922, 0.1266791820526123, 0.2145998328924179, 0.04642440006136894, 0.19885526597499847, 0.16790032386779785, 0.13617199659347534, 0.0685029849410057, 0.10194583982229233, 0.10517770051956177, -0.00641243439167738, -0.010681570507586002, -0.021645668894052505, 0.006550725549459457, -0.0054605137556791306, 0.005300074815750122, -0.02097984217107296, 0.02498037740588188, -0.0367070771753788, -0.09775333851575851, -0.0830126404762268, -0.12432219088077545, -0.16776695847511292, -0.13020506501197815, -0.03690159320831299, -0.16048088669776917, -0.1768476814031601, -0.07142101973295212, -0.07067785412073135, 0.02094351500272751, 0.06432285159826279, 0.06830618530511856, 0.01254877820611, 0.09568151831626892, 0.05736329406499863, 0.014062043279409409, 0.03908669576048851, 0.03625291958451271, -0.011391399428248405, 0.0326991081237793, -0.015661470592021942, -0.016848480328917503, 0.018971078097820282, -0.00473005510866642, 0.011527180671691895, -0.0069373538717627525, 0.0009656355250626802, -0.025211311876773834, -0.019892383366823196, -0.10832458734512329, -0.1297428458929062, -0.13418148458003998, -0.15401889383792877, -0.07278215140104294, -0.052734166383743286, -0.0789668932557106, -0.10104476660490036, -0.1308768093585968, -0.1121118888258934, -0.019917726516723633, -0.03507281467318535, -0.044601939618587494, 0.0480370856821537, 0.04115009307861328, -0.03181662783026695, 0.017651623114943504, -0.005027510225772858, -0.006420662626624107, -0.0038262829184532166, -0.012063873931765556, -0.0038495026528835297, 0.023860596120357513, 0.01460244506597519, 0.014326535165309906, -0.024908820167183876, 0.028330989181995392, 0.005264286417514086, 0.021177737042307854, -0.04231853783130646, -0.015331859700381756, -0.017856014892458916, -0.04554639011621475, -0.050702374428510666, -0.04808715358376503, -0.025758614763617516, -0.02764834091067314, -0.03434823453426361, -0.07203710824251175, -0.04233007878065109, -0.01858234591782093, -0.015580462291836739, -0.007595464587211609, -0.01759822480380535, -0.03296834975481033, 0.01435183733701706, -0.03407014533877373, -0.0075845979154109955, 0.0184781514108181], [0.01936626434326172, -0.026297956705093384, 0.034598369151353836, 0.0329555906355381, 0.022552188485860825, -0.0008778870105743408, 0.024462420493364334, -0.014785831794142723, 0.025433335453271866, 0.030572425574064255, 0.003237314522266388, -0.028439829126000404, 0.008945167995989323, -0.02595743164420128, -0.019354654476046562, 0.020686037838459015, 0.03394836559891701, 0.008504271507263184, 0.022006362676620483, -0.0020414553582668304, 0.02235311269760132, 0.029607776552438736, -0.029711231589317322, -0.013744870200753212, -0.0023233480751514435, 0.020457550883293152, 0.023006752133369446, 0.032832611352205276, -0.0047072600573301315, -0.006870590150356293, 0.02370953932404518, 0.020110249519348145, -0.02919371798634529, -0.034057848155498505, 0.008590370416641235, 0.030280577018857002, -0.0017495908541604877, -0.014499169774353504, -0.01001040730625391, -0.0003405489260330796, 0.0203845277428627, 0.017782986164093018, -0.0011523307766765356, -0.04128674417734146, -0.011120574548840523, 0.004693210124969482, -0.019538959488272667, -0.011217422783374786, -0.007079952862113714, 0.02444084919989109, -0.02879372611641884, -0.025882424786686897, -0.017424440011382103, -0.0017330236732959747, -0.005965385586023331, 0.01706549897789955, 0.013889897614717484, -0.03029022552073002, 0.013581391423940659, -0.004694537725299597, 0.0006376195233315229, 0.020232660695910454, 0.03321180120110512, 0.029821936041116714, 0.07223919034004211, 0.02983977273106575, 0.11522660404443741, 0.09419995546340942, 0.09344742447137833, 0.05322064086794853, 0.06903574615716934, 0.08431694656610489, 0.010328332893550396, 0.06831640750169754, 0.036954835057258606, 0.10559239983558655, 0.04903852939605713, 0.022233355790376663, 0.008655134588479996, -0.005396617576479912, -0.03208814933896065, -0.01334856916218996, -0.023478994145989418, -0.025013208389282227, -0.012398716062307358, 0.02303503081202507, 0.026665223762392998, -0.033897608518600464, -0.003353431820869446, -0.03740239143371582, 0.04261227697134018, 0.05993935093283653, 0.07392789423465729, 0.061586588621139526, 0.0777423083782196, 0.02407100237905979, -0.11800307780504227, -0.12457358092069626, -0.09477147459983826, -0.15347717702388763, -0.1205686628818512, -0.06788306683301926, -0.052242815494537354, 0.02393735945224762, -0.0008618558058515191, 0.009082724340260029, 0.07388720661401749, 0.028127992525696754, 0.00015408005856443197, 0.012428010813891888, 0.009436190128326416, 0.0011014826595783234, -0.007970903068780899, -0.009391789324581623, 0.009414144791662693, 0.011723640374839306, 0.000655417621601373, -0.05198024585843086, -0.0520404577255249, -0.06458038836717606, -0.14926540851593018, -0.19755570590496063, -0.21814711391925812, -0.37544941902160645, -0.2559555470943451, -0.2533899247646332, -0.16109758615493774, -0.25234803557395935, -0.14289775490760803, -0.1169130876660347, -0.24300318956375122, -0.06491785496473312, 0.009878256358206272, -0.02989814430475235, 0.03812197595834732, 0.022711461409926414, -0.10914618521928787, -0.039945363998413086, -0.03975776955485344, 0.033518776297569275, -0.03403596207499504, -0.026861071586608887, -0.012438368983566761, -0.04985671117901802, -0.048406634479761124, -0.10281366109848022, -0.1125347837805748, -0.1354140192270279, -0.12972666323184967, -0.130641907453537, -0.2264716625213623, -0.2764730155467987, -0.0714719295501709, -0.12386827170848846, 0.05141080170869827, 0.03089849278330803, 0.06882897764444351, 0.11691822856664658, 0.08693914860486984, 0.10615572333335876, 0.03287716582417488, 0.04867393895983696, -0.016369706019759178, 0.00045920565025880933, -0.08248677849769592, -0.10411497950553894, -0.019808810204267502, 0.022916525602340698, 0.015264425426721573, -0.000510361569467932, 0.016785360872745514, -0.0709170252084732, -0.06300179660320282, -0.11521986126899719, -0.16374848783016205, -0.07756735384464264, -0.14755643904209137, -0.15503162145614624, -0.22526204586029053, -0.21400506794452667, -0.165498286485672, -0.2186027616262436, -0.22657683491706848, -0.1745547503232956, -0.19695045053958893, -0.15226367115974426, -0.25608566403388977, -0.03160969540476799, -0.0877629816532135, -0.021336209028959274, 0.04935315623879433, 0.03582479804754257, -0.18659263849258423, -0.14539146423339844, -0.053843263536691666, 0.004800417460501194, 0.007601172663271427, 0.018856432288885117, 0.030957795679569244, -0.0811704769730568, -0.08953747898340225, -0.12193115800619125, -0.1646967977285385, -0.0561366081237793, -0.06411417573690414, -0.13477160036563873, -0.1749969869852066, -0.14854124188423157, -0.26188868284225464, -0.1914951503276825, -0.27750128507614136, -0.17122583091259003, -0.21731822192668915, -0.2603023946285248, -0.19098901748657227, -0.18229052424430847, -0.20645663142204285, -0.05073539540171623, -0.007848141714930534, -0.04473058506846428, -0.15965725481510162, -0.2693881094455719, -0.06567683815956116, -0.0019180548842996359, 0.007967248558998108, 0.010884334333240986, -0.04307206720113754, -0.07821319252252579, -0.15092501044273376, -0.13970617949962616, -0.09788737446069717, -0.019486987963318825, -0.041750717908144, 0.049001675099134445, -0.09727425873279572, -0.04206140339374542, -0.22770163416862488, -0.17819362878799438, -0.26046305894851685, -0.24988986551761627, -0.25115373730659485, -0.23720328509807587, -0.2879158556461334, -0.1960143744945526, -0.22521544992923737, -0.062172502279281616, -0.12647053599357605, -0.11791908740997314, -0.29628974199295044, -0.2339942753314972, -0.11902505904436111, -0.008467752486467361, 0.02502164989709854, 0.012933392077684402, -0.07555527985095978, -0.19027790427207947, -0.21281489729881287, -0.09134427458047867, -0.07217521220445633, 0.009884888306260109, -0.005063533782958984, -0.03638594597578049, 0.03052140213549137, -0.045509349554777145, -0.05123107507824898, -0.07439090311527252, -0.22528590261936188, -0.23488223552703857, -0.13682523369789124, -0.22298213839530945, -0.15408116579055786, -0.16331255435943604, -0.1456984430551529, -0.13533933460712433, -0.2360377460718155, -0.23465995490550995, -0.5121883749961853, -0.3720831274986267, -0.1601402908563614, 0.00461970828473568, -0.008779819123446941, 0.021209798753261566, -0.0756397694349289, -0.18408812582492828, -0.17343755066394806, -0.02615429274737835, 0.01053457148373127, 0.01672619953751564, 0.0753566101193428, 0.02108100987970829, 0.07332608103752136, 0.09070253372192383, 0.175958052277565, -0.09995537996292114, -0.36326417326927185, -0.3050103783607483, -0.29329782724380493, -0.1293211579322815, -0.13747309148311615, -0.10676486790180206, -0.21474097669124603, -0.14343219995498657, -0.1889062374830246, -0.3563762605190277, -0.5026291608810425, -0.4268653392791748, -0.10134237259626389, 0.014081557281315327, 0.027017222717404366, -0.008622697554528713, -0.09980987757444382, -0.16964833438396454, -0.0977199450135231, 0.06251966208219528, 0.017559023573994637, -0.01125713624060154, 0.0660630315542221, 0.10975765436887741, 0.0684327706694603, 0.043585676699876785, 0.15653842687606812, -0.12735067307949066, -0.306313693523407, -0.22901128232479095, 0.009291334077715874, -0.14061076939105988, -0.0786505714058876, 0.010043198242783546, -0.07033542543649673, 0.04642484709620476, -0.04321380704641342, -0.08426455408334732, -0.24648013710975647, -0.2583639323711395, -0.05961056798696518, 0.023511433973908424, 0.010088620707392693, 0.0016119214706122875, -0.08822377026081085, -0.08965457230806351, -0.06781264394521713, -0.022259553894400597, -0.06453587859869003, 0.020941566675901413, 0.0868903249502182, 0.13544556498527527, 0.02891833521425724, 0.07097629457712173, 0.08502035588026047, 0.016509268432855606, -0.2407267987728119, -0.03760561719536781, 0.06400959193706512, 0.026184089481830597, 0.026323385536670685, 0.18071821331977844, 0.11509613692760468, 0.2925207316875458, 0.2848830223083496, 0.2848246097564697, 0.12329457700252533, -0.1320904642343521, -0.05195820331573486, 0.009237883612513542, -0.005186561960726976, 0.02133597619831562, -0.022675706073641777, -0.07818163186311722, -0.01955798640847206, -0.005608889739960432, 0.08016337454319, 0.015738150104880333, 0.09662051498889923, 0.13245835900306702, 0.1470036655664444, 0.07681457698345184, -0.043969832360744476, 0.008461116813123226, 0.002412061206996441, 0.24427801370620728, 0.09592823684215546, 0.10175332427024841, 0.00809898879379034, 0.09076596796512604, 0.08757417649030685, 0.2630159556865692, 0.3738878667354584, 0.330426424741745, 0.1162479892373085, -0.07798318564891815, -0.08769651502370834, 0.027261825278401375, -0.019412415102124214, 0.013970091938972473, 0.0013971744338050485, -0.0035704749170690775, 0.036564767360687256, 0.10163415223360062, 0.21055206656455994, 0.1774856448173523, 0.1742769479751587, 0.13204838335514069, 0.12337519973516464, 0.2889712452888489, 0.09378118067979813, 0.1372535526752472, 0.10679606348276138, 0.07006457448005676, 0.09747666865587234, 0.07103311270475388, -0.03935886546969414, 0.13838143646717072, 0.09173208475112915, 0.015268988907337189, 0.2505270540714264, 0.1933877021074295, 0.06172977760434151, -0.041424449533224106, 0.004996877629309893, 0.0030780925881117582, -0.03523198515176773, 0.004616657737642527, 0.00137751002330333, -0.019235076382756233, 0.02730620838701725, 0.14834026992321014, 0.27065274119377136, 0.25033843517303467, 0.3039635121822357, 0.1316409856081009, 0.1226402223110199, 0.18619656562805176, 0.11020451784133911, 0.13455349206924438, 0.22973376512527466, 0.08070997148752213, 0.1047963947057724, 0.13192659616470337, -0.10808487236499786, -0.04165894538164139, -0.08317967504262924, -0.04812424257397652, -0.015283515676856041, -0.01946950890123844, -0.021831808611750603, 0.01900980807840824, -0.020668499171733856, -0.014815397560596466, -0.010152660310268402, 0.007931875064969063, -0.029757244512438774, -0.04765085503458977, -0.0921001136302948, 0.09523875266313553, 0.2418566793203354, 0.27028539776802063, 0.266541987657547, 0.25066104531288147, 0.24223904311656952, 0.31249165534973145, 0.1681605577468872, 0.18402111530303955, 0.2916679084300995, 0.2339698225259781, 0.23940274119377136, 0.07335131615400314, -0.03854722902178764, -0.11968884617090225, -0.02415265515446663, -0.074800044298172, -0.11762737482786179, -0.08990971744060516, -0.023365354165434837, 0.01945466361939907, 0.021575331687927246, -0.014971324242651463, -0.018259990960359573, 0.028875570744276047, -0.038481973111629486, -0.1682722419500351, -0.25945529341697693, -0.057396452873945236, -0.036203302443027496, 0.2028672993183136, 0.25176650285720825, 0.34543493390083313, 0.4559001922607422, 0.4551292955875397, 0.3618498146533966, 0.3510742485523224, 0.3347837030887604, 0.21967189013957977, 0.08094115555286407, -0.07378360629081726, -0.021234413608908653, -0.16125942766666412, 7.53020794945769e-05, -0.10848568379878998, -0.16938571631908417, -0.0851512923836708, -0.0007147918222472072, 0.11232181638479233, -0.014547893777489662, 0.006278018467128277, -0.020657138898968697, 0.0059868828393518925, -0.06175008416175842, -0.20613649487495422, -0.27295827865600586, -0.12975917756557465, -0.20044025778770447, 0.07312603294849396, 0.13758999109268188, 0.3579171895980835, 0.34776395559310913, 0.32477447390556335, 0.4981876313686371, 0.24293111264705658, 0.1669522076845169, -0.013264729641377926, -0.04026125371456146, -0.09983668476343155, -0.05317271128296852, -0.05616503581404686, -0.05973731353878975, -0.1561579555273056, -0.14935263991355896, 0.01056899968534708, 0.04145790636539459, 0.0820690169930458, -0.005273130722343922, 0.0036859936080873013, 0.019832883030176163, 0.030107464641332626, -0.013442177325487137, -0.2734231948852539, -0.27782559394836426, -0.18263855576515198, -0.13337942957878113, -0.05097747966647148, 0.01270331535488367, 0.06022883579134941, 0.21356657147407532, 0.2419765591621399, 0.17373961210250854, 0.10600606352090836, 0.11610868573188782, 0.08470046520233154, 0.07154088467359543, -0.023247096687555313, -0.0255611389875412, -0.043782755732536316, -0.03266763314604759, -0.07526680827140808, -0.09016798436641693, -0.04206576943397522, 0.02352273277938366, 0.04834067448973656, 0.022100724279880524, -0.004699789918959141, 0.006836201995611191, -0.014067708514630795, -0.041794758290052414, -0.20487484335899353, -0.3198275566101074, -0.2117026448249817, -0.17020301520824432, -0.08672131597995758, -0.14368711411952972, -0.10913566499948502, 0.0455440916121006, 0.08526962995529175, 0.20863991975784302, 0.046547066420316696, 0.10117214918136597, 0.1189342737197876, 0.056063760071992874, 0.008337541483342648, 0.06023047864437103, 0.018465088680386543, -0.06547995656728745, -0.03854392096400261, -0.06076576188206673, -0.0076113794930279255, 0.08086493611335754, -0.018363045528531075, 0.034420907497406006, 0.00417688861489296, -0.029328642413020134, -0.011565647087991238, -0.049472056329250336, -0.15122725069522858, -0.21902766823768616, -0.1354215294122696, -0.16840407252311707, -0.11257795244455338, -0.1307651847600937, 0.05342478305101395, 0.030651714652776718, 0.11251794546842575, 0.1688733696937561, 0.13199332356452942, 0.10777958482503891, 0.07331183552742004, 0.014857906848192215, 0.18161897361278534, 0.1461806446313858, 0.09937664121389389, -0.01881074532866478, 0.04813385754823685, 0.01394941657781601, 0.0821220874786377, 0.08347839117050171, 0.014285346493124962, 0.0030981048475950956, -0.025275221094489098, -0.00912760104984045, 0.03089722990989685, -0.030219607055187225, -0.10094708949327469, -0.16096428036689758, -0.13591168820858002, 0.005423078779131174, -0.10325287282466888, -0.06034925952553749, -0.14849895238876343, -0.02333175204694271, -0.07006941735744476, 0.03937198966741562, 0.014746353961527348, -0.07694967091083527, -0.022794710472226143, -0.12594686448574066, -0.05624441057443619, 0.035866688936948776, 0.05609743297100067, 0.12874214351177216, 0.20924660563468933, 0.13838297128677368, 0.039358582347631454, 0.0343828946352005, 0.017712965607643127, 0.004174323286861181, 0.028478451073169708, -0.0187461469322443, -0.0037729814648628235, -0.016984116286039352, -0.09774088114500046, -0.17041683197021484, -0.22574570775032043, -0.16426634788513184, -0.16814838349819183, -0.021778320893645287, -0.16254717111587524, -0.24858880043029785, -0.18934893608093262, -0.13233456015586853, -0.08539427071809769, -0.040289826691150665, 0.029541023075580597, 0.027316059917211533, -0.03791987895965576, 0.15907436609268188, 0.22702962160110474, 0.2822461724281311, 0.3017648160457611, 0.1671074777841568, 0.053485207259655, -0.005540207959711552, -0.003024864010512829, -0.03513643890619278, 0.018586687743663788, -0.01410016417503357, -0.016343530267477036, 0.016245469450950623, -0.09307471662759781, -0.15819665789604187, -0.2544320225715637, -0.34417590498924255, -0.3298724591732025, -0.2944689393043518, -0.2702547311782837, -0.2611410617828369, -0.24348506331443787, -0.24037902057170868, -0.29464882612228394, -0.17018115520477295, -0.14926710724830627, -0.050750456750392914, -0.08698796480894089, 0.017079049721360207, 0.0903480127453804, 0.17518332600593567, 0.15505477786064148, 0.07729160785675049, 0.026676669716835022, -0.021040771156549454, 0.018222397193312645, 0.009912614710628986, 0.0333179347217083, -0.0047016143798828125, 0.0007684417068958282, 0.023698365315794945, 0.026493337005376816, -0.037742290645837784, -0.060120534151792526, -0.1621870994567871, -0.2423858344554901, -0.3443199694156647, -0.4273402690887451, -0.3499865233898163, -0.4453984200954437, -0.5165207982063293, -0.40931013226509094, -0.31792518496513367, -0.2528982162475586, -0.3715170621871948, -0.3905709385871887, -0.3359901010990143, -0.25401076674461365, -0.09445810317993164, -0.0830862894654274, -0.03998696431517601, -0.029655631631612778, -0.027439603582024574, 0.02639010362327099, 0.00123075139708817, 0.021441448479890823, 0.03082859143614769, 0.029191885143518448, -0.021858876571059227, -0.0136296721175313, 0.013896207325160503, -0.02110997773706913, -0.03242677450180054, -0.0830906480550766, -0.11050219088792801, -0.12992288172245026, -0.11373048275709152, -0.16755124926567078, -0.15632306039333344, -0.20380018651485443, -0.21556052565574646, -0.2696879506111145, -0.2626514136791229, -0.22993017733097076, -0.15718752145767212, -0.14856362342834473, -0.07320594787597656, -0.05916786193847656, -0.005467291921377182, -0.025088556110858917, -0.028842508792877197, -0.02427898719906807, -0.031105272471904755, -0.018581382930278778, -0.019769273698329926, 0.02902577444911003, 0.023100893944501877, 0.006030768156051636, -0.005369408056139946, -0.02079804800450802, -0.0159461572766304, 0.0302708949893713, 0.007468359544873238, -0.007761423010379076, 0.001870688982307911, -0.047595445066690445, -0.03770970180630684, -0.07203327864408493, -0.04337393119931221, -0.0074597992934286594, -0.06857199221849442, -0.021714378148317337, -0.03347201645374298, -0.008702805265784264, 0.0009623951045796275, -0.039514441043138504, -0.030686357989907265, 0.009226451627910137, 0.03456924483180046, 0.014993377029895782, 0.008963782340288162, 0.0066091082990169525], [0.001702670007944107, 0.0005089528858661652, 0.01497747004032135, -0.00939541682600975, 0.031093787401914597, -0.013852536678314209, 0.03305446729063988, 0.02189837396144867, 0.025332335382699966, 0.00024458765983581543, -0.00879853218793869, 0.031375933438539505, -0.026233967393636703, 0.0230545811355114, -0.03359076753258705, 0.03369246795773506, 0.013637635856866837, 0.013626664876937866, -0.012639731168746948, 0.01040394976735115, 0.0006030499935150146, 0.03020140901207924, 0.019487012177705765, -0.024607408791780472, -0.019876962527632713, 0.03534362092614174, -0.001639004796743393, 0.011791981756687164, -0.023148545995354652, 0.013298079371452332, 0.033775437623262405, -0.0018778406083583832, -0.02593778818845749, 0.03196439892053604, -0.029714712873101234, 0.02618270181119442, 0.03202381357550621, 0.004627615679055452, 0.029940595850348473, 0.03629036620259285, 0.031984806060791016, 0.05702946335077286, 0.031171288341283798, 0.015899626538157463, 0.06549547612667084, 0.0029295054264366627, 0.00825477298349142, -0.009683511219918728, -0.002013235818594694, -0.010397075675427914, 0.0014486481668427587, 0.040601279586553574, 0.035334568470716476, 0.011344335973262787, 0.0036137811839580536, 0.028656665235757828, 0.01582622528076172, 0.009756386280059814, -0.01656021922826767, 0.0025117613840848207, 0.0009381078998558223, 0.005358495749533176, -0.0021344509441405535, -0.0003151418059132993, 0.043377600610256195, 0.07739447057247162, 0.08671409636735916, 0.1379804015159607, 0.1660749763250351, 0.1488272249698639, 0.17008204758167267, 0.22408552467823029, 0.19259899854660034, 0.13353900611400604, 0.07197163999080658, 0.07581083476543427, 0.052824754267930984, 0.0019944447558373213, 0.04919247701764107, 0.01271748635917902, 0.0026863913517445326, -0.0008597713895142078, -0.020283158868551254, 0.018534861505031586, -0.01825234293937683, -0.005245469510555267, -0.03212721645832062, -0.0014214423717930913, -0.0009782990673556924, -0.005389292724430561, 0.007633410394191742, 0.03752632439136505, 0.04804586246609688, 0.14400890469551086, 0.1821848452091217, 0.276827871799469, 0.37314850091934204, 0.4580686390399933, 0.401528537273407, 0.3760905861854553, 0.3729393184185028, 0.2669069468975067, 0.12917450070381165, 0.07081977277994156, 0.052484121173620224, -0.07568267732858658, -0.08351822942495346, -0.016267647966742516, 0.005559677258133888, -0.002364023355767131, -0.0036843721754848957, -0.026524841785430908, 0.007852789014577866, 0.03357997536659241, 0.009125473909080029, -0.009335274808108807, -0.025935493409633636, 0.030414767563343048, 0.047225721180438995, 0.03831657022237778, 0.11821494996547699, 0.19087837636470795, 0.2444080114364624, 0.2248377501964569, 0.16762319207191467, 0.1832740157842636, 0.18596908450126648, 0.1343120038509369, 0.10874395817518234, 0.07046637684106827, 0.07851909846067429, -0.0023219017311930656, -0.056440092623233795, -0.096546970307827, -0.18355676531791687, -0.1992587149143219, -0.12509535253047943, -0.004616389516741037, 0.02938639000058174, 0.022506188601255417, 0.035462263971567154, -0.013348555192351341, 0.03341425955295563, -0.024607647210359573, -0.019042659550905228, -0.026350906118750572, 0.005978452507406473, 0.08842740952968597, 0.153572216629982, 0.12986405193805695, 0.13340319693088531, 0.028225330635905266, -0.01331956684589386, 0.05906477943062782, 0.07807353883981705, 0.13789068162441254, 0.19826166331768036, 0.1247144341468811, 0.11596907675266266, 0.08920416980981827, -0.001986196031793952, -0.032102975994348526, -0.11954556405544281, -0.25070086121559143, -0.1875714659690857, -0.06349331140518188, -0.004143637139350176, -0.013955065049231052, 0.028278838843107224, 0.023638349026441574, -0.030211443081498146, 0.01095426082611084, 0.017686381936073303, 0.007874008268117905, 0.05948861688375473, 0.09599002450704575, 0.08660359680652618, 0.04960160329937935, 0.031768232583999634, -0.009974407963454723, 0.043098870664834976, 0.007147352211177349, 0.0036101583391427994, -0.035872530192136765, 0.03004249930381775, -0.017182091251015663, -0.020222436636686325, -0.1698152869939804, -0.1182282343506813, -0.07026194036006927, -0.11470463126897812, -0.25047460198402405, -0.20383195579051971, -0.09596050530672073, -0.0516255721449852, 0.0036522874142974615, -0.03109431080520153, -0.022908631712198257, 0.011048438027501106, 0.01070878840982914, 0.12703582644462585, 0.12939617037773132, 0.15114673972129822, 0.07479634135961533, -0.01351398229598999, -0.06421010941267014, -0.028376396745443344, -0.01712750643491745, -0.09546621888875961, -0.08581515401601791, -0.06922656297683716, -0.16087226569652557, -0.2535236179828644, -0.1886395812034607, -0.14304770529270172, -0.10458587110042572, -0.14876298606395721, -0.08706103265285492, -0.04932142421603203, -0.23895539343357086, -0.2751525640487671, -0.14422225952148438, 0.004926646128296852, -0.03807929530739784, -0.017624206840991974, -0.011983796954154968, 0.035879455506801605, 0.08740363270044327, 0.19414575397968292, 0.07277252525091171, 0.03762832656502724, 0.033428531140089035, -0.1290605664253235, -0.11006799340248108, 0.025405125692486763, -0.059621311724185944, -0.024668242782354355, -0.07496605068445206, 0.04344768077135086, 0.043818894773721695, -0.08437342941761017, -0.004831922240555286, -0.13799312710762024, -0.05154213309288025, -0.03402526304125786, -0.09132799506187439, -0.032648008316755295, -0.23660270869731903, -0.3137078285217285, -0.13331227004528046, -0.03259454295039177, 0.0244729183614254, 0.026153763756155968, 0.023082168772816658, 0.054076582193374634, 0.12810251116752625, 0.15362834930419922, 0.0912727490067482, -0.010932746343314648, -0.04626477509737015, -0.07874345034360886, -0.009993568994104862, -0.04969773441553116, -0.13954271376132965, -0.16604653000831604, -0.015697600319981575, 0.1545284241437912, 0.1151161789894104, 0.04208001866936684, -0.18823571503162384, -0.09525345265865326, -0.04871341586112976, -0.08281633257865906, -0.12045589834451675, -0.027117010205984116, -0.15384560823440552, -0.22122518718242645, -0.09012440592050552, -0.02587704360485077, 0.012979099527001381, 0.02027514949440956, -0.009049358777701855, 0.012117011472582817, 0.15464550256729126, 0.10837385058403015, 0.021648911759257317, -0.0017533990321680903, -0.07402152568101883, -0.04084872826933861, -0.22191669046878815, -0.20447610318660736, -0.18574810028076172, -0.2842043340206146, -0.05015045776963234, 0.15554380416870117, 0.060198117047548294, 0.021075772121548653, 0.0023504849523305893, -0.010377556085586548, -0.020494762808084488, -0.002200155518949032, -0.0727391466498375, -0.0639093667268753, 0.045805878937244415, -0.019343461841344833, -0.11176019161939621, -0.027549633756279945, -0.0015872594667598605, -0.006142202764749527, 0.03956571966409683, 0.03826622664928436, 0.07757799327373505, 0.021606575697660446, -0.15862593054771423, -0.21564069390296936, -0.24061430990695953, -0.3782063126564026, -0.33711016178131104, -0.47501978278160095, -0.37435781955718994, -0.3627822995185852, -0.29303082823753357, -0.17199890315532684, -0.22171300649642944, -0.1641532927751541, -0.21231792867183685, -0.11106668412685394, 0.05166501924395561, -0.05835501477122307, 0.020588846877217293, -0.03916051238775253, 0.1688258945941925, 0.10235099494457245, 0.0031301663257181644, -0.0328323170542717, 0.01123378612101078, 0.014468159526586533, -0.024025967344641685, 0.026197895407676697, 0.04271911084651947, -0.12879101932048798, -0.3537265360355377, -0.4359797239303589, -0.4046265780925751, -0.32430312037467957, -0.31140658259391785, -0.25725165009498596, -0.31093913316726685, -0.11910078674554825, -0.1245725154876709, -0.11593374609947205, -0.24929028749465942, -0.13629958033561707, -0.18090945482254028, -0.20317329466342926, -0.0932384803891182, -0.08408693969249725, -0.10265187174081802, -0.07109688967466354, 0.10720385611057281, 0.22614116966724396, 0.11244093626737595, 0.05369066447019577, 0.0007449921104125679, -0.021305568516254425, 0.024409404024481773, 0.030180783942341805, 0.011144335381686687, -0.2552056312561035, -0.4484856426715851, -0.38205188512802124, -0.385465532541275, -0.20351794362068176, -0.1670358031988144, -0.1639636605978012, -0.09577928483486176, 0.06184374913573265, 0.038259003311395645, -0.07494772970676422, -0.18108044564723969, -0.140358567237854, -0.1723766177892685, -0.09224741905927658, -0.14476630091667175, -0.2412751168012619, -0.14848360419273376, -0.08065630495548248, 0.25430694222450256, 0.31145989894866943, 0.1592353880405426, 0.06879444420337677, 0.03153589367866516, 0.015788856893777847, 0.03300764411687851, 0.033088814467191696, -0.039387986063957214, -0.28320634365081787, -0.321630597114563, -0.24272842705249786, -0.14761659502983093, -0.010965202003717422, -0.05074833706021309, -0.030366359278559685, 0.04168209806084633, 0.041239816695451736, -0.030553538352251053, 0.019275883212685585, -0.10722828656435013, -0.12202325463294983, -0.2523195147514343, -0.08500456064939499, -0.13050788640975952, -0.039912149310112, 0.031283047050237656, 0.028677983209490776, 0.20722495019435883, 0.2748897075653076, 0.1843942105770111, 0.08484186232089996, -0.009507314302027225, 0.010874120518565178, -0.029808422550559044, 0.023862086236476898, 0.026407798752188683, -0.08541303128004074, 0.019823625683784485, -0.025600457563996315, -0.06650470942258835, -0.04297898709774017, 0.02686651237308979, -0.04045834764838219, 0.0011957943206653, -0.05708451569080353, 0.05723462626338005, 0.17870157957077026, -0.08940606564283371, -0.17189867794513702, -0.26826101541519165, -0.10726305097341537, -0.015078455209732056, 0.030007198452949524, 0.13634437322616577, 0.010753101669251919, 0.1608341485261917, 0.31938064098358154, 0.23909856379032135, 0.11168690770864487, 0.0316089391708374, -0.0016574745532125235, -0.011517071165144444, -0.0012602924834936857, 0.1303713619709015, 0.08891493827104568, 0.15194419026374817, 0.11500851064920425, 0.01408837828785181, -0.1261363923549652, 0.08446139842271805, 0.14703387022018433, 0.11349871009588242, -0.04935167729854584, 0.12166451662778854, 0.1802816390991211, -0.12987959384918213, -0.13456697762012482, -0.1069628894329071, 0.06493943184614182, 0.1397136002779007, 0.040799662470817566, 0.18969252705574036, 0.10275626927614212, 0.16307522356510162, 0.3309934437274933, 0.40270161628723145, 0.15597045421600342, -0.00026000378420576453, 0.02173730358481407, 0.028713783249258995, 0.022218486294150352, 0.15568891167640686, 0.22041815519332886, 0.1859816312789917, 0.1385641098022461, -0.015527164563536644, -0.06396172940731049, -0.01026159804314375, 0.12251404672861099, 0.07975003868341446, 0.01189570501446724, 0.0322205014526844, 0.02300863526761532, -0.06812016665935516, -0.04352154582738876, 0.0002555954270064831, 0.024170175194740295, 0.19889767467975616, 0.14651291072368622, 0.16509360074996948, 0.19231700897216797, 0.17325404286384583, 0.31993502378463745, 0.35272321105003357, 0.10455870628356934, 0.009441470727324486, 0.033718355000019073, 0.0011019599623978138, 0.007745710667222738, 0.18370547890663147, 0.32139721512794495, 0.23342786729335785, 0.054732050746679306, 0.1397765874862671, 0.08078894019126892, -0.0104502709582448, 0.09423874318599701, 0.05220160260796547, 0.15309634804725647, 0.1420527547597885, 0.033524446189403534, 0.05519412085413933, 0.11498744785785675, 0.20000015199184418, 0.22943727672100067, 0.14757978916168213, 0.06300217658281326, 0.17544548213481903, 0.3184245824813843, 0.32938557863235474, 0.38032132387161255, 0.3085523545742035, 0.054510679095983505, 0.02177167683839798, -0.0021112163085490465, -0.0007796289282850921, 0.008649644441902637, 0.13806305825710297, 0.25544214248657227, 0.21560093760490417, 0.05348049849271774, 0.20779336988925934, 0.18230804800987244, 0.2023949772119522, 0.2595888674259186, 0.29195016622543335, 0.2879225015640259, 0.2613275349140167, 0.08368261158466339, 0.18490661680698395, 0.20959308743476868, 0.2603076696395874, 0.1615152359008789, 0.09395340830087662, 0.09549752622842789, 0.2323322296142578, 0.3518542945384979, 0.35061076283454895, 0.3105648458003998, 0.22315023839473724, 0.038947220891714096, 0.011928854510188103, -0.02951839752495289, 0.02770371362566948, 0.0329817533493042, 0.2148834466934204, 0.4160274863243103, 0.24722488224506378, 0.18612484633922577, 0.2625831961631775, 0.18410879373550415, 0.32161039113998413, 0.300943523645401, 0.3239280879497528, 0.2621377110481262, 0.10082115232944489, 0.16391265392303467, 0.15909095108509064, 0.13572320342063904, 0.07304242253303528, 0.18652161955833435, 0.16520121693611145, 0.2374396175146103, 0.23190559446811676, 0.22392509877681732, 0.26957499980926514, 0.22314690053462982, 0.08996668457984924, 0.011788771487772465, 0.0013653625501319766, 0.0016700346022844315, 0.02894573099911213, 0.01250595971941948, 0.20632952451705933, 0.28093868494033813, 0.24430009722709656, 0.18404188752174377, 0.17982059717178345, 0.07481247186660767, 0.1227220743894577, 0.17792285978794098, 0.15998384356498718, 0.15982234477996826, 0.16831400990486145, 0.12761561572551727, 0.10376839339733124, 0.13257230818271637, 0.19048088788986206, 0.21821679174900055, 0.23497611284255981, 0.08098658919334412, 0.08826711028814316, 0.20548823475837708, 0.23946118354797363, 0.15082955360412598, 0.10291769355535507, 0.009072036482393742, 0.01979605108499527, 0.016693342477083206, 0.03289270028471947, 0.028003787621855736, 0.13156481087207794, 0.25442081689834595, 0.2625560164451599, 0.2123282253742218, 0.19967061281204224, 0.11721352487802505, 0.10619691014289856, 0.09349702298641205, 0.027289146557450294, -0.00979620311409235, 0.0006798035465180874, -0.019393235445022583, 0.052634548395872116, 0.009183029644191265, 0.006813806481659412, 0.12200865149497986, 0.1610327810049057, 0.16444338858127594, 0.07525621354579926, 0.1490880846977234, 0.07684403657913208, 0.018714210018515587, 0.04049653932452202, -0.03585593029856682, -0.028116794303059578, 0.020356420427560806, 0.030959073454141617, 0.03947615623474121, 0.06686238199472427, 0.15188898146152496, 0.21192523837089539, 0.1911625862121582, 0.20677083730697632, 0.032336894422769547, 0.14328628778457642, 0.013327063992619514, 0.03486642986536026, 0.03139717876911163, 0.033694665879011154, -0.04457425698637962, 0.049393314868211746, -0.061106130480766296, -0.021588662639260292, 0.08364587277173996, 0.09524913877248764, 0.018144479021430016, 0.03527612239122391, 0.055645424872636795, 0.015184350311756134, 0.046420689672231674, -0.0008038538508117199, -0.030833754688501358, 0.01437918096780777, 0.028967764228582382, 0.01929645985364914, -0.0009982119081541896, 0.038389790803194046, 0.05307004228234291, 0.04914451017975807, 0.07509129494428635, -0.0039060828275978565, 0.013697657734155655, 0.04110283404588699, -0.04685705900192261, 0.024431360885500908, 0.11953604221343994, 0.11183105409145355, 0.2014196515083313, 0.14106932282447815, 0.023202190175652504, 0.015852874144911766, -0.09366655349731445, -0.20336055755615234, -0.26448360085487366, -0.11954624950885773, -0.047905199229717255, -0.013136973604559898, 0.06246229633688927, 0.05860866233706474, 0.0172935351729393, -0.009531864896416664, 0.002710781991481781, -0.035659607499837875, 0.010620969347655773, 0.01668359339237213, -0.021115191280841827, -0.002214029897004366, -0.033984895795583725, 0.02664940059185028, 0.03451704606413841, 0.007924454286694527, -0.023188043385744095, -0.019266923889517784, -0.027793191373348236, -0.10775262862443924, -0.1328921914100647, -0.08790561556816101, -0.14032012224197388, -0.1777103692293167, -0.21303434669971466, -0.2572457194328308, -0.23479311168193817, -0.20968040823936462, -0.0996301919221878, -0.01427661906927824, 0.03510420769453049, 0.035185735672712326, 0.03355526179075241, -0.006153073161840439, 0.007190931588411331, -0.02044394612312317, 0.03504985198378563, 0.004526656586676836, -0.029172033071517944, -0.0073258583433926105, -0.0459003709256649, 0.0039213583804667, 0.01334057841449976, -0.017412303015589714, -0.003897745395079255, -0.030100267380475998, -0.08819633722305298, -0.059323202818632126, -0.11136054992675781, -0.054427411407232285, -0.03208759427070618, -0.028657451272010803, -0.10631618648767471, -0.05694124102592468, -0.0570252351462841, -0.04037946090102196, 0.010229159146547318, 0.03010270558297634, -0.033277444541454315, -0.0209971833974123, -0.017383048310875893, 0.030961599200963974, -0.03548844903707504, -0.009983118623495102, -0.016137732192873955, 0.0030659660696983337, -0.0004548104479908943, 0.032495953142642975, 0.01618584245443344, 0.010872974060475826, 0.00329294940456748, -0.002665343228727579, 0.001706260722130537, 0.04094209149479866, -0.0033998191356658936, 0.06225316599011421, 0.016652163118124008, 0.03475348651409149, 0.02283133938908577, 0.026502955704927444, -0.016677452251315117, 0.032595254480838776, 0.018978793174028397, -0.032591547816991806, -0.008303139358758926, 0.007130669895559549, -0.01755126565694809, -0.007045285776257515, -0.020843476057052612, -0.006431277841329575]]
==================================================
Layer: layerStack.1.bias
Shape: torch.Size([5])
Values:
[0.5606891512870789, 0.2494596391916275, -0.9419379234313965, 0.13345909118652344, -0.13479414582252502]
==================================================
Layer: layerStack.2.weight
Shape: torch.Size([10, 5])
Values:
[[0.301931232213974, 1.373729944229126, 0.3044378459453583, -0.37998247146606445, 0.4353403151035309], [0.10046949237585068, -1.3742773532867432, -0.8126243352890015, -0.18252116441726685, 0.3992577791213989], [-0.6851775050163269, 0.21235744655132294, 0.18839117884635925, 0.3667580187320709, 1.2949652671813965], [-0.034079648554325104, -0.2094414383172989, -0.013562490232288837, -1.1382724046707153, 0.5114031434059143], [0.28355515003204346, 0.07822387665510178, -0.5457649827003479, 1.1363208293914795, -0.9928773641586304], [0.9455300569534302, 0.23853112757205963, 0.2711118459701538, -0.6425261497497559, -0.027619743719697], [0.7346127033233643, 0.22267284989356995, -0.41698411107063293, 1.2870904207229614, 0.8805313110351562], [-1.1794854402542114, 0.6787546277046204, -1.510867953300476, -0.38844409584999084, -0.641821026802063], [-0.19305886328220367, -0.34397655725479126, 0.8833034038543701, -0.0696582943201065, -0.11564719676971436], [-0.7425405383110046, 0.11736612766981125, -0.11148106306791306, -0.019309092313051224, -1.162395715713501]]
==================================================
Layer: layerStack.2.bias
Shape: torch.Size([10])
Values:
[-1.293380856513977, -0.5732510685920715, -0.10963449627161026, 0.771807074546814, 0.3140071928501129, 0.9774461984634399, -0.3222891390323639, 0.36870884895324707, -0.47360703349113464, 0.20751699805259705]
==================================================
