Layer: layerStack.1.weight
Shape: torch.Size([5, 784])
Values:
[[-0.0037351585924625397, -0.012797117233276367, 0.006675906479358673, 0.011902645230293274, -0.03320121765136719, 0.026885222643613815, -0.008634917438030243, 0.01762145385146141, -0.02766522392630577, 0.023191090673208237, -0.003799028694629669, -0.025814134627580643, -0.004844051785767078, 0.0232398584485054, 0.03517747297883034, -0.023931829258799553, -0.00354970246553421, -0.03457915037870407, -0.006250474601984024, -0.023435836657881737, 0.0013151727616786957, -0.032955486327409744, 0.011516585946083069, 0.014727048575878143, -0.023141823709011078, 0.031780485063791275, 0.021710295230150223, 0.03469196334481239, 0.004396218806505203, 0.03230336681008339, 0.03317316994071007, -0.034321751445531845, -0.0168740414083004, -0.009057478979229927, -0.023967677727341652, 0.0015285795088857412, 0.024289950728416443, 0.03518527373671532, 0.029161859303712845, 0.032941751182079315, 0.016482403501868248, -0.004296442959457636, 0.02302052266895771, 0.01810288429260254, 0.030302371829748154, -0.02041202038526535, -0.00981829036027193, 0.004993423353880644, 0.0167654100805521, -0.02621653489768505, -0.014073066413402557, 0.007625442463904619, 0.026706688106060028, -0.020877376198768616, 9.168311953544617e-05, 0.001880105584859848, 0.00784650444984436, 0.005533937364816666, 0.0005136874970048666, -0.014573507010936737, -0.023854034021496773, 0.03093799017369747, -0.011030865833163261, 0.036389194428920746, 0.04382401332259178, 0.10110943764448166, 0.09851644933223724, 0.16227973997592926, 0.14147570729255676, 0.1450233906507492, 0.10972929745912552, 0.022126881405711174, 0.021648282185196877, 0.06830181181430817, 0.046071771532297134, 0.0972089096903801, 0.018796082586050034, 0.024936378002166748, 0.05462111905217171, -0.0005727605312131345, -0.007615633308887482, -0.021665895357728004, -0.007433060556650162, -0.027557216584682465, 0.0014610998332500458, 0.01369616761803627, -0.02333766222000122, 0.022060764953494072, -0.017698263749480247, 0.015384587459266186, 0.023933785036206245, 0.02610165625810623, 0.03955215588212013, 0.0780378058552742, 0.09094878286123276, 0.057245101779699326, -0.002559319604188204, 0.050939131528139114, 0.016406627371907234, -0.015170885249972343, 0.10185987502336502, 0.14292992651462555, 0.06701930612325668, 0.14037980139255524, 0.1028653085231781, 0.06435141712427139, 0.04744790121912956, 0.04012840613722801, 0.013727694749832153, 0.020645761862397194, 0.008191547356545925, -0.013108521699905396, 0.016297537833452225, 0.015110430307686329, -0.005538751371204853, 0.02151075378060341, 0.00827164389193058, -0.06767351925373077, -0.05728599429130554, -0.09043390303850174, -0.1180877536535263, -0.1337863653898239, -0.19651290774345398, -0.22773189842700958, -0.23194876313209534, -0.2464299201965332, -0.2517022490501404, -0.23211023211479187, -0.18017132580280304, -0.05526621267199516, -0.1105894222855568, -0.06726586073637009, -0.04938274994492531, 0.02523934654891491, 0.03934809938073158, 0.08274218440055847, -0.05507558211684227, -0.054441098123788834, 0.013209935277700424, -0.023935139179229736, 0.0053541287779808044, 0.006265081465244293, -0.008562072180211544, 0.0050864494405686855, -0.0827035903930664, -0.1425473392009735, -0.07508514821529388, -0.06250226497650146, -0.04452725872397423, -0.07346335053443909, -0.033944714814424515, -0.16210167109966278, -0.15769246220588684, -0.14354804158210754, -0.1235266625881195, -0.11141110211610794, -0.05501772090792656, 0.02607770636677742, 0.013895628973841667, -0.01901855319738388, -0.08574405312538147, -0.039390258491039276, -0.007903823629021645, 0.061637479811906815, -0.018416257575154305, -0.05654390528798103, -0.013677677139639854, -0.01882421039044857, -0.022818690165877342, 0.03048100508749485, 0.031052252277731895, -0.05066123232245445, -0.10117965936660767, -0.08464322239160538, -0.05829160287976265, 0.09196501970291138, 0.02888677641749382, -0.054358359426259995, -0.0769425556063652, -0.06588058918714523, -0.12760014832019806, -0.18026013672351837, -0.15923655033111572, -0.21256659924983978, -0.14691445231437683, -0.06160091608762741, -0.08447882533073425, -0.10083044320344925, -0.07000754773616791, 0.00012677200720645487, 0.07773124426603317, -0.043943338096141815, -0.17011821269989014, -0.10495726764202118, -0.06399501860141754, -0.005956663284450769, 0.034409914165735245, 0.002746075624600053, 0.036667414009571075, -0.009722709655761719, -0.122423455119133, -0.06907539814710617, 0.04154152795672417, 0.10918918997049332, -0.005960432812571526, 0.03332280367612839, -0.03384456783533096, -0.0031716341618448496, -0.13254158198833466, -0.16787272691726685, -0.17427243292331696, -0.26282501220703125, -0.18102893233299255, -0.05932469293475151, -0.06201912835240364, -0.07153697311878204, -0.08712895214557648, -0.0065032970160245895, 0.08098948746919632, -0.11066059023141861, -0.15544156730175018, -0.14402683079242706, 0.001453185803256929, -0.006131737492978573, 0.01979389227926731, 0.035630710422992706, 0.043392665684223175, -0.06692909449338913, -0.13450413942337036, -0.04877902567386627, -0.06967131793498993, 0.022020451724529266, 0.046607986092567444, 0.061328496783971786, 0.012231653556227684, 0.08907664567232132, -0.07283695787191391, -0.2199910283088684, -0.13488776981830597, -0.14721231162548065, -0.07673213630914688, -0.0749085322022438, -0.17517653107643127, -0.14220578968524933, -0.05772366002202034, -0.13365602493286133, -0.029837356880307198, 0.06400366127490997, -0.2253776341676712, -0.1509580761194229, -0.11355728656053543, -0.03639499470591545, 0.015978125855326653, -0.022617176175117493, 0.026830533519387245, -0.0447770319879055, -0.12458887696266174, -0.055727697908878326, -0.07909651845693588, -0.03001999855041504, 0.0036268432158976793, -0.024508632719516754, 0.019141994416713715, 0.07941961288452148, 0.06766555458307266, 0.04862585663795471, -0.06508196890354156, -0.1222878247499466, -0.02613755501806736, -0.08502494543790817, -0.02861085906624794, -0.027079660445451736, -0.059670429676771164, -0.12382903695106506, -0.13948705792427063, -0.05914134904742241, -0.13292904198169708, -0.20970267057418823, -0.11938666552305222, 0.01860874891281128, 0.018102459609508514, 0.01601870357990265, -0.01927594654262066, -0.01753869280219078, -0.076310895383358, -0.06277664005756378, -0.1250312775373459, -0.02895684354007244, 0.012198509648442268, 0.06227682903409004, 0.05741587281227112, 0.08303356915712357, 0.1369377076625824, 0.09371907263994217, -0.1287579983472824, -0.12216512113809586, -0.06330113112926483, 0.03396858274936676, -0.09116232395172119, -0.02182963117957115, 0.015536564402282238, -0.04538022726774216, -0.047057438641786575, -0.0980176031589508, -0.15467210114002228, -0.2590944170951843, -0.08765602856874466, 0.0185975581407547, 0.017995769158005714, 0.013922653160989285, 0.0175324697047472, -0.036049291491508484, -0.11476302891969681, -0.09647776931524277, -0.08041051775217056, -0.04290234297513962, -0.05719925835728645, -0.016468290239572525, 0.06347253173589706, 0.01485572662204504, 0.02985471859574318, -0.1358628273010254, -0.5733497142791748, -0.4360029995441437, -0.05699954554438591, -0.11703912168741226, -0.13303978741168976, 0.0003666606789920479, -0.020621832460165024, 0.14217889308929443, 0.0072769895195961, -0.07339814305305481, -0.23941636085510254, -0.1927425116300583, -0.07125281542539597, 0.02907249517738819, -0.02877981774508953, 0.012145507149398327, 0.016072692349553108, -0.025086497887969017, -0.1298261135816574, -0.17355981469154358, -0.01877267099916935, 0.009766749106347561, 0.060679350048303604, -0.02067306451499462, 0.031146226450800896, 0.11503668129444122, 0.12257112562656403, -0.2432456910610199, -0.7395976185798645, -0.34542062878608704, -0.05593234673142433, -0.12346868962049484, -0.12329446524381638, -0.06520495563745499, -0.037893544882535934, 0.06934549659490585, 0.13999153673648834, 0.12919291853904724, 0.01702994480729103, -0.11159887909889221, -0.08723469078540802, -0.02336527593433857, 0.021188611164689064, -0.004401083569973707, -0.010416053235530853, -0.046720266342163086, -0.1211092472076416, -0.0013915126910433173, 0.1000031903386116, 0.07892327755689621, 0.003114993218332529, 0.030236270278692245, 0.20565450191497803, 0.18972048163414001, -0.008057927712798119, -0.4292144477367401, -0.49577558040618896, -0.22735914587974548, -0.10601768642663956, -0.09392523020505905, -0.11415888369083405, -0.06470991671085358, -0.16729196906089783, 0.10706165432929993, 0.38269683718681335, 0.4179825782775879, 0.24794456362724304, -0.03358514979481697, -0.00956045463681221, -0.01987171359360218, -0.03113565221428871, -0.03143931180238724, 0.02866305597126484, -0.024392586201429367, -0.07393834739923477, 0.11731848865747452, 0.1565399169921875, 0.2416963130235672, 0.11119569838047028, 0.12958401441574097, 0.15225866436958313, 0.18313437700271606, -0.0680152103304863, -0.37435197830200195, -0.4006575644016266, -0.19199861586093903, -0.05681327357888222, -0.1597205549478531, -0.11238165944814682, 0.007688684854656458, 0.13487976789474487, 0.1447952389717102, 0.4040084183216095, 0.49974527955055237, 0.23996129631996155, 0.027065305039286613, 0.02014056406915188, 0.03269027918577194, -0.00036531902151182294, -0.011642174795269966, 0.016134517267346382, -0.030983274802565575, -0.005941000767052174, 0.1863982379436493, 0.17050765454769135, 0.2767113447189331, 0.24770531058311462, 0.22339743375778198, 0.22830229997634888, 0.14602236449718475, -0.19561424851417542, -0.38556843996047974, -0.3691214919090271, -0.108645498752594, -0.04270594194531441, 0.007755892351269722, -0.00874114315956831, 0.03077496588230133, 0.17329581081867218, 0.2440231293439865, 0.2049167901277542, 0.2909999489784241, 0.20583480596542358, 0.04052934795618057, 0.021613765507936478, -0.01278205867856741, -0.02664192207157612, 0.03204730153083801, -0.018008116632699966, -0.0693572461605072, -0.04722057655453682, 0.1589992493391037, 0.23384203016757965, 0.22858360409736633, 0.23225383460521698, 0.21353359520435333, 0.1697755753993988, 0.15092509984970093, -0.2033601999282837, -0.2817392647266388, -0.14935334026813507, 0.062185999006032944, 0.008203594945371151, 0.09526654332876205, 0.12383950501680374, 0.19103588163852692, 0.2623347043991089, 0.14689384400844574, 0.14658702909946442, 0.04679522290825844, 0.08555439114570618, 0.02679811790585518, -0.008279087953269482, -0.0037372615188360214, 0.027707863599061966, -0.02945719286799431, -0.04153979569673538, -0.12904959917068481, -0.0889124721288681, 0.1370876580476761, 0.13503064215183258, 0.16068537533283234, 0.1515536606311798, 0.21703392267227173, 0.23375819623470306, 0.1324823796749115, -0.17478695511817932, -0.16271664202213287, -0.04396380856633186, 0.06978071480989456, 0.0875767171382904, 0.14035265147686005, 0.2647165358066559, 0.04176398739218712, 0.12040068209171295, 0.05766255408525467, 0.004160952288657427, -0.019743740558624268, 0.029819145798683167, 0.11940306425094604, 0.04051671177148819, 0.015057215467095375, 0.008004486560821533, 0.013350369408726692, -0.05224066227674484, -0.12306138873100281, -0.05639691650867462, 0.06398887932300568, -0.0429794006049633, 0.08872532844543457, 0.14246566593647003, 0.13452617824077606, 0.11891226470470428, 0.07954900711774826, 0.14565952122211456, -0.004788589663803577, 0.03512006625533104, -0.017296170815825462, 0.11517039686441422, 0.1422586441040039, 0.10895385593175888, 0.07216150313615799, -0.003189866663888097, 0.0017847013659775257, -0.03283374384045601, 0.0061163161881268024, 0.1199222132563591, 0.06060931086540222, 0.014029902406036854, -0.0001228341570822522, -0.030304381623864174, -0.02357308380305767, -0.05056724697351456, -0.14697298407554626, 0.012402979657053947, 0.024742109701037407, -0.012023475021123886, 0.03459039330482483, 0.02499922551214695, -0.010424312204122543, 0.06333421170711517, 0.3067622184753418, 0.30509793758392334, 0.10797754675149918, 0.14073744416236877, 0.044257376343011856, 0.032737310975790024, 0.04965374618768692, -0.0011336649768054485, 0.0318819023668766, 0.0028172009624540806, -0.03933277353644371, -0.06067489832639694, -0.029160911217331886, 0.07698705792427063, 0.019404182210564613, -0.021244298666715622, 0.018778445199131966, 0.00878845900297165, -0.010794959962368011, -0.017180997878313065, -0.11447309702634811, -0.05726337805390358, 0.008141622878611088, -0.05965442582964897, -0.12991836667060852, -0.10309988260269165, 0.011413579806685448, 0.09093078970909119, 0.18617255985736847, 0.33213192224502563, 0.24479234218597412, 0.1869240254163742, 0.15655799210071564, 0.058791354298591614, 0.01207992434501648, 0.019907936453819275, -0.06946782767772675, -0.07684052735567093, -0.047628067433834076, -0.08820609003305435, -0.000212102648220025, 0.07534404844045639, 0.038448408246040344, 0.04003887251019478, 0.03119397908449173, 0.0011951109627261758, 0.010094583965837955, -0.03314953297376633, -0.06268736720085144, -0.07265360653400421, -0.00891298521310091, -0.15164446830749512, -0.09199260920286179, -0.11222013831138611, 0.03614525869488716, 0.04057491198182106, 0.22035513818264008, 0.21137374639511108, 0.18950670957565308, 0.15257692337036133, 0.1275767982006073, 0.07310634106397629, 0.11070302873849869, 0.05826950818300247, -0.03911158815026283, -0.09507092088460922, 0.03222530707716942, 0.009102252312004566, 0.0707889199256897, 0.028363948687911034, 0.022087350487709045, 0.03316117823123932, -0.022139644250273705, -0.0309392511844635, -0.034387726336717606, -0.04996085166931152, -0.03349604085087776, -0.11666396260261536, -0.05788841471076012, -0.08600170165300369, -0.03590294346213341, 0.04270322620868683, 0.05131485313177109, -0.02179434895515442, -0.05025656148791313, 0.06472492218017578, 0.14019478857517242, -0.047407116740942, 0.043626610189676285, 0.013136948458850384, -0.049280062317848206, -0.014996308833360672, 0.04839860275387764, 0.02277217246592045, 0.10743875056505203, 0.12411615997552872, 0.04637566953897476, -0.008942958898842335, -0.018528277054429054, -0.023971106857061386, 0.026987040415406227, 0.022737916558980942, 0.012857139110565186, -0.04344232752919197, -0.08660763502120972, -0.1209116131067276, -0.06669387221336365, 0.0027863613795489073, 0.05704879015684128, -0.03945460915565491, 0.0005063505377620459, 0.015652045607566833, -0.026569269597530365, -0.0934520736336708, -0.0913085862994194, -0.028634367510676384, -0.038024432957172394, -0.09225474298000336, -0.031173458322882652, 0.01660327799618244, 0.016373591497540474, 0.0740838348865509, 0.10360249876976013, 0.04227360337972641, 0.011281698010861874, 0.015177365392446518, -0.0036761455703526735, 0.013017387129366398, -0.0053355395793914795, -0.009701082482933998, 0.034095194190740585, -0.04322665184736252, -0.03599550947546959, -0.028433961793780327, -0.07415861636400223, -0.06860178709030151, -0.12905089557170868, -0.1621839553117752, -0.13937145471572876, -0.1502188891172409, -0.1990426629781723, -0.11165817081928253, -0.05662493407726288, -0.042008500546216965, -0.037981100380420685, -0.052707966417074203, -0.027442118152976036, -0.08218876272439957, -0.13831715285778046, -0.08301929384469986, -0.10767380148172379, -0.04062856361269951, -0.07000573724508286, 0.020831536501646042, 0.04897790402173996, 0.012318510562181473, 0.0032941922545433044, 0.026789363473653793, 0.006378311663866043, -0.0034587481059134007, -0.022584646940231323, 0.03504890576004982, -0.003148417454212904, -0.0281926691532135, -0.06941980868577957, -0.17027567327022552, -0.2221432626247406, -0.2612674832344055, -0.1680639684200287, -0.26232120394706726, -0.20688198506832123, -0.20350344479084015, -0.18694688379764557, -0.18350428342819214, -0.2823219895362854, -0.30657392740249634, -0.27440229058265686, -0.19946911931037903, -0.15947504341602325, -0.07783103734254837, -0.04036515951156616, 0.005317216273397207, -0.01729012466967106, 0.03181486949324608, -0.03132633864879608, 0.016065891832113266, -0.016305280849337578, 0.013869855552911758, -0.025514815002679825, 0.004926628898829222, 0.020810389891266823, -0.026000380516052246, -0.040446244180202484, -0.041372187435626984, -0.03698257729411125, -0.06991367042064667, -0.045917242765426636, -0.10454629361629486, -0.12963084876537323, -0.13792017102241516, -0.11375726759433746, -0.09064255654811859, -0.1728675365447998, -0.12686783075332642, -0.10134436190128326, -0.06552347540855408, -0.07017115503549576, -0.009827322326600552, -0.015260708518326283, -0.028394687920808792, -0.01370067149400711, -0.024411916732788086, -0.03213116154074669, 0.016118846833705902, -0.001565389335155487, 0.021031562238931656, 0.006553828716278076, -0.017220400273799896, -0.006917037535458803, -0.013585397973656654, 0.02086617238819599, 0.004281043540686369, -0.012757684104144573, -0.0035485937260091305, -0.02762516401708126, -0.030145840719342232, -0.018354099243879318, -0.017770590260624886, -0.02603195235133171, 0.007811246905475855, 0.004744912032037973, -0.003899933071807027, -0.027517588809132576, -0.008860749192535877, 0.008414079435169697, -0.032519422471523285, -0.0033332689199596643, -0.025349486619234085, 0.026396825909614563, 0.006544336676597595, -0.024883143603801727], [-0.02558905817568302, 0.0197068490087986, 0.032919805496931076, 0.0024524927139282227, -0.026612022891640663, -0.03421523794531822, 0.00771142914891243, 0.008640933781862259, -0.007927307859063148, 0.01834041252732277, -0.016956036910414696, -0.024030733853578568, -0.010008011013269424, -0.02482275664806366, -0.013638691045343876, -0.0013510016724467278, -0.0017953552305698395, -0.010865088552236557, 0.0327962301671505, -0.020574327558279037, 0.017419442534446716, -0.0016689971089363098, -0.01014372706413269, 0.0034111924469470978, 0.012515489012002945, -0.022614769637584686, 0.00021397694945335388, -0.017310118302702904, 0.030628111213445663, 0.0029884688556194305, 0.027341101318597794, -0.006699860095977783, 0.01693655550479889, -0.008112139999866486, -0.018874872475862503, -0.00692560663446784, -0.0268916804343462, 0.016062254086136818, 0.02089986577630043, 0.03628586605191231, -0.015780039131641388, -0.025870976969599724, -0.01203895453363657, 0.04242940992116928, -0.016970530152320862, 0.019464662298560143, -0.017583558335900307, -0.02138475887477398, -0.024257831275463104, 0.003683410817757249, -0.017534306272864342, -0.01652560383081436, 0.033126864582300186, -0.010006871074438095, -0.017470210790634155, -0.020404208451509476, 0.03077184036374092, -0.012002145871520042, 0.0007839945610612631, 0.013221656903624535, -0.02779318392276764, -0.023444022983312607, -0.0032253446988761425, 0.05000576376914978, 0.05079229548573494, 0.06697329878807068, 0.06912292540073395, 0.015273493714630604, 0.07550647109746933, 0.06419740617275238, 0.09505341202020645, 0.09287728369235992, 0.07097077369689941, 0.07540938258171082, 0.004336006008088589, 0.04435697942972183, -0.020287852734327316, -0.04120468720793724, 0.007826818153262138, -0.006334793288260698, -0.01033233292400837, 0.00800292193889618, 0.0169173926115036, 0.03315524384379387, 0.020023129880428314, 0.0004847906529903412, -0.014835601672530174, 0.018368670716881752, -0.024880854412913322, -0.0332828052341938, -0.01931845024228096, 0.04321026802062988, 0.0007988046854734421, 0.09910106658935547, 0.06363958865404129, 0.08614645153284073, 0.007249515503644943, 0.06429599970579147, 0.06424524635076523, 0.0650930255651474, 0.05685389041900635, -0.03145580738782883, -0.00891561433672905, 0.049296148121356964, -0.037944164127111435, -0.0007610939210280776, 0.01209571398794651, -0.038001544773578644, 0.005860611796379089, -0.01898340694606304, 0.014314788393676281, 0.00883849710226059, -0.0002813078463077545, -0.02660256065428257, -0.026047073304653168, 0.02257024683058262, -0.03203383833169937, 0.014298750087618828, -0.010667113587260246, -0.004660334438085556, -0.08665688335895538, -0.06834658235311508, -0.06960427761077881, -0.11973240971565247, -0.0691937655210495, -0.009394899010658264, 0.03539861738681793, -0.010910105891525745, -0.003035093890503049, -0.014260271564126015, -0.04190880432724953, 0.004583034664392471, 0.0734713077545166, 0.03425198420882225, -0.009844937361776829, 0.052334047853946686, -0.04952338710427284, -0.019908061251044273, -0.009766274131834507, -0.021586807444691658, 0.024721425026655197, 0.0048149749636650085, -0.012149198912084103, 0.02116961032152176, 0.0019026503432542086, -0.04805789142847061, -0.03270364925265312, -0.06109479069709778, -0.09610168635845184, -0.09650298207998276, -0.138559490442276, -0.1880687177181244, -0.17023663222789764, -0.11171988397836685, 0.0035795324947685003, 0.015511841513216496, 0.12246530503034592, 0.08479081094264984, 0.1155853271484375, 0.14769266545772552, 0.14804330468177795, 0.12913081049919128, 0.13410599529743195, 0.12978167831897736, -0.010442955419421196, -0.004929757211357355, -0.03401196375489235, 0.033624786883592606, 0.023698680102825165, 0.024277184158563614, -0.0036969685461372137, -0.029424885287880898, -0.02549418993294239, -0.05399273708462715, -0.0679578185081482, -0.029485657811164856, -0.16244956851005554, -0.13502705097198486, -0.19718869030475616, -0.23515568673610687, -0.13830049335956573, -0.21128886938095093, -0.2248280644416809, -0.21392183005809784, -0.22479648888111115, -0.22915636003017426, -0.1818457543849945, -0.03011251427233219, -0.06922908127307892, -0.05164284259080887, 0.08687428385019302, 0.1643361896276474, 0.10536515712738037, 0.003983975388109684, 0.03063264489173889, 0.0047692772932350636, -0.034498587250709534, 0.025548242032527924, -0.04109153151512146, -0.03140388801693916, -0.01018183957785368, 0.01120348833501339, -0.045862793922424316, -0.0734889954328537, -0.03962625935673714, -0.135316863656044, -0.174341082572937, -0.1888408064842224, -0.26572737097740173, -0.24978239834308624, -0.23542441427707672, -0.33254608511924744, -0.29323798418045044, -0.3436010479927063, -0.24933263659477234, -0.14515140652656555, -0.19353286921977997, -0.07067541033029556, 0.03105296567082405, -0.003843492828309536, 0.054074738174676895, 0.016271531581878662, 0.018710963428020477, 0.02632555551826954, 0.012459082528948784, 0.0027506232727319, 0.00816988106817007, -0.03652486205101013, 0.013490197248756886, -0.020641157403588295, -0.04978255555033684, -0.12019513547420502, -0.16235071420669556, -0.10346312075853348, -0.0800606980919838, -0.1348830759525299, -0.27225714921951294, -0.18334950506687164, -0.29092147946357727, -0.2375338077545166, -0.29369643330574036, -0.17765535414218903, -0.2779181897640228, -0.14650696516036987, -0.12852837145328522, -0.09173184633255005, -0.13413283228874207, -0.09813892841339111, -0.014092561788856983, 0.006199947092682123, 0.009548944421112537, -0.027765776962041855, -0.013244766741991043, -0.01888132467865944, -0.05004239082336426, -0.10302597284317017, -0.060959458351135254, -0.09374841302633286, -0.09183654934167862, -0.04160059243440628, -0.09176330268383026, -0.08885643631219864, -0.13329650461673737, -0.15423071384429932, -0.2715265452861786, -0.18715250492095947, -0.2460993379354477, -0.21764589846134186, -0.23183347284793854, -0.3340957760810852, -0.2432601898908615, -0.2078632116317749, -0.1409713625907898, -0.07444114983081818, -0.1577935814857483, -0.20418651401996613, -0.14642220735549927, 0.00015774561325088143, -0.011872967705130577, -0.044695597141981125, -0.0259755440056324, -0.013006690889596939, -0.049216002225875854, -0.12487567961215973, -0.10553546249866486, -0.0462743379175663, -0.059535060077905655, -0.005790023598819971, -0.023444047197699547, -0.11861106008291245, -0.10691770911216736, -0.13305407762527466, -0.07163422554731369, -0.086937315762043, -0.10713525861501694, -0.15794308483600616, -0.3479081392288208, -0.2150132656097412, -0.2332143485546112, -0.25652995705604553, -0.3382205069065094, -0.26684969663619995, -0.2899450659751892, -0.18290814757347107, -0.10581506788730621, -0.01216111984103918, -0.030658042058348656, -0.02671082504093647, -0.01623321883380413, -0.005650934297591448, -0.044015999883413315, -0.13497629761695862, -0.058170683681964874, -0.06578322499990463, -0.09914354234933853, -0.17185090482234955, -0.16172902286052704, -0.17308104038238525, -0.22235871851444244, -0.22940190136432648, -0.01003615278750658, -0.013788595795631409, 3.159558036713861e-05, -0.15800586342811584, -0.11394594609737396, -0.29278692603111267, -0.19948004186153412, -0.1519041210412979, -0.37094366550445557, -0.32325875759124756, -0.3504869341850281, -0.10584802180528641, 0.012696960009634495, 0.04846867546439171, -0.012896684929728508, -0.007153745740652084, -0.018815163522958755, -0.0035755315329879522, -0.08595070987939835, -0.12741312384605408, -0.165502667427063, -0.18798606097698212, -0.17895397543907166, -0.1608230620622635, -0.1036393865942955, 0.006801509764045477, -0.03162219747900963, -0.08443062752485275, 0.18155741691589355, 0.3682027757167816, 0.18264786899089813, -0.004827460739761591, -0.10748319327831268, -0.055752672255039215, -0.02157563529908657, -0.06062416732311249, -0.1635720133781433, -0.12144110351800919, -0.21520137786865234, -0.07496117800474167, 0.05370229482650757, 0.05219251662492752, -0.019248638302087784, 0.016508817672729492, -0.023162147030234337, -0.01851572096347809, -0.062089625746011734, -0.04005610942840576, -0.16028788685798645, -0.16791465878486633, -0.161265030503273, -0.12731735408306122, 0.04722930118441582, 0.13253876566886902, 0.03905468061566353, 0.060980480164289474, 0.1608870029449463, 0.43548470735549927, 0.3087901771068573, 0.13083091378211975, -0.10459494590759277, 0.0803583487868309, 0.09910933673381805, 0.03506879508495331, -0.07304030656814575, -0.11648594588041306, -0.07800240814685822, 0.004681154619902372, 0.02675149403512478, 0.05030735582113266, 0.03819674625992775, -0.024344636127352715, 0.005899462848901749, -0.03818807750940323, -0.03288421034812927, -0.032014910131692886, -0.06274695694446564, -0.1310674101114273, -0.04519825801253319, 0.0057158088311553, 0.11019829660654068, 0.1584162712097168, 0.0508330874145031, 0.10117434710264206, 0.2377069890499115, 0.3708866536617279, 0.4079091250896454, 0.11397526413202286, -0.06731405109167099, -0.07590822875499725, -0.05022895708680153, -0.03515184298157692, -0.04665665328502655, -0.12544690072536469, -0.07711533457040787, -0.03404520824551582, 0.009386514313519001, 0.029818901792168617, 0.04172512888908386, 0.0032368518877774477, 0.020445358008146286, -0.03158259391784668, 0.02433585934340954, 0.040672171860933304, -0.005414579063653946, 0.019697343930602074, 0.05409451201558113, 0.03588972985744476, 0.16849400103092194, 0.0685538575053215, -0.08653821051120758, 0.12028615176677704, 0.3124919831752777, 0.4038538336753845, 0.5860949754714966, 0.015918700024485588, -0.06258677691221237, -0.17311981320381165, -0.10622841864824295, -0.09464671462774277, -0.19307933747768402, -0.08956952393054962, -0.09953142702579498, -0.045961733907461166, 0.06222689896821976, 0.08940538763999939, 0.031738247722387314, -0.0137919457629323, 0.02738843858242035, 0.009044976904988289, -0.02446576952934265, 0.05156610161066055, 0.009113647043704987, 0.04464288428425789, 0.09653006494045258, -0.019953766837716103, -0.10152813792228699, 0.010190891101956367, 0.09352370351552963, 0.24113579094409943, 0.21717742085456848, 0.4178008735179901, 0.5612415075302124, 0.0327480286359787, -0.05743218585848808, -0.152530238032341, -0.07108725607395172, -0.025283128023147583, 0.010800755582749844, 0.07780857384204865, -0.007570235058665276, 0.1164194643497467, 0.09493809193372726, 0.1051190122961998, 0.03788841888308525, 0.0060702660121023655, -0.01788943260908127, 0.002864205976948142, 0.026917876675724983, -0.0018043064046651125, -0.02263564243912697, 0.04660848155617714, 0.03778984397649765, -0.01763657107949257, -0.11493992060422897, -0.02144910953938961, 0.17373409867286682, 0.253611296415329, 0.1552702635526657, 0.30319032073020935, 0.33063140511512756, 0.0011451481841504574, -0.07613492757081985, -0.2013217657804489, -0.07795758545398712, 0.07429812848567963, 0.08727003633975983, 0.04637032747268677, -0.00817765761166811, 0.08923466503620148, 0.1102524995803833, 0.05833413079380989, 0.021067490801215172, -0.005059569608420134, 0.03335363790392876, 0.02404114045202732, -0.04258406534790993, -0.018032588064670563, 0.011041401885449886, 0.05946485698223114, 0.012748617678880692, 0.03937099501490593, 0.009849322959780693, 0.059816375374794006, 0.10181854665279388, 0.10647546499967575, 0.2540654242038727, 0.15266041457653046, 0.1405630260705948, 0.0013392955297604203, 0.02023710496723652, -0.05406005680561066, 0.03561859205365181, 0.0355268232524395, 0.03608769550919533, -0.002477841218933463, -0.023801980540156364, 0.16755932569503784, 0.1944834291934967, 0.06668215990066528, 0.013751463033258915, 0.035519491881132126, -0.015565904788672924, 0.0050011067651212215, 0.0026440322399139404, -0.09372816234827042, -0.005517530720680952, -0.031997594982385635, -0.003453231183812022, 0.008310058154165745, 0.05093945562839508, 0.10668247193098068, 0.17004382610321045, 0.23405666649341583, 0.07165665179491043, 0.20394045114517212, 0.2000485360622406, 0.2566947340965271, 0.2628704607486725, 0.1756438910961151, 0.16099923849105835, 0.05958925932645798, 0.05555405840277672, 0.06802710145711899, 0.11239729821681976, 0.172090545296669, 0.0922727882862091, 0.06805930286645889, 0.02980985678732395, -0.02400764636695385, -0.020720606669783592, 0.0075441692024469376, -0.030977867543697357, -0.08863852173089981, 0.0016288330079987645, -0.0886315181851387, 0.0010392725234851241, 0.07795800268650055, 0.15222714841365814, 0.16677767038345337, 0.2500072717666626, 0.349597692489624, 0.24320083856582642, 0.1286192238330841, 0.18120752274990082, 0.251888632774353, 0.3270074129104614, 0.2514001727104187, 0.3068051040172577, 0.16118505597114563, 0.09089427441358566, 0.13265053927898407, 0.15621031820774078, 0.15291744470596313, 0.057982187718153, 0.054185718297958374, 0.018901260569691658, -0.008795098401606083, 0.021045926958322525, -0.0002961039135698229, 0.0122385798022151, 0.03558634966611862, -0.0020669240038841963, 0.08711855113506317, 0.04142934828996658, 0.05188976973295212, -0.00435906695201993, 0.10063803941011429, 0.1672092080116272, 0.19272005558013916, 0.2138962745666504, 0.23033049702644348, 0.24484139680862427, 0.263333261013031, 0.1386035978794098, 0.30007204413414, 0.24047814309597015, 0.16956958174705505, 0.13324132561683655, 0.15463776886463165, 0.15710891783237457, 0.1363951861858368, 0.07809823006391525, 0.021354995667934418, -0.0001063287490978837, -0.005932920146733522, -0.021339865401387215, 0.0011537618702277541, -0.019870813935995102, 0.04997566342353821, 0.07337012141942978, 0.14421167969703674, 0.09931838512420654, 0.006994612514972687, -0.02299141138792038, -0.08214656263589859, -0.07994329929351807, -0.09505292028188705, -0.14329789578914642, -0.08067557215690613, -0.06446413695812225, 0.011805279180407524, -0.04142807796597481, 0.08448156714439392, 0.16659191250801086, 0.24869273602962494, 0.22251887619495392, 0.21116866171360016, 0.11429405957460403, 0.04446322098374367, 0.012971735559403896, 0.043039653450250626, -0.019144978374242783, -0.02186906524002552, 0.006494536995887756, 0.018383268266916275, -0.00905312318354845, -0.005900263320654631, 0.025489090010523796, 0.004969079978764057, 0.03213122859597206, -0.04674387350678444, 0.07016526162624359, 0.016571449115872383, -0.10611534863710403, -0.09864425659179688, -0.07668954133987427, -0.07519844174385071, -0.13011866807937622, 0.001093056402169168, 0.13523955643177032, 0.08674444258213043, 0.16073863208293915, 0.2571766972541809, 0.22418542206287384, 0.18951955437660217, 0.0943792387843132, 0.00501457741484046, 0.005262215621769428, 0.02940051071345806, -0.023245681077241898, 0.02080705389380455, -0.022108998149633408, -0.028563164174556732, -0.021817905828356743, 0.013189694844186306, -0.07200505584478378, -0.19717387855052948, -0.1893681436777115, -0.22150328755378723, -0.16199727356433868, -0.05628472566604614, -0.10424691438674927, -0.04675278440117836, -0.02872624434530735, -0.06185850873589516, 0.05845913663506508, -0.005416592117398977, -0.026751386001706123, -0.025271590799093246, 0.058065127581357956, 0.07039821892976761, -0.01106337085366249, 0.04302937909960747, 0.017025284469127655, 0.002460483694449067, -0.013609022833406925, 0.017302047461271286, 0.03120993636548519, -0.02535555697977543, 0.03339586779475212, -0.011330908164381981, 0.02995550073683262, -0.015824224799871445, -0.06553991883993149, -0.11481544375419617, -0.17846855521202087, -0.2512286603450775, -0.2935863733291626, -0.25699105858802795, -0.206386998295784, -0.33524101972579956, -0.3219490945339203, -0.34304675459861755, -0.31765973567962646, -0.30967527627944946, -0.3473004996776581, -0.3176705539226532, -0.3116651475429535, -0.3234596848487854, -0.21473519504070282, -0.08376955986022949, -0.05840418487787247, -0.01543542742729187, -0.013421744108200073, -0.008719666860997677, 1.708540366962552e-05, -0.021355267614126205, -0.011601202189922333, -0.013281648978590965, 0.027879837900400162, -0.007873971946537495, -0.03977513685822487, -0.006015699822455645, -0.07921182364225388, -0.07597890496253967, -0.1250256597995758, -0.18821696937084198, -0.2179022878408432, -0.1947745978832245, -0.22264280915260315, -0.32741472125053406, -0.39739298820495605, -0.32835230231285095, -0.27932441234588623, -0.299236536026001, -0.23389007151126862, -0.17172281444072723, -0.1219640001654625, -0.1034797728061676, -0.0038692450616508722, 0.0072969552129507065, -0.028360968455672264, -0.01913652941584587, 0.018128734081983566, 0.013854552060365677, -0.027079515159130096, -0.02895469404757023, 0.019661124795675278, 0.004180345684289932, -0.03516384959220886, -0.02751353569328785, -0.00541318254545331, -0.008797744289040565, 0.0031445585191249847, -0.04007711261510849, -0.04257771372795105, -0.012291519902646542, -0.05006637051701546, -0.041860759258270264, -0.03127032890915871, -0.006560734938830137, -0.036570534110069275, -0.025589538738131523, -0.014560247771441936, -0.0037178376223891973, -0.03608014062047005, -0.026186002418398857, 0.0003372291976120323, 0.02373601123690605, 0.032773468643426895, 0.0017318092286586761, -0.021948257461190224, -0.033715009689331055], [-0.020318709313869476, 0.032413046807050705, 0.008436471223831177, 0.003895379602909088, 0.01421186700463295, -0.014384321868419647, 0.0021632984280586243, 0.030316974967718124, -0.024025127291679382, -0.010697493329644203, 0.02159561961889267, 0.009177092462778091, -0.029740558937191963, -0.0332329086959362, 0.016454583033919334, -0.031079627573490143, 0.024109244346618652, 0.015755165368318558, -0.007486356422305107, -0.017503006383776665, 0.017479058355093002, 0.0035357996821403503, -0.028854260221123695, -0.006999634206295013, 0.02082463726401329, -0.028544392436742783, -0.006397336721420288, 0.026615113019943237, 0.029109369963407516, 0.03351086750626564, -0.016591651365160942, 0.022873923182487488, 0.008672262541949749, -0.02425237186253071, 0.014707254245877266, -0.04072690010070801, -0.05488862469792366, 0.0004046134417876601, -0.04841923341155052, -0.05070887506008148, -0.03947562351822853, -0.03185466676950455, 0.0230350811034441, -0.0613391250371933, -0.05560379475355148, -0.026366734877228737, 0.0010170041350647807, -0.024586183950304985, 0.022854121401906013, -0.025699526071548462, 0.01349673792719841, -0.013712971471250057, 0.021370574831962585, 0.017024211585521698, 0.015804853290319443, 0.011666662991046906, 0.022741466760635376, -0.016656722873449326, -0.02634803205728531, 0.012719986028969288, 0.02167452685534954, -0.0015978788724169135, 0.010739365592598915, -0.01891588605940342, -0.036164045333862305, -0.06181579828262329, -0.07929841428995132, -0.1291198432445526, -0.16404621303081512, -0.14546984434127808, -0.14113746583461761, -0.18247374892234802, -0.14697976410388947, -0.1300632506608963, -0.03752061352133751, -0.018055509775877, -0.026569226756691933, -0.010563593357801437, -0.03095521405339241, -0.02175617404282093, 0.016203803941607475, -0.005415796302258968, 0.03173128888010979, -0.02404976822435856, 0.0081944540143013, 0.026085343211889267, -0.027259841561317444, 0.013493617065250874, -0.0004987676511518657, 0.01948709785938263, -0.04746444895863533, -0.029658973217010498, -0.07209526747465134, -0.08465211093425751, -0.1397746503353119, -0.18861371278762817, -0.19503851234912872, -0.3084253966808319, -0.22802919149398804, -0.16019503772258759, -0.18579813838005066, -0.1384604424238205, -0.059467863291502, -0.006694558542221785, -0.01117274072021246, 0.02057226002216339, 0.03588481992483139, 0.020361650735139847, -0.02023550122976303, 0.005223976913839579, 0.028690868988633156, -0.008257389068603516, -0.015081554651260376, 0.02884845621883869, 0.031802982091903687, -0.032654181122779846, 0.0011851841118186712, -0.005438261199742556, -0.05614541843533516, -0.047095026820898056, -0.13528335094451904, -0.17902293801307678, -0.23052825033664703, -0.17392399907112122, -0.24737556278705597, -0.1933933049440384, -0.19922278821468353, -0.12286695837974548, -0.08202571421861649, 0.03260786458849907, 0.08089884370565414, 0.11934417486190796, 0.07210417836904526, 0.13978932797908783, 0.1894083321094513, 0.21877136826515198, 0.1559908241033554, 0.05352013185620308, -0.014912743121385574, 0.006094947922974825, -0.025556281208992004, 0.0013148002326488495, -0.022434184327721596, 0.014551393687725067, 0.009992779232561588, -0.009409029968082905, -0.07040297985076904, -0.1013258770108223, -0.16225868463516235, -0.13412009179592133, -0.20961789786815643, -0.15941070020198822, -0.18410928547382355, -0.21809689700603485, -0.1932622194290161, -0.18157771229743958, -0.1688116192817688, -0.020198771730065346, -0.01529380027204752, -0.015972096472978592, 0.12053053081035614, 0.1297723799943924, 0.28689059615135193, 0.4104466438293457, 0.2530379593372345, 0.055636730045080185, -0.011865146458148956, 0.01245616190135479, -0.02134794555604458, 0.005893618334084749, -0.009861222468316555, -0.025070631876587868, -0.06214522570371628, -0.020184632390737534, -0.08935663104057312, -0.12869101762771606, -0.14273937046527863, -0.08983896672725677, -0.11685406416654587, -0.09673108905553818, -0.1000937893986702, -0.13124628365039825, -0.13991399109363556, -0.1431625485420227, -0.15721800923347473, -0.08963697403669357, -0.042333852499723434, 0.09819822758436203, 0.14761631190776825, 0.08561915159225464, 0.2662044167518616, 0.536310076713562, 0.42989981174468994, 0.18468329310417175, 0.08370829373598099, -0.017098722979426384, 0.023553039878606796, 0.030111566185951233, -0.030650554224848747, -0.06134282797574997, -0.12828277051448822, -0.10342822223901749, -0.1459273397922516, -0.04966309666633606, -0.03382308408617973, 0.03762488439679146, 0.03649505227804184, 0.0035876412875950336, -0.08716880530118942, -0.14319941401481628, -0.10162124037742615, -0.11414942145347595, -0.016471322625875473, 0.08173834532499313, 0.041086722165346146, 0.10069753974676132, 0.09219968318939209, 0.10576570779085159, 0.07431867718696594, 0.45927685499191284, 0.5070581436157227, 0.2988365888595581, 0.04782399535179138, 0.0019583164248615503, 0.001990304794162512, -0.02905724011361599, -0.0262951347976923, -0.05391990393400192, -0.18128930032253265, -0.07747678458690643, -0.11560634523630142, -0.06974823027849197, 0.0007447092211805284, 0.07333426922559738, -0.09219014644622803, 0.012325303629040718, -0.05645916238427162, -0.06575752794742584, -0.22008536756038666, -0.20798993110656738, -0.03368757292628288, -0.06401394307613373, 0.02978712134063244, -0.03787323832511902, 0.018660856410861015, 0.0421811006963253, 0.03496721759438515, 0.39634469151496887, 0.670067548751831, 0.36204633116722107, 0.02516959235072136, 0.032515477389097214, 0.01202984619885683, 0.008389417082071304, -0.027224663645029068, -0.12978070974349976, -0.17670997977256775, -0.17164258658885956, -0.06965427845716476, -0.012905571609735489, 0.052010428160429, -0.09970438480377197, -0.055284712463617325, 0.07730238139629364, 0.02138313092291355, -0.0813606008887291, -0.3850073516368866, -0.2967257797718048, -0.15332163870334625, -0.010907151736319065, -0.029292026534676552, -0.05884985625743866, -0.0019338714191690087, 0.08767826855182648, 0.001064496231265366, 0.25787636637687683, 0.5578304529190063, 0.3138596713542938, 0.07873205095529556, -0.025630325078964233, 0.013449089601635933, 0.017185289412736893, -0.025960490107536316, -0.15402406454086304, -0.0729655921459198, -0.09738560765981674, -0.10810225456953049, 0.008619938045740128, 0.044889774173498154, 0.1727903038263321, 0.15243007242679596, 0.150919571518898, 0.25118547677993774, 0.12428565323352814, -0.18466098606586456, -0.1288342922925949, -0.17331579327583313, -0.13398265838623047, -0.1585439294576645, -0.06322906166315079, -0.11391998827457428, -0.10391154140233994, -0.07295054942369461, 0.02027454413473606, 0.3113659620285034, 0.2685713469982147, 0.07261063903570175, -0.013909914530813694, 0.004292184952646494, -0.0008310173870995641, -0.06152112036943436, -0.1403890699148178, -0.06982477754354477, 0.10518841445446014, 0.14650213718414307, 0.18531794846057892, 0.2901188135147095, 0.31950533390045166, 0.4232405722141266, 0.33509987592697144, 0.4814161956310272, 0.3277108073234558, 0.04982074722647667, 0.06994176656007767, 0.06621784716844559, 0.07061485201120377, -0.0674409419298172, -0.17545627057552338, -0.2218266874551773, -0.2571808099746704, -0.23740708827972412, -0.1490287482738495, -0.0036974356044083834, 0.09107169508934021, 0.07039223611354828, 0.036747995764017105, 0.032597098499536514, -0.04460577666759491, -0.08290467411279678, -0.09925512969493866, 0.012045946903526783, 0.23540519177913666, 0.48231616616249084, 0.4218958020210266, 0.35757559537887573, 0.2983890771865845, 0.3604768216609955, 0.39831867814064026, 0.4259490668773651, 0.3502090275287628, 0.0700903907418251, 0.09191832691431046, 0.0557892881333828, 0.12776148319244385, 0.07305441051721573, -0.1103002205491066, -0.11341899633407593, -0.16895458102226257, -0.07577530294656754, -0.0950024276971817, -0.16250281035900116, -0.10520613193511963, -0.04309343174099922, -0.026314616203308105, -0.013747579418122768, 0.007739576045423746, -0.0654330849647522, -0.017574334517121315, 0.14147256314754486, 0.4046233594417572, 0.4652475416660309, 0.4333958625793457, 0.30973121523857117, 0.2591084837913513, 0.2661197781562805, 0.2042618840932846, 0.1970626413822174, 0.07922510802745819, -0.027317186817526817, 0.04426205903291702, -0.04193723574280739, 0.10542432963848114, 0.090883269906044, 0.022575480863451958, 0.04842520132660866, -0.0334441252052784, -0.009695460088551044, -0.12594887614250183, -0.2546631097793579, -0.1749018132686615, -0.07316519320011139, -0.002415052382275462, -0.023895636200904846, 0.016319742426276207, -0.007818019017577171, 0.01810638979077339, 0.21753744781017303, 0.3573831021785736, 0.3256584703922272, 0.18102067708969116, 0.14853937923908234, 0.1284710317850113, 0.18860284984111786, 0.05062143877148628, 0.1551886647939682, 0.03290678560733795, -0.03340032324194908, 0.011236430145800114, 0.021017063409090042, 0.14390845596790314, 0.01917860098183155, 0.10085621476173401, -0.007462577428668737, -0.05146273225545883, -0.014590424485504627, -0.09083351492881775, -0.1133480966091156, -0.17853178083896637, -0.10270088165998459, 0.006221308372914791, 0.0074837724678218365, -0.02507280930876732, -0.03246559202671051, -0.023130444809794426, 0.06449124217033386, -0.06659021228551865, 0.005708538461476564, 0.00836515985429287, 0.03733331337571144, 0.07251206040382385, 0.020774759352207184, 0.0432140938937664, 0.19262591004371643, -0.053377456963062286, -0.1302911341190338, -0.008602683432400227, 0.05765882879495621, 0.12266247719526291, 0.056360695511102676, -0.004275504499673843, -0.009361298754811287, -0.07857894897460938, 0.058895234018564224, -0.021309437230229378, -0.20430704951286316, -0.2937556505203247, -0.11079835891723633, -0.024263497442007065, -0.030163941904902458, 0.0044735572300851345, 0.009389934130012989, -0.10315851122140884, -0.18792782723903656, -0.14825339615345, -0.10525975376367569, -0.04216579347848892, 0.06692437082529068, -0.14969031512737274, -0.17659415304660797, -0.10923484712839127, 0.05296841263771057, -0.05897175520658493, -0.03462398797273636, 0.038239479064941406, -0.027335280552506447, -0.002152408007532358, -0.02235235832631588, -0.06943919509649277, -0.0006755253416486084, -0.12508265674114227, -0.014996529556810856, -0.05676409229636192, -0.2406478226184845, -0.4119282364845276, -0.2108784019947052, -0.012910363264381886, -0.03528459742665291, 0.03206799179315567, -0.0033361678943037987, -0.15698151290416718, -0.20214301347732544, -0.18330985307693481, -0.050828687846660614, -0.06092163175344467, -0.06030845269560814, -0.12168015539646149, -0.19043825566768646, -0.1782083809375763, -0.15338781476020813, -0.1409151256084442, -0.04430145397782326, -0.036115385591983795, 0.02798326499760151, 0.021249257028102875, 0.022334016859531403, -0.06704273074865341, -0.02461463399231434, -0.06359662115573883, -0.068346306681633, -0.07046745717525482, -0.29360100626945496, -0.41065698862075806, -0.12183160334825516, 0.010378889739513397, -0.031943608075380325, 0.030170580372214317, -0.009666663594543934, -0.12454020977020264, -0.25416693091392517, -0.1764562875032425, 0.034621939063072205, -0.05015002563595772, -0.04849594086408615, 0.0022672084160149097, -0.15564985573291779, -0.17122024297714233, -0.2108945995569229, -0.1487421989440918, -0.07694043219089508, -0.013337701559066772, -0.019147830083966255, -0.13354656100273132, -0.06866071373224258, -0.08416411280632019, 0.027780823409557343, -0.07088807225227356, -0.2237202525138855, -0.23024171590805054, -0.39320066571235657, -0.3271482586860657, -0.050402164459228516, -0.03961615636944771, 0.001190650975331664, 0.02465202659368515, 0.013585668057203293, -0.03772556781768799, -0.21942180395126343, -0.13216541707515717, 0.032806966453790665, -0.19585515558719635, -0.1491466760635376, -0.19337894022464752, -0.18771332502365112, -0.17139610648155212, -0.21419459581375122, -0.1757785826921463, 0.007883903570473194, 0.0011482462286949158, -0.07261156290769577, -0.10696031153202057, -0.017483891919255257, -0.002436057897284627, -0.007685453165322542, -0.12071303278207779, -0.2737525999546051, -0.30293020606040955, -0.28084078431129456, -0.1822340339422226, -0.014969871379435062, 0.0014337259344756603, 0.02460106834769249, -0.028751462697982788, 0.016446011140942574, -0.13000954687595367, -0.2850956916809082, -0.2635212540626526, -0.16300132870674133, -0.28268295526504517, -0.15113671123981476, -0.1621621996164322, -0.1434672772884369, -0.10277952253818512, 0.019270045682787895, 0.0054769329726696014, 0.030823325738310814, 0.04195210710167885, 0.05689822509884834, 0.13588932156562805, -0.01059389766305685, -0.10560713708400726, -0.12299519777297974, -0.20305702090263367, -0.12696649134159088, -0.2773846387863159, -0.27810606360435486, -0.15167345106601715, 0.006520841736346483, -0.024320408701896667, -0.016051897779107094, 0.03321446478366852, -0.03424220159649849, -0.1161903515458107, -0.20231209695339203, -0.2677609920501709, -0.22421477735042572, -0.1334609091281891, 0.01603493094444275, -0.07948513329029083, -0.06002464517951012, 0.011383860372006893, 0.04765424504876137, 0.018827129155397415, 0.08378531038761139, 0.1015862375497818, 0.03217462822794914, -0.039450496435165405, -0.1240386813879013, -0.22097274661064148, -0.04608278349041939, -0.07176367193460464, -0.14978425204753876, -0.18955282866954803, -0.16092449426651, -0.10201241075992584, -0.0163712315261364, 0.03547097370028496, -0.03349568694829941, -0.025522474199533463, -0.0008036197395995259, -0.08478210866451263, -0.17112891376018524, -0.22309276461601257, -0.2964829206466675, -0.23391301929950714, -0.12666191160678864, -0.1444469541311264, -0.11193209141492844, -0.050729308277368546, -0.017772579565644264, 0.11178258806467056, 0.024857837706804276, 0.00529544847086072, 0.059462934732437134, 0.03516655042767525, -0.039249174296855927, -0.0015780506655573845, -0.06772305071353912, -0.042964715510606766, -0.11624527722597122, -0.10791153460741043, -0.030535737052559853, -0.02801826409995556, -0.021727001294493675, -0.033274464309215546, 0.017586100846529007, -0.0021597258746623993, 0.02496512047946453, -0.031083986163139343, -0.0632748231291771, -0.0993608757853508, -0.17510658502578735, -0.17851316928863525, 0.0011781527427956462, -0.06960182636976242, -0.009566045366227627, -0.10712625831365585, -0.11636870354413986, -0.09373059868812561, -0.010435076430439949, 0.02387028932571411, 0.11965251713991165, 0.06277336180210114, 0.014566472731530666, -0.0010814627166837454, 0.06983239203691483, 0.00653275940567255, -0.06168809533119202, -0.034320104867219925, -0.06386102735996246, -0.008604626171290874, 0.01524780597537756, -0.016709495335817337, 0.033086780458688736, 0.014166213572025299, -0.0007210794137790799, 0.03259472921490669, 0.0031431515235453844, -0.042642008513212204, -0.06669437140226364, -0.003757464000955224, -0.024707861244678497, 0.033502478152513504, 0.12088090181350708, 0.0693841204047203, -0.04966084286570549, -0.0004390549147501588, -0.014883427880704403, -0.016301065683364868, 0.06276123970746994, 0.03333907946944237, 0.08269140124320984, 0.20823584496974945, 0.14177654683589935, 0.06218134984374046, 0.056973494589328766, 0.0004670126363635063, -0.042955830693244934, 0.0033542371820658445, -0.013735302723944187, 0.009974922984838486, 0.026862528175115585, 0.00026490166783332825, 0.0021872820798307657, 0.016434600576758385, 0.02858223393559456, 0.025558417662978172, -0.056284692138433456, -0.044774871319532394, -0.07385065406560898, -0.008114965632557869, 0.10692337155342102, 0.009696303866803646, -0.023438775911927223, 0.04019558057188988, -0.049323324114084244, -0.010114765726029873, -0.039290137588977814, -0.0918537825345993, -0.08087220042943954, -0.041866499930620193, -0.010037807747721672, 0.07085844874382019, 0.03049434721469879, 0.0554414801299572, 0.0329497791826725, -0.025071976706385612, 0.021183647215366364, -0.028317423537373543, -0.03548823297023773, 0.030677679926156998, 0.01215360313653946, 0.00662882998585701, 0.01886819303035736, -0.012495907954871655, 0.005026931408792734, -0.07193409651517868, -0.09557593613862991, -0.10122654587030411, -0.08977008610963821, -0.09268978983163834, -0.11976311355829239, -0.11885358393192291, -0.1874486654996872, -0.16661080718040466, -0.20587719976902008, -0.17826463282108307, -0.1230766549706459, -0.12710314989089966, -0.017388908192515373, -0.03944404795765877, -0.016185583546757698, -0.021600842475891113, -0.03317795321345329, -0.01949278637766838, -0.03070352040231228, 0.007577516138553619, -0.021305928006768227, 0.018867477774620056, 0.03491264209151268, -0.029013851657509804, 0.013126625679433346, 0.03137831762433052, -0.024316078051924706, -0.012458248063921928, 0.007786332629621029, -0.0030471240170300007, -0.03324347361922264, -0.033273227512836456, -0.020818987861275673, -0.0014690891839563847, -0.026541972532868385, -0.05062235891819, -0.010947559960186481, -0.04252135753631592, -0.053721632808446884, -0.010256517678499222, 0.025304146111011505, -0.015007248148322105, 0.00491181667894125, 0.01368063222616911, 0.024428609758615494, -0.02858736366033554, 0.002964455634355545, 0.016997121274471283], [0.035656582564115524, 0.0045913830399513245, -0.009709099307656288, 0.014029201120138168, -0.021309033036231995, -0.0030348561704158783, -0.0063638221472501755, 0.031662795692682266, -0.03334478661417961, 0.030177291482686996, 0.015460759401321411, -0.028569333255290985, 0.024035761132836342, -0.0038612340576946735, -0.007391619961708784, 0.008947137743234634, -0.006742838770151138, -0.006493236869573593, 0.027694161981344223, -0.012148605659604073, 0.0038520358502864838, -0.0016019940376281738, -0.03322376310825348, 0.009928055107593536, 0.0006412863731384277, -0.02240724302828312, -0.012372191995382309, -0.011552657932043076, 0.017537884414196014, 0.01260334625840187, 0.0016112364828586578, -0.026114439591765404, 0.021714869886636734, -0.019989430904388428, -0.03181036561727524, -0.00483368057757616, -0.032240789383649826, -0.017760463058948517, -0.06235921382904053, -0.04254379868507385, -0.023936262354254723, -0.006275319028645754, -0.026644527912139893, 0.01712070405483246, 0.02632248029112816, 0.012271693907678127, -0.01547879446297884, 0.02143573760986328, 0.009604000486433506, -0.014949575997889042, -0.0004533920728135854, -0.02997731603682041, 0.005295921117067337, -0.026001211255788803, 0.02693049982190132, 0.006289776414632797, -0.025981053709983826, 0.019131869077682495, 0.02641913667321205, 0.018576353788375854, 0.013312769122421741, 0.013126418925821781, -0.03603750094771385, -0.027972253039479256, -0.06896155327558517, -0.09620924293994904, -0.18523626029491425, -0.21976709365844727, -0.16057273745536804, -0.16865837574005127, -0.20846936106681824, -0.1714058667421341, -0.12225399166345596, -0.1658436805009842, -0.18698865175247192, -0.18854328989982605, -0.10994784533977509, -0.07024848461151123, -0.06916701048612595, -0.01916159875690937, -0.0028491318225860596, -0.007612206973135471, -0.004790971055626869, 0.0024561621248722076, 0.018907781690359116, 0.0150923952460289, 0.00019568462448660284, 0.03261273726820946, -0.022481946274638176, -0.005963985808193684, -0.05357326194643974, -0.0637499988079071, -0.1716594099998474, -0.1992308795452118, -0.26040181517601013, -0.2074204534292221, -0.09571413695812225, -0.1163795068860054, -0.10855305939912796, -0.04197772592306137, -0.03572464734315872, -0.12722931802272797, -0.25920742750167847, -0.25349539518356323, -0.27803972363471985, -0.24369066953659058, -0.21540114283561707, -0.1387501209974289, -0.07212924212217331, 0.03150934725999832, -0.004547436721622944, 0.02678278461098671, 0.0047081708908081055, 0.016806501895189285, -0.014588908292353153, -0.0010494820307940245, -0.022072680294513702, 0.023079214617609978, 0.022892620414495468, 0.02578534185886383, -0.03409393131732941, -0.048217225819826126, 0.0019230622565373778, 0.09305699169635773, 0.020694930106401443, 0.06999771296977997, -0.05662848800420761, 0.017710253596305847, 0.024992775171995163, 0.054136861115694046, 0.108525849878788, 0.11878668516874313, 0.03629262372851372, 0.025363316759467125, -0.05686616897583008, -0.07742495089769363, -0.025648461654782295, -0.024273600429296494, 0.026025669649243355, 0.02847837656736374, 0.015163052827119827, 0.03380570188164711, -0.03501282259821892, 0.025724515318870544, 0.05480393394827843, 0.13538943231105804, 0.1699686348438263, 0.16836032271385193, 0.16258738934993744, 0.16156260669231415, 0.07310964912176132, 0.00609614560380578, -0.13816383481025696, -0.06426465511322021, -0.11234802007675171, -0.058508072048425674, -0.0646461695432663, -0.15394563972949982, 0.03146612271666527, -0.028622383251786232, -0.022907894104719162, 0.07694448530673981, 0.09166271239519119, 0.029116658493876457, 0.019931267946958542, -0.0333346463739872, 0.015242941677570343, -0.022626085206866264, -0.03408367931842804, -0.035381656140089035, 0.004933299962431192, 0.06271514296531677, 0.14682821929454803, 0.19037728011608124, 0.2637113630771637, 0.15121816098690033, 0.1484961360692978, 0.1061699166893959, 0.14592990279197693, 0.05291954427957535, -0.017599284648895264, 0.012696716003119946, 0.010010330006480217, -0.052988070994615555, 0.02572375163435936, -0.01854673959314823, 0.0447547473013401, -0.08119610697031021, -0.0012455559335649014, 0.07242488861083984, 0.03304627537727356, -0.1283150315284729, -0.09024859219789505, -0.032053351402282715, 0.0368412509560585, 0.011472666636109352, -0.01687009446322918, 0.0011594449169933796, 0.024516938254237175, 0.13642749190330505, 0.18174664676189423, 0.27856478095054626, 0.24920323491096497, 0.12282110005617142, -0.004305818118155003, 0.12334068864583969, 0.06983625888824463, 0.07293686270713806, 0.030772985890507698, -0.013670701533555984, -0.0499836802482605, -0.20064222812652588, -0.07230765372514725, 0.0730331763625145, 0.054638754576444626, 0.1396985501050949, 0.1022627204656601, 0.021487727761268616, 0.023684030398726463, -0.11087525635957718, -0.1998412162065506, -0.006079861894249916, 0.036492664366960526, -0.00850657932460308, -0.005275757517665625, 0.03381863608956337, 0.02856259234249592, 0.13303762674331665, 0.2565053701400757, 0.24633407592773438, 0.08171144872903824, 0.0627107322216034, -0.011022791266441345, -0.059963442385196686, 0.030041810125112534, 0.0283796526491642, -0.001079946174286306, -0.08361504971981049, 0.00791611522436142, 0.020653100684285164, -0.03227756917476654, 0.1634104996919632, 0.17146320641040802, 0.13072043657302856, 0.14686135947704315, -0.012434377335011959, 0.07917848229408264, -0.13601647317409515, -0.23698405921459198, -0.04862133413553238, -0.019067678600549698, 0.0240279883146286, 0.028897138312458992, 0.004252329934388399, 0.056317251175642014, 0.18377503752708435, 0.29568105936050415, 0.12394597381353378, -0.0009487190400250256, -0.012636379338800907, -0.047829993069171906, -0.06448458135128021, -0.10688035190105438, -0.09451552480459213, -0.04424136132001877, 0.031743455678224564, 0.16662070155143738, 0.28535544872283936, 0.23473277688026428, 0.10359373688697815, 0.1048928052186966, 0.048011522740125656, 0.04539351910352707, 0.06546817719936371, 0.04188396409153938, -0.10724079608917236, -0.15656572580337524, -0.015821730718016624, 0.02802470698952675, 0.0433008186519146, -0.0061777145601809025, 0.0514414981007576, 0.048697084188461304, 0.24966073036193848, 0.1679808348417282, 0.06033340096473694, -0.10753345489501953, -0.053842537105083466, -0.10093503445386887, -0.1107361763715744, -0.19686441123485565, -0.28158921003341675, -0.2544369101524353, 0.09319380670785904, 0.43188127875328064, 0.493399441242218, 0.31566449999809265, 0.1556764543056488, 0.062095750123262405, 0.1010732650756836, 0.12636299431324005, 0.10641440004110336, 0.08951135724782944, -0.11947313696146011, -0.11336991935968399, 0.06640100479125977, 0.0379519946873188, -0.006914959754794836, -0.001758983125910163, 0.030772386118769646, 0.14079397916793823, 0.2073494791984558, 0.15106721222400665, -0.07787889242172241, -0.10511868447065353, -0.16087014973163605, -0.24257726967334747, -0.23633678257465363, -0.21314498782157898, -0.17336295545101166, -0.12021979689598083, -0.07903163880109787, 0.1724463403224945, 0.3349006474018097, 0.13408738374710083, 0.0999680757522583, 0.08331181108951569, -0.031654588878154755, -0.07893738895654678, -0.0811893418431282, -0.14441680908203125, -0.31614720821380615, -0.1989150196313858, 0.005111169535666704, -0.005304589867591858, 0.02007383294403553, -0.004619620740413666, 0.04682266712188721, 0.07087688893079758, 0.15414023399353027, 0.04481319338083267, -0.12385006994009018, -0.1706334352493286, -0.04852161556482315, -0.06530580669641495, -0.18862709403038025, -0.06262553483247757, -0.07199186086654663, -0.1187419518828392, -0.24192556738853455, 0.07058543711900711, 0.04673599824309349, 0.033969368785619736, -0.04505271092057228, -0.02665502205491066, -0.1630730777978897, -0.2598266005516052, -0.3355468809604645, -0.41234058141708374, -0.4720783829689026, -0.2549677789211273, 0.042997535318136215, 0.044985082000494, -0.01756511814892292, -0.022776825353503227, 0.04353533312678337, 0.03637680783867836, 0.04656510427594185, 0.003047688165679574, -0.17461779713630676, -0.1383552849292755, -0.10237828642129898, -0.07774558663368225, -0.07352345436811447, 0.02367302216589451, -0.10397916287183762, -0.2025565803050995, -0.2273358851671219, -0.01300027035176754, -0.20875674486160278, -0.07431488484144211, 0.015581971034407616, -0.05035766586661339, -0.2239166796207428, -0.11934409290552139, -0.23414433002471924, -0.3367004692554474, -0.36614465713500977, -0.13586300611495972, 0.06267205625772476, 0.047757700085639954, -0.00878895539790392, -0.03064815141260624, 0.009698241949081421, 0.03401299566030502, 0.05058498680591583, -0.04064521938562393, -0.12846975028514862, -0.2062457650899887, -0.09809218347072601, -0.037710051983594894, -0.050249986350536346, -0.03798826038837433, -0.3262738883495331, -0.16854539513587952, -0.3032907545566559, -0.09886272996664047, -0.04456869140267372, -0.0870654508471489, -0.053975753486156464, 0.13263779878616333, 0.1340770125389099, 0.1232662945985794, 0.0729871541261673, -0.02165491320192814, -0.09141906350851059, -0.07929860800504684, 0.03305734321475029, 0.040022678673267365, 0.021268330514431, -0.007176775019615889, -0.008163589984178543, -0.008008266799151897, 0.04317055270075798, 0.008476165123283863, -0.021072229370474815, -0.06127550080418587, -0.13839992880821228, -0.14650245010852814, -0.08821466565132141, -0.1713624745607376, -0.14595362544059753, -0.15848396718502045, -0.20554371178150177, -0.038214750587940216, -0.025563769042491913, -0.12266948819160461, 0.009792421013116837, 0.1688823699951172, 0.23549309372901917, 0.2612186670303345, 0.18745625019073486, 0.15684637427330017, 0.02959558367729187, 0.052397701889276505, 0.023158272728323936, 0.059689633548259735, 0.008212599903345108, 0.016744868829846382, -0.0050462763756513596, 0.009715689346194267, 0.08249026536941528, 0.13454793393611908, 0.06252437084913254, -0.042325664311647415, -0.1603870540857315, -0.25614675879478455, -0.2932190001010895, -0.29907625913619995, -0.2868526875972748, -0.2010706663131714, -0.11131726950407028, 0.035850659012794495, -0.10025689750909805, -0.1599792093038559, 0.015723595395684242, 0.16256704926490784, 0.34382525086402893, 0.2812272310256958, 0.35377785563468933, 0.18884539604187012, 0.08296194672584534, 0.07036766409873962, 0.031472429633140564, 0.04454005882143974, 0.04061207175254822, -0.003290615975856781, 0.02552841790020466, 0.020771121606230736, 0.1225695013999939, 0.25719916820526123, 0.12143223732709885, 0.06945668905973434, -0.13703399896621704, -0.2827197313308716, -0.3633386492729187, -0.38795992732048035, -0.44689884781837463, -0.346165269613266, -0.15764321386814117, 0.024555647745728493, -0.05129523575305939, -0.0869675874710083, 0.09464583545923233, 0.15031512081623077, 0.16107594966888428, 0.08394725620746613, 0.22480666637420654, 0.1427886188030243, 0.09420953691005707, 0.1093631163239479, 0.07724159210920334, 0.01634245365858078, 0.03560642525553703, 0.016158806160092354, -0.029060613363981247, -0.013673744164407253, 0.11656811088323593, 0.2525729537010193, 0.22137172520160675, 0.029815947636961937, -0.11539401859045029, -0.17789000272750854, -0.3465709686279297, -0.5070037841796875, -0.44892391562461853, -0.35323846340179443, 0.018537672236561775, 0.04876268655061722, 0.03664442151784897, 0.09245076030492783, 0.10203133523464203, 0.08329544216394424, 0.059595413506031036, 0.037594474852085114, 0.15739326179027557, 0.04443822801113129, 0.03298860788345337, 0.09038688987493515, 0.06835576146841049, -0.009522813372313976, 0.0014529036125168204, 0.028507176786661148, 0.011121685616672039, 0.019369982182979584, 0.16958314180374146, 0.2760177552700043, 0.124069444835186, 0.009448491036891937, -0.07840295135974884, -0.18577995896339417, -0.11178097128868103, -0.3311879336833954, -0.245075061917305, -0.21368923783302307, 0.07783074676990509, 0.051469333469867706, -0.005747465882450342, -0.02458762936294079, 0.05938903987407684, 0.0008992335642687976, 0.022644497454166412, -0.05730124190449715, -0.008155505172908306, -0.08096790313720703, -0.0001384937495458871, 0.10425854474306107, 0.09170325100421906, 0.05808830261230469, 0.0005448547308333218, -0.0047601982951164246, 0.03505966067314148, 0.04545914754271507, 0.15580444037914276, 0.22566194832324982, 0.017048396170139313, -0.02339337207376957, -0.07238990813493729, 0.0014890816528350115, 0.025996197015047073, -0.0775766521692276, 0.06475919485092163, -0.06240754574537277, -0.02878633886575699, 0.09033171832561493, -0.06657219678163528, 0.0900111272931099, 0.10097309201955795, 0.009549815207719803, -0.039440054446458817, -0.023555753752589226, -0.08729039132595062, -0.13494405150413513, -0.02991611510515213, 0.04268810153007507, 0.04628773778676987, -0.010914684273302555, -0.020588820800185204, -0.008129465393722057, 0.006434828508645296, -0.006513635627925396, 0.10905981808900833, 0.10797502845525742, 0.015174081549048424, -0.08871329575777054, -0.1091635599732399, 0.043572258204221725, -0.025979438796639442, 0.044398047029972076, 0.012016487307846546, 0.010974805802106857, -0.044318534433841705, -0.003783908672630787, 0.018458792939782143, 0.03483577072620392, -0.04551029950380325, -0.06943325698375702, -0.023086991161108017, -0.07096805423498154, -0.0668230950832367, -0.11743123829364777, -0.034339677542448044, 0.03960109129548073, 0.026379195973277092, 0.021277330815792084, 0.028882328420877457, 0.030535701662302017, -0.007332917768508196, 0.03193570673465729, 0.034351520240306854, 0.07814032584428787, 0.13363300263881683, 0.010324900969862938, 0.04874654859304428, 0.048896025866270065, 0.0769505500793457, -0.00021147420920897275, -0.08501647412776947, -0.1343793123960495, -0.1493915319442749, -0.021795451641082764, 0.09104476869106293, 0.019581390544772148, -0.019550763070583344, -0.002864083042368293, 0.05136781558394432, -0.08006355166435242, -0.1608307957649231, -0.09557775408029556, -0.063217394053936, -0.02514369785785675, 0.025194771587848663, -0.0020144167356193066, 0.013723642565310001, 0.026919309049844742, -0.011565715074539185, -0.03671538457274437, 0.0468456968665123, 0.11856627464294434, 0.2650003433227539, 0.28934812545776367, 0.252369225025177, -0.05862755700945854, 0.062810979783535, 0.06138359382748604, -0.039626240730285645, -0.14671339094638824, -0.1922268569469452, -0.17449375987052917, -0.11341346055269241, -0.16550767421722412, -0.0353667177259922, -0.0661812499165535, -0.15400618314743042, -0.2810129225254059, -0.2560831904411316, -0.21539370715618134, -0.18106476962566376, -0.0120273781940341, 0.00038668428896926343, 0.042827703058719635, 0.004519574344158173, -0.0018725097179412842, 0.02980024740099907, -0.013134517706930637, 0.030874015763401985, 0.1115415096282959, 0.2759460508823395, 0.3212977945804596, 0.2300088256597519, 0.09231948107481003, 0.13007214665412903, 0.09831351786851883, 0.018136827275156975, 0.039035551249980927, 0.03606129810214043, 0.05610143020749092, 0.004190960433334112, -0.11476372182369232, -0.07775095105171204, -0.23294271528720856, -0.3360567092895508, -0.32945331931114197, -0.30150023102760315, -0.2139194756746292, -0.1201474666595459, -0.01509872917085886, -0.0098270857706666, -0.02319495566189289, 0.0053094252943992615, 0.006628870964050293, 0.018756203353405, -0.020717499777674675, -0.010993115603923798, 0.05623875558376312, 0.1054634302854538, 0.07127035409212112, 0.1670491099357605, 0.22704611718654633, 0.26475146412849426, 0.1672983467578888, 0.265506386756897, 0.30282750725746155, 0.2529609203338623, 0.09938773512840271, 0.059087544679641724, -0.02990585006773472, -0.16976189613342285, -0.21686150133609772, -0.29381921887397766, -0.4136669337749481, -0.2943006753921509, -0.08745169639587402, -0.07371765375137329, 0.03146073967218399, -0.0029722850304096937, 0.027125531807541847, -0.014140274375677109, -0.03385918587446213, 0.031783368438482285, 0.0205877423286438, 0.012626009061932564, 0.01619884930551052, -0.020595239475369453, 0.002943179337307811, 0.04964318126440048, 0.0664292424917221, 0.02415129356086254, 0.02792724035680294, -0.004372773226350546, -0.10285116732120514, -0.06473860889673233, -0.08797299861907959, 0.025909824296832085, 0.016192015260457993, -0.0273931622505188, -0.05433878302574158, -0.060516323894262314, -0.11558438092470169, -0.10320530086755753, -0.035120557993650436, -0.014417648315429688, -0.023205813020467758, -0.021997278556227684, -0.020117321982979774, 0.028807926923036575, -0.008830223232507706, -0.020511683076620102, -0.029146626591682434, 0.012610964477062225, -0.0103295361623168, -0.02177216112613678, 0.026281069964170456, -0.0006971360999159515, -0.009720581583678722, 0.04384733736515045, 0.027048233896493912, 0.010763779282569885, 0.06323511898517609, 0.05841879919171333, 0.06286777555942535, 0.03624577447772026, 0.06504978984594345, 0.06120922416448593, 0.028799396008253098, 0.021446509286761284, -0.020755870267748833, -0.010576863773167133, -0.02155008353292942, 0.030855702236294746, 0.011999502778053284, -0.018346378579735756, 0.025925200432538986, -0.013665502890944481], [0.026183273643255234, -0.027901548892259598, -0.031945593655109406, -0.018573898822069168, 0.01342599093914032, 0.0014124400913715363, -0.025963937863707542, -0.02863263711333275, -0.0031215623021125793, -0.027800530195236206, -0.03426002338528633, 0.020793460309505463, 0.0325801782310009, -0.003991043195128441, -0.03386034816503525, -0.01105787418782711, -0.010104695335030556, -0.024158969521522522, -0.016783548519015312, 0.024883534759283066, 0.028332825750112534, -0.01571929082274437, 0.009389638900756836, 0.005979694426059723, 0.0046448782086372375, 0.018482983112335205, 0.034719068557024, -0.012700388208031654, -0.0038224197924137115, 0.015621624886989594, -0.02476567029953003, -0.026372186839580536, 0.02896016836166382, 0.026953430846333504, -0.0007769029471091926, 0.045412126928567886, 0.022935133427381516, 0.009219554252922535, 0.005574818234890699, 0.0265731792896986, 0.06710954755544662, 0.04350128769874573, 0.010789229534566402, 0.03045050799846649, 0.06696733832359314, 0.05309852585196495, 0.009593497030436993, -0.020853133872151375, -0.0295566413551569, -0.030915642157197, -0.01873287744820118, 0.023976776748895645, 0.034415218979120255, 0.009115688502788544, 0.028214868158102036, -0.026243120431900024, 0.0250040702521801, -0.013297712430357933, -0.035491615533828735, -0.0289340578019619, -0.02300362102687359, -0.001423842622898519, -0.01057160273194313, 0.02128434367477894, 0.058288853615522385, 0.007354645989835262, 0.0519961379468441, 0.05392191559076309, 0.08739171922206879, 0.05694087967276573, -0.01549075823277235, -0.04419320076704025, -0.03100181184709072, -0.013986518606543541, 0.010978548787534237, 0.027621237561106682, 0.01879045180976391, 0.03390811011195183, 0.012488476000726223, 0.02849535085260868, -0.0014864410040900111, 0.03230227902531624, -0.018706459552049637, 0.013280685991048813, 0.02637314423918724, 0.005564149469137192, 0.00398786598816514, -0.02796713076531887, 0.007357994560152292, -0.0026620428543537855, -0.02309812791645527, -0.01688230223953724, 0.03980737924575806, 0.05009759962558746, 0.09991849958896637, 0.15630224347114563, 0.14089244604110718, 0.17661906778812408, 0.10212267935276031, 0.1139616146683693, 0.05075414851307869, 0.07588587701320648, 0.02118200995028019, -0.022912852466106415, 0.0040919044986367226, 0.008785844780504704, -0.017435364425182343, -0.030008165165781975, -0.00446956604719162, -0.00496474327519536, 0.02604750730097294, 0.017060812562704086, -0.021900102496147156, 0.03532477095723152, 0.026763342320919037, -0.020593853667378426, -0.03172700107097626, 0.011232506483793259, -0.008907119743525982, 0.028804220259189606, 0.05955491587519646, 0.051975104957818985, 0.20364035665988922, 0.25031062960624695, 0.20347848534584045, 0.1870584487915039, 0.16222123801708221, 0.23642554879188538, 0.15166175365447998, 0.08046018332242966, 0.1262584924697876, -0.0489356629550457, -0.1294911503791809, -0.07382307201623917, -0.07663524150848389, -0.08285971730947495, 0.01931258663535118, 0.07519844174385071, 0.020537277683615685, -0.030903702601790428, 0.021861817687749863, 0.030666742473840714, 0.01580747775733471, 0.02513706684112549, -0.00493529811501503, -0.08141261339187622, -0.07892506569623947, 0.00022591135348193347, 0.03751616179943085, 0.04791851341724396, 0.192956805229187, 0.15617196261882782, 0.04231012240052223, 0.037852853536605835, 0.025925790891051292, 0.024532245472073555, 0.13575319945812225, 0.18411582708358765, 0.09459839761257172, 0.037159789353609085, 0.07054673135280609, 0.00801378209143877, 0.018535731360316277, -0.02202264964580536, 0.06083964928984642, 0.11021406203508377, 0.005623714532703161, -0.025362199172377586, -0.009155644103884697, -0.0347459577023983, -0.001641476177610457, 0.03383820131421089, -0.023628031834959984, -0.021989542990922928, -0.013560858555138111, -0.002254646271467209, 0.030841674655675888, 0.05587972328066826, 0.07206837832927704, 0.07469002902507782, 0.09813840687274933, 0.07374308258295059, 0.06497013568878174, 0.004807591903954744, 0.048133864998817444, 0.053216055035591125, 0.10436428338289261, 0.06806877255439758, 0.0777222290635109, 0.08510313183069229, 0.1256600320339203, 0.12768523395061493, 0.27198147773742676, 0.2000032216310501, 0.06757890433073044, 0.034321002662181854, -0.0314745157957077, 0.037935853004455566, 0.006376045756042004, -0.032806966453790665, -0.05891932174563408, 0.031170934438705444, 0.017614414915442467, 0.029936209321022034, 0.09067348390817642, 0.01313746813684702, 0.13894084095954895, 0.09739614278078079, 0.03417104110121727, 0.03742298483848572, 0.09909973293542862, -0.010883777402341366, 0.005670849699527025, 0.06515571475028992, 0.1021488606929779, 0.01347392424941063, -0.020349454134702682, 0.009639326483011246, 0.04099583998322487, 0.22649332880973816, 0.40202954411506653, 0.3059422969818115, 0.023893848061561584, -0.02057633362710476, -0.012422654777765274, -0.0013890593545511365, 0.01103312335908413, -0.0378655306994915, -0.025052886456251144, 0.00885563064366579, -0.007137651555240154, -0.04966463893651962, -0.0025611426681280136, -0.004433247726410627, 0.05839671567082405, 0.06547379493713379, 0.0906674861907959, 0.015878045931458473, 0.0861242488026619, 0.0752943605184555, 0.15155252814292908, 0.022620422765612602, -0.009519665502011776, 0.07888831943273544, 0.09041526913642883, 0.01579321175813675, 0.04351013898849487, 0.31894832849502563, 0.5079755187034607, 0.3741462528705597, 0.09258212894201279, 0.031709473580121994, 0.004284812603145838, 0.010679439641535282, -0.04074224457144737, 0.0019501450005918741, -0.05249933898448944, -0.024110274389386177, -0.009933913126587868, -0.042355071753263474, 0.008793014101684093, 0.013717859983444214, 0.04138312116265297, 0.00455865915864706, -0.009469501674175262, 0.0008077282691374421, -0.07665807753801346, -0.11264228820800781, -0.03669102117419243, -0.06138896569609642, -0.029056688770651817, 0.02206428349018097, 0.019555043429136276, 0.03993785008788109, 0.10835794359445572, 0.4623563885688782, 0.7215492725372314, 0.499158650636673, 0.12766490876674652, 0.031019240617752075, -0.020097684115171432, -0.030393408611416817, 0.011057850904762745, 0.014175884425640106, -0.02290687896311283, -0.008318327367305756, -0.03921561688184738, -0.013177447021007538, 0.043717801570892334, 0.009376972913742065, 0.03172847256064415, 0.0840727686882019, 0.04485730826854706, 0.12011270225048065, 0.045345574617385864, -0.18412071466445923, -0.0307841245085001, -0.05302026867866516, -0.020442087203264236, -0.0658857524394989, 0.07615083456039429, -0.02981581725180149, 0.028665801510214806, 0.5009114742279053, 0.7065189480781555, 0.4404258728027344, 0.09555323421955109, -0.015476140193641186, -0.01718517579138279, -0.0137032987549901, -0.02372705563902855, 0.006832280661910772, -0.04356548935174942, -0.12382422387599945, -0.015486465767025948, -0.02124135196208954, -0.014925416558980942, -0.0245225690305233, -0.09299540519714355, 0.014888164587318897, -0.017998404800891876, 0.18215595185756683, -0.20172369480133057, -0.4313214123249054, -0.27890920639038086, -0.17037618160247803, -0.22524186968803406, -0.09616391360759735, -0.16465157270431519, -0.19398678839206696, -0.15311738848686218, 0.2899884283542633, 0.414201945066452, 0.27832871675491333, 0.09926070272922516, -0.018786339089274406, -0.004919820465147495, 0.02763272076845169, -0.00752335274592042, -0.039651334285736084, -0.11648498475551605, -0.11526309698820114, -0.014558296650648117, -0.09279690682888031, -0.1975068598985672, -0.07014791667461395, -0.012516357004642487, -0.005432754755020142, 0.20157945156097412, 0.21042373776435852, -0.16777336597442627, -0.3292894959449768, -0.23420235514640808, -0.142471581697464, -0.1911720335483551, -0.18156544864177704, -0.13639943301677704, -0.3058242201805115, -0.22725427150726318, 0.021012919023633003, 0.20401179790496826, 0.09136100113391876, 0.07683039456605911, -0.03473267704248428, 0.0040564388036727905, -0.014771386981010437, -0.0044151609763503075, -0.030148062855005264, -0.12172844260931015, -0.09382122755050659, -0.10812181234359741, -0.03381524607539177, -0.08829165250062943, -0.060291748493909836, -0.045617032796144485, 0.16004633903503418, 0.39556485414505005, 0.19166696071624756, -0.27340883016586304, -0.342088520526886, -0.25833356380462646, -0.23889319598674774, -0.10323849320411682, -0.12081500142812729, -0.1947721391916275, -0.2574371099472046, -0.14693480730056763, 0.08989577740430832, 0.16804546117782593, 0.08949419856071472, 0.07133800536394119, 0.020651327446103096, 0.01832728646695614, 0.013579516671597958, 0.023329991847276688, -0.05772753432393074, -0.1639164388179779, -0.09357011318206787, -0.11967141181230545, -0.06671097874641418, -0.0012008585035800934, 0.006714673712849617, 0.0869700163602829, 0.1586001068353653, 0.20761695504188538, 0.01698356308043003, -0.30206844210624695, -0.2263927310705185, -0.20007385313510895, -0.2721620500087738, -0.17264872789382935, -0.331765741109848, -0.1620296686887741, -0.019306596368551254, -0.09511017799377441, 0.11897199600934982, 0.1559905856847763, 0.04687192663550377, -0.017383979633450508, -0.03308117017149925, -0.020739413797855377, 0.02690804935991764, 0.019971584901213646, -0.02987166866660118, -0.024415018036961555, -0.002273818012326956, -0.1519167572259903, -0.035510048270225525, 0.015870051458477974, 0.08977124094963074, 0.10519341379404068, -0.004818435292690992, 0.11190716922283173, -0.0821046382188797, -0.3212689459323883, -0.17983108758926392, -0.1820412427186966, -0.34608903527259827, -0.12288794666528702, -0.13164712488651276, -0.042080339044332504, -0.014003300108015537, -0.08311902731657028, 0.14594890177249908, 0.22674091160297394, 0.05659503862261772, -0.021618254482746124, -0.01464599184691906, -0.0004296412516850978, 0.01946660317480564, 0.04775291308760643, 0.06445186585187912, 0.06396692246198654, 0.03977915272116661, -0.04425278306007385, -0.12136895209550858, -0.14886529743671417, -0.04842963442206383, 0.013153774663805962, 0.05802973359823227, -0.03639376908540726, -0.17917852103710175, -0.2804856598377228, -0.20006029307842255, -0.24100574851036072, -0.14248734712600708, 0.008206595666706562, 0.06612912565469742, 0.02011140063405037, 0.0012612901628017426, 0.08001121133565903, 0.2060919553041458, 0.2619773745536804, 0.048180483281612396, -0.010012137703597546, -0.013071971014142036, -0.01276923157274723, 0.005863478872925043, 0.011764918453991413, 0.10939332842826843, 0.19828423857688904, 0.20273838937282562, 0.12816058099269867, -0.09858352690935135, -0.12063853442668915, -0.11181582510471344, -0.15618163347244263, -0.10899663716554642, -0.22819823026657104, -0.3942486047744751, -0.38332897424697876, -0.2629978358745575, -0.04311485216021538, 0.10608197748661041, 0.09178990870714188, 0.17035159468650818, 0.07153753936290741, 0.05527521297335625, 0.15679028630256653, 0.17300811409950256, 0.1619495004415512, 0.007117976900190115, 0.01294269971549511, -0.007136359810829163, 0.011408202350139618, -0.027930811047554016, 0.020300062373280525, 0.1651633232831955, 0.18882356584072113, 0.18387743830680847, 0.28192761540412903, 0.10066190361976624, 0.026127614080905914, -0.0661287009716034, 0.013007160276174545, -0.0218920037150383, -0.17651823163032532, -0.2499864399433136, -0.19351792335510254, 0.0319521501660347, 0.09343194216489792, 0.1582697182893753, 0.07810202240943909, 0.10288677364587784, 0.02500692941248417, 0.1420983225107193, 0.28292450308799744, 0.21944281458854675, 0.13920019567012787, 0.03189774975180626, -0.018951261416077614, -0.03125414252281189, 0.023113803938031197, -0.005892714485526085, 0.01748443953692913, 0.14125630259513855, 0.2704375386238098, 0.23737649619579315, 0.2982437014579773, 0.20492342114448547, 0.28275221586227417, 0.1798226684331894, 0.18920733034610748, 0.13783012330532074, 0.2114976942539215, 0.018787387758493423, -0.033321257680654526, 0.10459798574447632, 0.10556528717279434, 0.17206712067127228, 0.18943160772323608, 0.1121998131275177, 0.17353595793247223, 0.19145454466342926, 0.3406361937522888, 0.26398342847824097, 0.12000711262226105, 0.00899423100054264, 0.009982715360820293, 0.0128743015229702, 0.007294423878192902, -0.023181438446044922, 0.06904967129230499, 0.15604355931282043, 0.31689831614494324, 0.3327431082725525, 0.2898128628730774, 0.26369908452033997, 0.2713117301464081, 0.30855339765548706, 0.23447485268115997, 0.184775710105896, 0.16878058016300201, 0.1251891404390335, 0.029622754082083702, 0.16786828637123108, 0.08621622622013092, 0.14967688918113708, 0.1754845529794693, 0.13775570690631866, 0.2274300754070282, 0.24092207849025726, 0.29540491104125977, 0.1804857850074768, -0.011027692817151546, 0.022993559017777443, 0.017649617046117783, -0.026661459356546402, 0.03218609839677811, 0.03684500977396965, 0.0628589615225792, 0.14610926806926727, 0.2721194624900818, 0.1799003928899765, 0.27149343490600586, 0.29196909070014954, 0.15035228431224823, 0.09332802146673203, 0.059086259454488754, 0.1256720870733261, 0.07938525080680847, 0.08094717562198639, 0.0624687522649765, 0.13826578855514526, 0.0808320865035057, 0.09657785296440125, 0.06004439294338226, 0.04060894250869751, 0.1309061348438263, 0.2061849683523178, 0.2324313074350357, 0.07093791663646698, -0.015060419216752052, -0.011496621184051037, 0.010794401168823242, -0.018102819100022316, 0.025831155478954315, 0.006128987297415733, 0.06528832763433456, 0.12128202617168427, 0.14426839351654053, 0.09761619567871094, 0.08002737164497375, 0.0855301022529602, 0.05796213448047638, 0.09638813138008118, 0.02956370636820793, 0.14929521083831787, 0.12442175298929214, 0.2326253056526184, 0.09296304732561111, 0.08904541283845901, 0.14357797801494598, 0.11122117936611176, 0.09555860608816147, 0.12982261180877686, 0.07838906347751617, 0.05255856737494469, 0.08381867408752441, 0.040600959211587906, -0.04710080847144127, 0.03257499635219574, 0.014341624453663826, 0.026364633813500404, -0.020798198878765106, -0.0041121430695056915, 0.02317248098552227, 0.12348540127277374, 0.1306593120098114, 0.05631781741976738, 0.00038589644827879965, 0.01157204620540142, 0.07017762959003448, 0.151085764169693, 0.2228885293006897, 0.2174149453639984, 0.1652078479528427, 0.1569267362356186, 0.13264814019203186, 0.12034711986780167, 0.08659760653972626, 0.0404057577252388, 0.00817056279629469, 0.018783608451485634, -0.025666693225502968, -0.02978258952498436, -0.013725913129746914, 0.015749424695968628, -0.023895515128970146, 0.012780312448740005, -0.014874658547341824, -0.0027578547596931458, -0.017941368743777275, -0.031788475811481476, 0.03390343859791756, 0.05650659650564194, 0.07044714689254761, -0.03199172019958496, 0.028249453753232956, 0.07560176402330399, 0.13685521483421326, 0.22787818312644958, 0.15208345651626587, 0.15898694097995758, 0.244026318192482, 0.28098949790000916, 0.22301830351352692, 0.17046035826206207, 0.14534991979599, 0.09738415479660034, 0.030360382050275803, -0.07322429120540619, -0.1278962343931198, -0.1328635811805725, -0.011767874471843243, -0.00892773736268282, 0.045100677758455276, 0.005077552981674671, -0.02687215991318226, -0.007953129708766937, 0.02104087918996811, -0.008866770192980766, 0.01811472699046135, 0.01063750870525837, -0.04020507633686066, -0.05093143507838249, -0.0274348184466362, 0.025129571557044983, 0.08024332672357559, 0.06783214211463928, 0.1384904533624649, 0.14199036359786987, 0.13399465382099152, 0.11060770601034164, 0.027805669233202934, 0.09370239078998566, 0.11803161352872849, 0.12088734656572342, 0.03531186282634735, 0.02275310456752777, -0.08641964197158813, -0.009646336548030376, 0.00356842833571136, 0.0004093624302186072, 0.050773534923791885, -0.010446431115269661, -0.004856404382735491, -0.030110176652669907, -0.009555859491229057, -0.014680033549666405, 0.009161241352558136, -0.008202415890991688, -0.027407104149460793, -0.06191683188080788, -0.06573987752199173, -0.059874359518289566, -0.10753264278173447, -0.16551367938518524, -0.06377435475587845, -0.011082840152084827, 0.01354648545384407, -0.08350174874067307, -0.0815391093492508, -0.040699250996112823, -0.021226659417152405, -0.04558265209197998, -0.041318390518426895, -0.0266067273914814, 0.022156158462166786, 0.014715625904500484, 0.0214131698012352, 0.019278790801763535, 0.014768763445317745, -0.008942007087171078, -0.0015858225524425507, -0.021542932838201523, -0.02455752342939377, 0.0017524920403957367, 0.014817431569099426, -0.004162643104791641, -0.023472487926483154, 0.0008636571583338082, 0.013133198954164982, -0.0002467400918249041, -0.014883714728057384, -0.03600555658340454, -0.027578875422477722, 0.024167396128177643, -0.009934020228683949, -0.011828724294900894, -0.05218280851840973, -0.05452844873070717, -0.002620484447106719, -0.0439181923866272, -0.036956943571567535, 0.0276364516466856, 0.014859951101243496, 0.008480586111545563, 0.0001379257155349478, 0.010546301491558552, -0.03556976467370987, 0.026223890483379364, 0.019191186875104904, -0.02411457523703575]]
==================================================
Layer: layerStack.1.bias
Shape: torch.Size([5])
Values:
[0.5280939340591431, 0.2865064740180969, 0.703576385974884, 0.8568775057792664, -0.3715117275714874]
==================================================
Layer: layerStack.2.weight
Shape: torch.Size([10, 5])
Values:
[[0.6806085705757141, -0.6511921882629395, -0.11787643283605576, -0.19627153873443604, 1.0796574354171753], [-0.8840155005455017, 1.0793079137802124, -0.14813315868377686, 0.5537115335464478, -0.44698771834373474], [0.2719101011753082, 0.3456476330757141, -1.3505363464355469, -0.21034540235996246, 0.11279648542404175], [-0.8083211779594421, -0.10731171071529388, -0.26363879442214966, 0.6040439009666443, 0.7698997259140015], [0.575996994972229, 0.3430445194244385, 1.150133490562439, -0.3463861048221588, -1.0889397859573364], [-0.1329868733882904, 0.05476198345422745, 0.6691659092903137, -0.009539189748466015, 1.0777182579040527], [1.0248112678527832, 1.0502541065216064, -0.16673052310943604, -0.6432604789733887, 0.008601187728345394], [0.04036715254187584, -1.269119381904602, 0.020709270611405373, 0.9303004741668701, -1.0909816026687622], [-0.7909603714942932, -0.04589207470417023, -0.06682827323675156, -1.0009167194366455, 0.3534702658653259], [-0.4455549716949463, -0.8921753168106079, 0.42330795526504517, -0.49115169048309326, -0.7081061601638794]]
==================================================
Layer: layerStack.2.bias
Shape: torch.Size([10])
Values:
[-0.9231359362602234, -0.8124775290489197, 0.8348717093467712, 0.8640349507331848, 0.5218685269355774, 0.9937480092048645, -0.39378249645233154, 0.2447502613067627, -0.7273472547531128, 0.1758129894733429]
==================================================
