Layer: conv1.weight
Shape: torch.Size([4, 1, 3, 3])
Values:
[[[['-0.8892938494682312011718750000000', '-1.6732679605484008789062500000000', '-1.1019697189331054687500000000000'], ['0.5656745433807373046875000000000', '-0.7751480937004089355468750000000', '-0.9071238040924072265625000000000'], ['1.5086742639541625976562500000000', '0.9728564023971557617187500000000', '0.0406003817915916442871093750000']]], [[['0.4377738833427429199218750000000', '-0.4008772671222686767578125000000', '-0.5443037152290344238281250000000'], ['0.2930808365345001220703125000000', '0.1566295325756072998046875000000', '0.0205401163548231124877929687500'], ['0.8139649033546447753906250000000', '0.2398339360952377319335937500000', '0.0519801527261734008789062500000']]], [[['-0.4807125926017761230468750000000', '0.4564876258373260498046875000000', '1.5001580715179443359375000000000'], ['-0.1701830923557281494140625000000', '0.9297383427619934082031250000000', '0.4871257841587066650390625000000'], ['0.6329586505889892578125000000000', '0.6760197877883911132812500000000', '-0.4317663311958312988281250000000']]], [[['1.2223106622695922851562500000000', '0.5479108691215515136718750000000', '-0.2352962046861648559570312500000'], ['0.5295677185058593750000000000000', '0.5419632196426391601562500000000', '0.3529878556728363037109375000000'], ['0.3411020934581756591796875000000', '0.6490684747695922851562500000000', '1.1348735094070434570312500000000']]]]
==================================================
Layer: conv1.bias
Shape: torch.Size([4])
Values:
['0.3382874429225921630859375000000', '0.1771013140678405761718750000000', '-0.0605168975889682769775390625000', '-0.9288942813873291015625000000000']
==================================================
Layer: fc1.weight
Shape: torch.Size([64, 256])
Values:
[['-0.0769402384757995605468750000000', '-0.0282625742256641387939453125000', '-0.0153726125136017799377441406250', '-0.0646709725260734558105468750000', '-0.0649900287389755249023437500000', '-0.0196557343006134033203125000000', '0.0221338458359241485595703125000', '-0.0318426862359046936035156250000', '-0.0754110217094421386718750000000', '-0.0714597105979919433593750000000', '-0.0074369511567056179046630859375', '-0.0348556861281394958496093750000', '-0.0701960399746894836425781250000', '-0.0351523905992507934570312500000', '-0.0679911300539970397949218750000', '-0.0856055840849876403808593750000', '0.0205421149730682373046875000000', '-0.0357034802436828613281250000000', '-0.0837086439132690429687500000000', '-0.0132060553878545761108398437500', '-0.0678222179412841796875000000000', '-0.0296364929527044296264648437500', '-0.0239811036735773086547851562500', '-0.0776896178722381591796875000000', '-0.0531137771904468536376953125000', '-0.0022054880391806364059448242188', '-0.0220865830779075622558593750000', '0.0208891071379184722900390625000', '0.0131491990759968757629394531250', '-0.0014922342961654067039489746094', '-0.0191994905471801757812500000000', '-0.0463766455650329589843750000000', '-0.0033832078333944082260131835938', '-0.0533249340951442718505859375000', '0.0054616318084299564361572265625', '-0.0753552988171577453613281250000', '-0.0712238475680351257324218750000', '0.0313567407429218292236328125000', '-0.0456428229808807373046875000000', '-0.0143720498308539390563964843750', '0.0106572927907109260559082031250', '-0.0131896408274769783020019531250', '0.0027702208608388900756835937500', '-0.0196548476815223693847656250000', '0.0142346303910017013549804687500', '-0.0083389822393655776977539062500', '0.0011659662704914808273315429688', '-0.0851242244243621826171875000000', '-0.0676897987723350524902343750000', '-0.0449951961636543273925781250000', '-0.0420333668589591979980468750000', '-0.0291377529501914978027343750000', '-0.0483483150601387023925781250000', '-0.0508577339351177215576171875000', '0.0153958713635802268981933593750', '-0.0775557309389114379882812500000', '-0.0819763988256454467773437500000', '-0.0230538565665483474731445312500', '0.0332206897437572479248046875000', '0.0112413736060261726379394531250', '-0.0271196309477090835571289062500', '-0.0440206639468669891357421875000', '-0.0279352385550737380981445312500', '-0.0772457197308540344238281250000', '-0.0130696911364793777465820312500', '-0.0792917460203170776367187500000', '-0.0050019542686641216278076171875', '0.0285887103527784347534179687500', '-0.0440302081406116485595703125000', '-0.0041564856655895709991455078125', '-0.0590214394032955169677734375000', '-0.0688962712883949279785156250000', '-0.0168052744120359420776367187500', '-0.0635743066668510437011718750000', '-0.0384443588554859161376953125000', '0.0309693701565265655517578125000', '-0.0566054210066795349121093750000', '-0.0787026509642601013183593750000', '-0.0655546709895133972167968750000', '0.0075032622553408145904541015625', '0.0101176323369145393371582031250', '-0.0830617770552635192871093750000', '-0.0186307989060878753662109375000', '0.0237273387610912322998046875000', '-0.0893664434552192687988281250000', '-0.0143732205033302307128906250000', '-0.0041623045690357685089111328125', '-0.0560837537050247192382812500000', '-0.0629084706306457519531250000000', '0.0065917209722101688385009765625', '0.0199576672166585922241210937500', '-0.0070084603503346443176269531250', '-0.0589116774499416351318359375000', '-0.0693189799785614013671875000000', '-0.0500726029276847839355468750000', '0.0187323950231075286865234375000', '-0.0723811537027359008789062500000', '0.0112653169780969619750976562500', '0.0151256779208779335021972656250', '-0.0075043239630758762359619140625', '0.0019794115796685218811035156250', '-0.0443222112953662872314453125000', '-0.0418920554220676422119140625000', '0.0191959198564291000366210937500', '-0.0424160771071910858154296875000', '0.0323507487773895263671875000000', '-0.0335519798099994659423828125000', '-0.0322951264679431915283203125000', '0.0053192041814327239990234375000', '-0.0245086476206779479980468750000', '-0.0786087661981582641601562500000', '0.0257002264261245727539062500000', '-0.0414300002157688140869140625000', '-0.0694992914795875549316406250000', '0.0174478497356176376342773437500', '-0.0037196623161435127258300781250', '0.0238303281366825103759765625000', '-0.0421774275600910186767578125000', '-0.0595274791121482849121093750000', '-0.0243865717202425003051757812500', '-0.0271804165095090866088867187500', '0.0057002892717719078063964843750', '0.0007841440965421497821807861328', '-0.0280076693743467330932617187500', '-0.0558242388069629669189453125000', '-0.0048359860666096210479736328125', '-0.0488208532333374023437500000000', '-0.0190840773284435272216796875000', '0.0479719936847686767578125000000', '-0.0170845761895179748535156250000', '-0.0020547136664390563964843750000', '-0.0219459682703018188476562500000', '0.0324136093258857727050781250000', '0.0295432209968566894531250000000', '-0.0234602913260459899902343750000', '-0.0409947857260704040527343750000', '0.0420082286000251770019531250000', '-0.0012798383831977844238281250000', '0.0424994975328445434570312500000', '0.0129764573648571968078613281250', '-0.0163204893469810485839843750000', '-0.0149963349103927612304687500000', '0.0370077118277549743652343750000', '-0.0512423142790794372558593750000', '-0.0123214498162269592285156250000', '-0.0581998676061630249023437500000', '0.0225625932216644287109375000000', '-0.0279199965298175811767578125000', '0.0017063277773559093475341796875', '-0.0685815066099166870117187500000', '-0.0258262306451797485351562500000', '-0.0420096144080162048339843750000', '-0.0624216347932815551757812500000', '-0.0403416305780410766601562500000', '-0.0328227207064628601074218750000', '-0.0159080084413290023803710937500', '-0.0416408441960811614990234375000', '-0.0650560334324836730957031250000', '-0.0415521711111068725585937500000', '0.0322263538837432861328125000000', '-0.0226582959294319152832031250000', '-0.0213447511196136474609375000000', '0.0056815291754901409149169921875', '-0.0426648966968059539794921875000', '-0.0614509060978889465332031250000', '0.0104916337877511978149414062500', '0.0527019873261451721191406250000', '0.0134609863162040710449218750000', '-0.0010981410741806030273437500000', '0.0199747607111930847167968750000', '-0.0846446827054023742675781250000', '-0.0433563739061355590820312500000', '-0.0019271811470389366149902343750', '-0.0514757931232452392578125000000', '-0.0592187941074371337890625000000', '0.0233258306980133056640625000000', '0.0093707814812660217285156250000', '0.0517429709434509277343750000000', '-0.0741249620914459228515625000000', '-0.0444307848811149597167968750000', '-0.0293638743460178375244140625000', '-0.0414427891373634338378906250000', '-0.0404365360736846923828125000000', '-0.0375114902853965759277343750000', '-0.0598816573619842529296875000000', '0.0301296636462211608886718750000', '-0.0542384386062622070312500000000', '0.0016448242822661995887756347656', '-0.0464900806546211242675781250000', '0.0276011228561401367187500000000', '0.0075190365314483642578125000000', '0.0039511844515800476074218750000', '-0.0406388938426971435546875000000', '0.0156010389328002929687500000000', '-0.0467960834503173828125000000000', '0.0164710730314254760742187500000', '-0.0184876471757888793945312500000', '-0.0415507927536964416503906250000', '0.0615972056984901428222656250000', '0.0430197641253471374511718750000', '0.0298445150256156921386718750000', '-0.0555981025099754333496093750000', '-0.0264155343174934387207031250000', '0.0035731659736484289169311523438', '-0.0741525664925575256347656250000', '-0.0546934008598327636718750000000', '0.0174077972769737243652343750000', '-0.0453821867704391479492187500000', '0.0135334655642509460449218750000', '0.0568816959857940673828125000000', '-0.0165310576558113098144531250000', '-0.0317973867058753967285156250000', '-0.0449091307818889617919921875000', '-0.0015624612569808959960937500000', '-0.0451755300164222717285156250000', '-0.0465857312083244323730468750000', '0.0504044443368911743164062500000', '0.0009125620126724243164062500000', '-0.0276269912719726562500000000000', '-0.0474902354180812835693359375000', '0.0258904136717319488525390625000', '0.0590975135564804077148437500000', '-0.0508903264999389648437500000000', '0.0156980305910110473632812500000', '-0.0297890827059745788574218750000', '0.0552289262413978576660156250000', '0.0123192025348544120788574218750', '-0.0411519818007946014404296875000', '-0.0337132029235363006591796875000', '0.0348775498569011688232421875000', '0.0431616604328155517578125000000', '-0.0328244492411613464355468750000', '0.0472539961338043212890625000000', '-0.0600934252142906188964843750000', '-0.0180953964591026306152343750000', '-0.0863851979374885559082031250000', '-0.0686552375555038452148437500000', '-0.0513240061700344085693359375000', '0.0445590838789939880371093750000', '-0.0053636357188224792480468750000', '0.0134400874376296997070312500000', '0.0382813289761543273925781250000', '-0.0350695587694644927978515625000', '0.0287460647523403167724609375000', '-0.0885381177067756652832031250000', '0.0239873751997947692871093750000', '0.0439632311463356018066406250000', '0.0025459825992584228515625000000', '-0.0122341141104698181152343750000', '0.0251818746328353881835937500000', '-0.0033473894000053405761718750000', '0.0003245547413825988769531250000', '-0.0514893531799316406250000000000', '0.0081013515591621398925781250000', '-0.0145501643419265747070312500000', '-0.0201565027236938476562500000000'], ['0.0007776789134368300437927246094', '-0.0402357317507266998291015625000', '0.0394357927143573760986328125000', '0.0061219795607030391693115234375', '-0.0386125370860099792480468750000', '-0.0073359441012144088745117187500', '0.0207678135484457015991210937500', '0.0335184447467327117919921875000', '-0.0079922126606106758117675781250', '-0.0659870728850364685058593750000', '-0.0562002994120121002197265625000', '-0.0479215942323207855224609375000', '0.0422140620648860931396484375000', '-0.0214023645967245101928710937500', '-0.0713269039988517761230468750000', '-0.0183077100664377212524414062500', '0.0379275940358638763427734375000', '0.0462927334010601043701171875000', '-0.0171298794448375701904296875000', '-0.0748516917228698730468750000000', '-0.0167869366705417633056640625000', '-0.0115548260509967803955078125000', '-0.0584587454795837402343750000000', '-0.0729680657386779785156250000000', '0.0462985523045063018798828125000', '0.0029679480940103530883789062500', '-0.0715496465563774108886718750000', '0.0343428626656532287597656250000', '-0.0065386118367314338684082031250', '-0.0345876216888427734375000000000', '-0.0252102054655551910400390625000', '-0.0180792082101106643676757812500', '-0.0154434172436594963073730468750', '-0.0049869343638420104980468750000', '0.0080521926283836364746093750000', '-0.0455579161643981933593750000000', '0.0096697611734271049499511718750', '-0.0468980967998504638671875000000', '0.0093471975997090339660644531250', '-0.0533040650188922882080078125000', '-0.0474416054785251617431640625000', '-0.0761656761169433593750000000000', '-0.0228285547345876693725585937500', '-0.0736518204212188720703125000000', '-0.0272538270801305770874023437500', '-0.0711156651377677917480468750000', '0.0465160049498081207275390625000', '-0.0252331718802452087402343750000', '-0.0666406303644180297851562500000', '-0.0682637169957160949707031250000', '-0.0526644475758075714111328125000', '-0.0491912066936492919921875000000', '0.0319852605462074279785156250000', '-0.0715302377939224243164062500000', '-0.0280567873269319534301757812500', '0.0466281138360500335693359375000', '-0.0747023373842239379882812500000', '-0.0274747516959905624389648437500', '-0.0663404092192649841308593750000', '-0.0064491080120205879211425781250', '-0.0218731816858053207397460937500', '-0.0678433403372764587402343750000', '-0.0544535405933856964111328125000', '-0.0719868466258049011230468750000', '-0.0282983668148517608642578125000', '0.0131512098014354705810546875000', '-0.0275383312255144119262695312500', '-0.0691591724753379821777343750000', '-0.0099641801789402961730957031250', '-0.0381825156509876251220703125000', '-0.0277251321822404861450195312500', '-0.0065174908377230167388916015625', '0.0419623181223869323730468750000', '0.0142485480755567550659179687500', '-0.0143387569114565849304199218750', '-0.0425603277981281280517578125000', '-0.0153010310605168342590332031250', '-0.0173763744533061981201171875000', '-0.0373730696737766265869140625000', '-0.0536845922470092773437500000000', '-0.0749280229210853576660156250000', '-0.0212666615843772888183593750000', '-0.0044447733089327812194824218750', '-0.0506908670067787170410156250000', '-0.0754345506429672241210937500000', '-0.0280782897025346755981445312500', '0.0433880276978015899658203125000', '-0.0115618677809834480285644531250', '-0.0158203504979610443115234375000', '-0.0708417519927024841308593750000', '-0.0129407104104757308959960937500', '0.0355888269841670989990234375000', '0.0275393314659595489501953125000', '-0.0752643123269081115722656250000', '-0.0453524775803089141845703125000', '-0.0063300039619207382202148437500', '-0.0079381447285413742065429687500', '-0.0642843171954154968261718750000', '0.0100828940048813819885253906250', '-0.0057134605012834072113037109375', '-0.0247764401137828826904296875000', '-0.0477540604770183563232421875000', '-0.0049820747226476669311523437500', '-0.0036382062826305627822875976562', '0.0233494583517313003540039062500', '0.0207370445132255554199218750000', '-0.0368325151503086090087890625000', '-0.0499283596873283386230468750000', '-0.0422228164970874786376953125000', '0.0255593638867139816284179687500', '-0.0767507553100585937500000000000', '0.0204575881361961364746093750000', '0.0280906111001968383789062500000', '-0.0724608823657035827636718750000', '0.0462154299020767211914062500000', '-0.0083556585013866424560546875000', '-0.0000689290754962712526321411133', '-0.0260694082826375961303710937500', '-0.0062789637595415115356445312500', '0.0184838697314262390136718750000', '0.0292427744716405868530273437500', '-0.0386053211987018585205078125000', '0.0417385064065456390380859375000', '0.0382995083928108215332031250000', '0.0461998172104358673095703125000', '0.0416097231209278106689453125000', '0.0380057133734226226806640625000', '0.0014390215510502457618713378906', '-0.0033227503299713134765625000000', '0.0563372001051902770996093750000', '0.0036083012819290161132812500000', '-0.0414407253265380859375000000000', '-0.0438430756330490112304687500000', '0.0235980004072189331054687500000', '-0.0457306206226348876953125000000', '0.0452984273433685302734375000000', '0.0402584522962570190429687500000', '0.0470912232995033264160156250000', '0.0293123032897710800170898437500', '-0.0139792431145906448364257812500', '0.0371780879795551300048828125000', '-0.0456234402954578399658203125000', '-0.0445201471447944641113281250000', '0.0525182411074638366699218750000', '-0.0550563782453536987304687500000', '-0.0118953529745340347290039062500', '-0.0025612788740545511245727539062', '-0.0607632435858249664306640625000', '-0.0644320249557495117187500000000', '-0.0498606860637664794921875000000', '0.0014699921011924743652343750000', '-0.0373285487294197082519531250000', '0.0444493293762207031250000000000', '-0.0469974055886268615722656250000', '-0.0335647910833358764648437500000', '-0.0743475481867790222167968750000', '-0.0242494214326143264770507812500', '0.0284351259469985961914062500000', '-0.0236958935856819152832031250000', '0.0603759884834289550781250000000', '0.0489149615168571472167968750000', '0.0370168648660182952880859375000', '-0.0138605451211333274841308593750', '0.0212052427232265472412109375000', '-0.0726047381758689880371093750000', '-0.0423071049153804779052734375000', '0.0411472544074058532714843750000', '-0.0547652691602706909179687500000', '0.0294355750083923339843750000000', '-0.0265000611543655395507812500000', '-0.0588181354105472564697265625000', '-0.0276935808360576629638671875000', '-0.0169863980263471603393554687500', '-0.0313426293432712554931640625000', '-0.0402436815202236175537109375000', '0.0254300981760025024414062500000', '0.0155813694000244140625000000000', '0.0130561254918575286865234375000', '-0.0261315051466226577758789062500', '0.0344097875058650970458984375000', '-0.0102914310991764068603515625000', '-0.0216213520616292953491210937500', '-0.0541303828358650207519531250000', '-0.0343077927827835083007812500000', '-0.0012107864022254943847656250000', '-0.0179396588355302810668945312500', '0.0314078740775585174560546875000', '0.0463610291481018066406250000000', '0.0432561784982681274414062500000', '-0.0415719896554946899414062500000', '-0.0563205406069755554199218750000', '0.0062656328082084655761718750000', '0.0008194223046302795410156250000', '0.0195845887064933776855468750000', '-0.0619763210415840148925781250000', '-0.0118206888437271118164062500000', '-0.0141833126544952392578125000000', '0.0455886349081993103027343750000', '-0.0261199548840522766113281250000', '0.0485691279172897338867187500000', '-0.0405185967683792114257812500000', '0.0028768852353096008300781250000', '0.0001790518435882404446601867676', '-0.0566060878336429595947265625000', '0.0370386354625225067138671875000', '-0.0396982133388519287109375000000', '0.0594617053866386413574218750000', '-0.0413547009229660034179687500000', '0.0206692591309547424316406250000', '0.0368226282298564910888671875000', '-0.0180183723568916320800781250000', '0.0212299395352602005004882812500', '-0.0704046487808227539062500000000', '0.0287076681852340698242187500000', '-0.0082705691456794738769531250000', '-0.0355551987886428833007812500000', '0.0353739485144615173339843750000', '0.0443361401557922363281250000000', '-0.0516161285340785980224609375000', '-0.0355075895786285400390625000000', '-0.0356573909521102905273437500000', '0.0120373219251632690429687500000', '-0.0644494518637657165527343750000', '-0.0052922740578651428222656250000', '-0.0249230861663818359375000000000', '0.0445396751165390014648437500000', '0.0049380981363356113433837890625', '-0.0191197525709867477416992187500', '0.0121142892166972160339355468750', '-0.0461790189146995544433593750000', '-0.0341645926237106323242187500000', '0.0112064853310585021972656250000', '-0.0226848870515823364257812500000', '-0.0088456356897950172424316406250', '0.0082794735208153724670410156250', '-0.0751538053154945373535156250000', '0.0000523063099535647779703140259', '-0.0409334003925323486328125000000', '0.0273719560354948043823242187500', '-0.0518429577350616455078125000000', '-0.0075607374310493469238281250000', '0.0322369001805782318115234375000', '-0.0286504924297332763671875000000', '-0.0507978834211826324462890625000', '0.0092144142836332321166992187500', '0.0401920638978481292724609375000', '0.0450578965246677398681640625000', '0.0329081304371356964111328125000', '-0.0107950419187545776367187500000', '0.0160981584340333938598632812500', '-0.0480724535882472991943359375000', '0.0369494892656803131103515625000', '-0.0755509659647941589355468750000', '0.0445305109024047851562500000000', '-0.0388858020305633544921875000000', '-0.0423061028122901916503906250000'], ['0.1402394622564315795898437500000', '0.0443140938878059387207031250000', '-0.1259679347276687622070312500000', '0.0796690061688423156738281250000', '-0.1804707050323486328125000000000', '-0.1209021732211112976074218750000', '-0.0330882780253887176513671875000', '0.0906253904104232788085937500000', '0.2366370558738708496093750000000', '0.0339087136089801788330078125000', '-0.1493346393108367919921875000000', '0.1992677301168441772460937500000', '-0.1562951505184173583984375000000', '0.0378248766064643859863281250000', '-0.2182575762271881103515625000000', '0.2128253877162933349609375000000', '0.2399792522192001342773437500000', '-0.1068260148167610168457031250000', '0.0601017884910106658935546875000', '-0.1414393633604049682617187500000', '0.0832217559218406677246093750000', '-0.0556058846414089202880859375000', '-0.2910564541816711425781250000000', '-0.0153109868988394737243652343750', '0.0698880329728126525878906250000', '0.1833053380250930786132812500000', '0.8441252708435058593750000000000', '-0.1083668991923332214355468750000', '-0.4734140634536743164062500000000', '0.0645946264266967773437500000000', '-0.0658171251416206359863281250000', '-0.3740186691284179687500000000000', '-0.0740443989634513854980468750000', '0.0352212302386760711669921875000', '-0.2387312352657318115234375000000', '-0.0957399979233741760253906250000', '0.0015944497426971793174743652344', '0.0956958830356597900390625000000', '0.1544790714979171752929687500000', '-0.1038635224103927612304687500000', '-0.1791628599166870117187500000000', '-0.0453041456639766693115234375000', '-0.1595858633518218994140625000000', '0.1028773263096809387207031250000', '-0.4521368443965911865234375000000', '-0.7178933024406433105468750000000', '0.1267273128032684326171875000000', '0.0989483818411827087402343750000', '0.2532438337802886962890625000000', '-0.0272274035960435867309570312500', '-0.3518017232418060302734375000000', '0.2020145654678344726562500000000', '0.4588805437088012695312500000000', '-0.0872954204678535461425781250000', '-0.2928589880466461181640625000000', '0.0309232585132122039794921875000', '0.5408817529678344726562500000000', '-0.2832905054092407226562500000000', '-0.3100300431251525878906250000000', '-0.5123023390769958496093750000000', '-0.5629370212554931640625000000000', '0.0317090041935443878173828125000', '0.0375750809907913208007812500000', '-0.1352305412292480468750000000000', '0.1451745033264160156250000000000', '-0.2229183465242385864257812500000', '-0.2216695100069046020507812500000', '-0.0005815021577291190624237060547', '-0.0527078993618488311767578125000', '-0.1416215598583221435546875000000', '0.0410869494080543518066406250000', '0.2166908532381057739257812500000', '0.1417529731988906860351562500000', '-0.0910517722368240356445312500000', '-0.0212296042591333389282226562500', '0.0872668400406837463378906250000', '0.0443936735391616821289062500000', '0.2253840565681457519531250000000', '0.0212001726031303405761718750000', '0.3995316624641418457031250000000', '0.0014012129977345466613769531250', '-0.1847326010465621948242187500000', '0.0208002608269453048706054687500', '0.0030214963480830192565917968750', '0.0295237340033054351806640625000', '0.0908650010824203491210937500000', '0.0801386162638664245605468750000', '0.1200182214379310607910156250000', '-0.0300908274948596954345703125000', '-0.2637893259525299072265625000000', '0.1271334141492843627929687500000', '-0.0682873129844665527343750000000', '-0.0158504303544759750366210937500', '-0.0892828032374382019042968750000', '0.1023324951529502868652343750000', '-0.1383231133222579956054687500000', '-0.1140837967395782470703125000000', '-0.0637409389019012451171875000000', '0.0863063931465148925781250000000', '0.1557593196630477905273437500000', '0.0372599475085735321044921875000', '-0.0518991164863109588623046875000', '0.2278478741645812988281250000000', '-0.0847885310649871826171875000000', '0.0758556798100471496582031250000', '-0.1130921244621276855468750000000', '0.2842904925346374511718750000000', '0.0025616157799959182739257812500', '-0.1009658202528953552246093750000', '-0.0968628451228141784667968750000', '0.3104152381420135498046875000000', '0.1100513264536857604980468750000', '0.0192081481218338012695312500000', '0.0980653911828994750976562500000', '0.0841723158955574035644531250000', '0.2514152824878692626953125000000', '0.2802241146564483642578125000000', '-0.0051157325506210327148437500000', '0.0043557467870414257049560546875', '0.2403369098901748657226562500000', '0.2612127661705017089843750000000', '0.0380145087838172912597656250000', '-0.0246156957000494003295898437500', '-0.0252989139407873153686523437500', '-0.1721148639917373657226562500000', '-0.0056840837933123111724853515625', '0.0365683063864707946777343750000', '0.0565484575927257537841796875000', '0.0342081785202026367187500000000', '-0.1113095879554748535156250000000', '-0.5176721811294555664062500000000', '-0.2022712826728820800781250000000', '-0.2724597454071044921875000000000', '-0.0598792955279350280761718750000', '-0.0256040599197149276733398437500', '-0.1146863400936126708984375000000', '0.3532399237155914306640625000000', '-0.6591969728469848632812500000000', '-0.0426722392439842224121093750000', '0.0798683390021324157714843750000', '-0.2420482635498046875000000000000', '0.1035893559455871582031250000000', '0.1353240460157394409179687500000', '0.5562310218811035156250000000000', '0.1778722256422042846679687500000', '-0.2662875056266784667968750000000', '0.0759350210428237915039062500000', '-0.1882706284523010253906250000000', '0.0088344560936093330383300781250', '-0.0955174863338470458984375000000', '0.1937669664621353149414062500000', '0.5648007988929748535156250000000', '0.2202994972467422485351562500000', '0.0544089786708354949951171875000', '-0.2116739600896835327148437500000', '-0.0029781314078718423843383789062', '0.0380068533122539520263671875000', '-0.2824390530586242675781250000000', '0.2310894578695297241210937500000', '-0.0487693771719932556152343750000', '0.1298945248126983642578125000000', '0.4299721717834472656250000000000', '-0.0172073189169168472290039062500', '0.2191822379827499389648437500000', '0.1233788207173347473144531250000', '-0.2571861445903778076171875000000', '0.0842184722423553466796875000000', '-0.2204625457525253295898437500000', '0.3023010194301605224609375000000', '0.0085693197324872016906738281250', '-0.0387809425592422485351562500000', '0.0399354435503482818603515625000', '0.2041143029928207397460937500000', '0.1445995867252349853515625000000', '0.1841301918029785156250000000000', '0.0514610372483730316162109375000', '0.1626639962196350097656250000000', '0.1894677281379699707031250000000', '-0.0742789581418037414550781250000', '0.2786937952041625976562500000000', '0.1040626168251037597656250000000', '0.0220067612826824188232421875000', '0.0011410271981731057167053222656', '0.2836427390575408935546875000000', '0.0135645642876625061035156250000', '-0.1615613549947738647460937500000', '-0.2744926810264587402343750000000', '-0.1362377405166625976562500000000', '-0.3836541473865509033203125000000', '-0.1806209683418273925781250000000', '-0.2169875800609588623046875000000', '-0.2905932068824768066406250000000', '-0.2834703028202056884765625000000', '0.0953277349472045898437500000000', '0.1831391602754592895507812500000', '-0.0131922950968146324157714843750', '-0.3069501817226409912109375000000', '-0.0714167580008506774902343750000', '0.0531766600906848907470703125000', '0.2001878023147583007812500000000', '0.6364707350730895996093750000000', '0.1700243055820465087890625000000', '-0.3250831961631774902343750000000', '-0.4340621531009674072265625000000', '-0.3205990493297576904296875000000', '0.1612221300601959228515625000000', '-0.0256453342735767364501953125000', '0.5702048540115356445312500000000', '0.1727827787399291992187500000000', '-0.3471676111221313476562500000000', '-0.1448388546705245971679687500000', '-0.1783317476511001586914062500000', '-0.0321317389607429504394531250000', '-0.0443701148033142089843750000000', '0.0731202736496925354003906250000', '0.3756664991378784179687500000000', '0.3184119760990142822265625000000', '-0.3295349478721618652343750000000', '-0.2976430654525756835937500000000', '0.2403269708156585693359375000000', '0.1594726294279098510742187500000', '-0.2222511619329452514648437500000', '-0.0203941576182842254638671875000', '-0.1153541877865791320800781250000', '-0.3618218600749969482421875000000', '-0.0187497362494468688964843750000', '0.0841670259833335876464843750000', '0.4519444704055786132812500000000', '0.3711854815483093261718750000000', '-0.2461712658405303955078125000000', '0.2402854114770889282226562500000', '-0.1513530313968658447265625000000', '-0.0203475188463926315307617187500', '0.0420825965702533721923828125000', '0.4375210702419281005859375000000', '0.1877424716949462890625000000000', '-0.1657073050737380981445312500000', '-0.3148086071014404296875000000000', '0.0006271335296332836151123046875', '0.1955004930496215820312500000000', '0.1144442856311798095703125000000', '-0.0562852770090103149414062500000', '0.1573478728532791137695312500000', '0.3517789244651794433593750000000', '0.1533969342708587646484375000000', '-0.1996299177408218383789062500000', '-0.2900792062282562255859375000000', '0.4995210170745849609375000000000', '0.2438939511775970458984375000000', '0.1369153112173080444335937500000', '-0.0190558712929487228393554687500', '0.1338016241788864135742187500000', '-0.4685780704021453857421875000000', '0.1778820902109146118164062500000', '-0.0449074208736419677734375000000', '-0.3319956958293914794921875000000'], ['0.0335038788616657257080078125000', '0.0049572107382118701934814453125', '-0.0015421659918501973152160644531', '-0.0484920181334018707275390625000', '-0.0362884476780891418457031250000', '-0.0482330136001110076904296875000', '-0.0343911871314048767089843750000', '-0.0644266679883003234863281250000', '-0.0439192354679107666015625000000', '-0.0197224672883749008178710937500', '0.0303447507321834564208984375000', '-0.0647602528333663940429687500000', '-0.0875008553266525268554687500000', '-0.0663442164659500122070312500000', '-0.0658413097262382507324218750000', '0.0248514916747808456420898437500', '-0.0413606688380241394042968750000', '-0.0650418028235435485839843750000', '0.0100293103605508804321289062500', '-0.0534097440540790557861328125000', '-0.0808359235525131225585937500000', '0.0040546245872974395751953125000', '-0.0559991560876369476318359375000', '0.0230568181723356246948242187500', '-0.0044412319548428058624267578125', '-0.0127433268353343009948730468750', '-0.0583794191479682922363281250000', '-0.0074275904335081577301025390625', '-0.0853639021515846252441406250000', '0.0233426894992589950561523437500', '-0.0290599651634693145751953125000', '-0.0580668151378631591796875000000', '-0.0252674724906682968139648437500', '-0.0840541273355484008789062500000', '-0.0351448953151702880859375000000', '-0.0168223250657320022583007812500', '-0.0038255290128290653228759765625', '0.0281364936381578445434570312500', '-0.0111277597025036811828613281250', '-0.0758771821856498718261718750000', '-0.0754243656992912292480468750000', '0.0318068116903305053710937500000', '-0.0077132820151746273040771484375', '-0.0357687994837760925292968750000', '-0.0179364234209060668945312500000', '-0.0279220342636108398437500000000', '-0.0650512203574180603027343750000', '-0.0718435943126678466796875000000', '0.0066620623692870140075683593750', '0.0254003014415502548217773437500', '-0.0064953407272696495056152343750', '-0.0712934061884880065917968750000', '-0.0077173300087451934814453125000', '-0.0054053841158747673034667968750', '-0.0063985753804445266723632812500', '-0.0288549810647964477539062500000', '-0.0549442060291767120361328125000', '0.0233104173094034194946289062500', '0.0246392190456390380859375000000', '0.0087788319215178489685058593750', '-0.0363733321428298950195312500000', '-0.0507702901959419250488281250000', '0.0258677639067173004150390625000', '-0.0282709114253520965576171875000', '-0.0559679493308067321777343750000', '-0.0699808523058891296386718750000', '-0.0831176191568374633789062500000', '0.0189046226441860198974609375000', '-0.0321348346769809722900390625000', '0.0120003940537571907043457031250', '0.0188890025019645690917968750000', '-0.0337674804031848907470703125000', '-0.0541401356458663940429687500000', '-0.0427097491919994354248046875000', '-0.0161625482141971588134765625000', '0.0261251814663410186767578125000', '-0.0381957702338695526123046875000', '-0.0617154426872730255126953125000', '-0.0153069607913494110107421875000', '0.0036549575161188840866088867188', '-0.0295134931802749633789062500000', '-0.0361998341977596282958984375000', '-0.0849314630031585693359375000000', '-0.0237757880240678787231445312500', '-0.0269739553332328796386718750000', '-0.0175154376775026321411132812500', '-0.0879444107413291931152343750000', '-0.0178908500820398330688476562500', '0.0326830372214317321777343750000', '-0.0625115856528282165527343750000', '-0.0432973019778728485107421875000', '0.0078872367739677429199218750000', '-0.0842758640646934509277343750000', '-0.0151479784399271011352539062500', '-0.0345414355397224426269531250000', '0.0259884335100650787353515625000', '-0.0105268862098455429077148437500', '-0.0642686337232589721679687500000', '-0.0000559538311790674924850463867', '-0.0385996773838996887207031250000', '0.0013237807434052228927612304688', '0.0330786779522895812988281250000', '-0.0371666960418224334716796875000', '-0.0493547208607196807861328125000', '-0.0280993822962045669555664062500', '-0.0449562408030033111572265625000', '-0.0692331343889236450195312500000', '-0.0227661952376365661621093750000', '0.0350969135761260986328125000000', '0.0244896728545427322387695312500', '-0.0165468994528055191040039062500', '-0.0494325533509254455566406250000', '-0.0375781841576099395751953125000', '-0.0177423823624849319458007812500', '-0.0708712786436080932617187500000', '-0.0181226134300231933593750000000', '-0.0491221882402896881103515625000', '0.0337433703243732452392578125000', '-0.0255915205925703048706054687500', '-0.0623975805938243865966796875000', '-0.0178508888930082321166992187500', '-0.0350375175476074218750000000000', '-0.0296547953039407730102539062500', '-0.0621188916265964508056640625000', '-0.0001379971654387190937995910645', '-0.0572847612202167510986328125000', '-0.0107979914173483848571777343750', '-0.0641855001449584960937500000000', '-0.0297707989811897277832031250000', '0.0570498853921890258789062500000', '0.0044918134808540344238281250000', '-0.0631419941782951354980468750000', '0.0281629897654056549072265625000', '-0.0421685129404067993164062500000', '-0.0064898245036602020263671875000', '0.0000889152288436889648437500000', '0.0276317968964576721191406250000', '0.0084580294787883758544921875000', '0.0330289416015148162841796875000', '-0.0059981932863593101501464843750', '0.0059870965778827667236328125000', '0.0140803111717104911804199218750', '0.0231409259140491485595703125000', '0.0299348123371601104736328125000', '-0.0398082435131072998046875000000', '-0.0766111910343170166015625000000', '-0.0313211828470230102539062500000', '-0.0197197366505861282348632812500', '-0.0633571594953536987304687500000', '0.0026403898373246192932128906250', '-0.0513699129223823547363281250000', '0.0181973706930875778198242187500', '-0.0493240691721439361572265625000', '-0.0112077984958887100219726562500', '-0.0653536841273307800292968750000', '-0.0310654062777757644653320312500', '-0.0767465904355049133300781250000', '0.0394752211868762969970703125000', '-0.0283054728060960769653320312500', '0.0243548601865768432617187500000', '-0.0388124026358127593994140625000', '0.0074681211262941360473632812500', '-0.0680401101708412170410156250000', '-0.0362015217542648315429687500000', '-0.0603714659810066223144531250000', '-0.0326013825833797454833984375000', '0.0282028969377279281616210937500', '0.0076048453338444232940673828125', '0.0259248167276382446289062500000', '0.0304874572902917861938476562500', '-0.0184429958462715148925781250000', '-0.0764187276363372802734375000000', '0.0379876457154750823974609375000', '-0.0497213229537010192871093750000', '0.0324254147708415985107421875000', '-0.0398657321929931640625000000000', '-0.0233000908046960830688476562500', '0.0325955711305141448974609375000', '-0.0377122648060321807861328125000', '0.0103957727551460266113281250000', '0.0309391506016254425048828125000', '-0.0821258947253227233886718750000', '-0.0665941089391708374023437500000', '-0.0043152049183845520019531250000', '0.0239108130335807800292968750000', '-0.0564331933856010437011718750000', '-0.0231306962668895721435546875000', '-0.0612030103802680969238281250000', '-0.0692015439271926879882812500000', '-0.0151109863072633743286132812500', '0.0138807008042931556701660156250', '-0.0472559705376625061035156250000', '-0.0041243806481361389160156250000', '-0.0323227569460868835449218750000', '-0.0182864256203174591064453125000', '0.0174251589924097061157226562500', '-0.0742024704813957214355468750000', '-0.0144780818372964859008789062500', '0.0316161476075649261474609375000', '0.0013328418135643005371093750000', '-0.0439807623624801635742187500000', '-0.0624678581953048706054687500000', '-0.0538589879870414733886718750000', '-0.0578579418361186981201171875000', '-0.0171639341861009597778320312500', '0.0183864906430244445800781250000', '-0.0142330583184957504272460937500', '-0.0101782558485865592956542968750', '0.0078853741288185119628906250000', '0.0065047908574342727661132812500', '-0.0755261331796646118164062500000', '0.0303742382675409317016601562500', '-0.0335951931774616241455078125000', '0.0132430987432599067687988281250', '0.0269838590174913406372070312500', '-0.0800557136535644531250000000000', '0.0485884696245193481445312500000', '-0.0439177900552749633789062500000', '-0.0420737750828266143798828125000', '0.0292732715606689453125000000000', '0.0185220837593078613281250000000', '0.0059136743657290935516357421875', '-0.0005811658920720219612121582031', '0.0198899246752262115478515625000', '-0.0118767768144607543945312500000', '0.0192804895341396331787109375000', '0.0000489672020194120705127716064', '-0.0720426589250564575195312500000', '-0.0377101264894008636474609375000', '0.0173823405057191848754882812500', '-0.0570427551865577697753906250000', '-0.0170760583132505416870117187500', '0.0279290750622749328613281250000', '-0.0070569994859397411346435546875', '-0.0252416841685771942138671875000', '-0.0200077630579471588134765625000', '0.0129311606287956237792968750000', '-0.0496134087443351745605468750000', '-0.0359839908778667449951171875000', '-0.0340761244297027587890625000000', '0.0053851399570703506469726562500', '-0.0604495406150817871093750000000', '0.0048317192122340202331542968750', '0.0011724884388968348503112792969', '-0.0192893035709857940673828125000', '0.0235770177096128463745117187500', '-0.0284949783235788345336914062500', '-0.0519435778260231018066406250000', '0.0509871840476989746093750000000', '-0.0212577376514673233032226562500', '0.0238645412027835845947265625000', '-0.0735148265957832336425781250000', '0.0031429403461515903472900390625', '0.0367045626044273376464843750000', '-0.0230704080313444137573242187500', '0.0054085925221443176269531250000'], ['0.0832952931523323059082031250000', '-0.0128934355452656745910644531250', '0.1076385602355003356933593750000', '-0.1226386949419975280761718750000', '0.0900324210524559020996093750000', '0.0703526437282562255859375000000', '0.1626374721527099609375000000000', '-0.0161433611065149307250976562500', '0.1402868479490280151367187500000', '0.1095189601182937622070312500000', '0.3007013499736785888671875000000', '-0.6294212341308593750000000000000', '-0.5285292863845825195312500000000', '-0.3526372313499450683593750000000', '0.1205463707447052001953125000000', '-0.0474685095250606536865234375000', '0.1491088718175888061523437500000', '-0.3736250996589660644531250000000', '0.2531798183917999267578125000000', '0.3774784207344055175781250000000', '0.1049178689718246459960937500000', '-0.2521895170211791992187500000000', '-0.1381072252988815307617187500000', '0.1528567224740982055664062500000', '0.2829155921936035156250000000000', '0.0068609197624027729034423828125', '0.0564916208386421203613281250000', '0.2952623069286346435546875000000', '0.0046556834131479263305664062500', '0.1683477610349655151367187500000', '-0.0537601746618747711181640625000', '-0.0177443325519561767578125000000', '0.1298655718564987182617187500000', '0.0854641050100326538085937500000', '0.2007527500391006469726562500000', '-0.1528873443603515625000000000000', '-0.8208157420158386230468750000000', '-0.8648768663406372070312500000000', '-0.0844022780656814575195312500000', '0.0861038342118263244628906250000', '-0.1447557806968688964843750000000', '0.2785753905773162841796875000000', '0.2115120738744735717773437500000', '0.0148874754086136817932128906250', '-0.0510838702321052551269531250000', '0.3770228922367095947265625000000', '0.0642225369811058044433593750000', '0.2294564545154571533203125000000', '-0.2499432563781738281250000000000', '-0.1177553609013557434082031250000', '0.1585033386945724487304687500000', '0.2086174637079238891601562500000', '-0.1344028711318969726562500000000', '0.1296598166227340698242187500000', '0.1765881329774856567382812500000', '0.0557949803769588470458984375000', '0.2076815366744995117187500000000', '0.1814778894186019897460937500000', '-0.2888908088207244873046875000000', '-0.1288416534662246704101562500000', '-0.2485226392745971679687500000000', '-0.2620221078395843505859375000000', '0.2097634971141815185546875000000', '0.1867273002862930297851562500000', '0.0162470694631338119506835937500', '0.1034073233604431152343750000000', '-0.1609942167997360229492187500000', '-0.1733980923891067504882812500000', '-0.0019000445026904344558715820312', '-0.0145835997536778450012207031250', '0.1431412100791931152343750000000', '-0.0981231778860092163085937500000', '-0.0631288737058639526367187500000', '-0.2024428844451904296875000000000', '0.0683762729167938232421875000000', '-0.1320129334926605224609375000000', '-0.0801364108920097351074218750000', '0.1193517670035362243652343750000', '0.1011779606342315673828125000000', '0.0690285190939903259277343750000', '0.0361561551690101623535156250000', '0.0498182736337184906005859375000', '0.0240611303597688674926757812500', '0.1060307472944259643554687500000', '0.0665568783879280090332031250000', '0.0413496121764183044433593750000', '0.2900595664978027343750000000000', '0.1141582727432250976562500000000', '0.0472648143768310546875000000000', '0.0750144943594932556152343750000', '-0.0107594337314367294311523437500', '0.1400145143270492553710937500000', '0.2007561326026916503906250000000', '0.1859145015478134155273437500000', '0.0774698704481124877929687500000', '-0.1412222534418106079101562500000', '-0.1678926199674606323242187500000', '0.0871032550930976867675781250000', '0.3848930299282073974609375000000', '0.0480941422283649444580078125000', '-0.0071171699091792106628417968750', '-0.1365929991006851196289062500000', '0.1908323019742965698242187500000', '-0.2457936853170394897460937500000', '0.0348028242588043212890625000000', '0.0729924961924552917480468750000', '0.1778565049171447753906250000000', '0.1776332259178161621093750000000', '0.1026942208409309387207031250000', '0.0585815943777561187744140625000', '-0.0479349941015243530273437500000', '-0.0370570980012416839599609375000', '0.1358118802309036254882812500000', '0.2599385380744934082031250000000', '-0.0256363097578287124633789062500', '0.1234300956130027770996093750000', '0.0260995440185070037841796875000', '-0.0636130124330520629882812500000', '0.0448147878050804138183593750000', '0.4496300220489501953125000000000', '0.0255542788654565811157226562500', '0.0170686058700084686279296875000', '0.0523386709392070770263671875000', '0.1335185319185256958007812500000', '0.2233605086803436279296875000000', '0.0136495279148221015930175781250', '0.1533913612365722656250000000000', '0.3282859921455383300781250000000', '-1.3273825645446777343750000000000', '-0.4337946772575378417968750000000', '-0.5881680846214294433593750000000', '-0.1378502100706100463867187500000', '0.2391648143529891967773437500000', '0.3025159537792205810546875000000', '0.7958693504333496093750000000000', '-0.7059742212295532226562500000000', '-1.2165536880493164062500000000000', '-0.2049771547317504882812500000000', '-0.1575290709733963012695312500000', '-0.0360081493854522705078125000000', '-0.1796042770147323608398437500000', '-0.0112949647009372711181640625000', '0.1830946207046508789062500000000', '0.1162693500518798828125000000000', '-0.0461051166057586669921875000000', '0.3920616209506988525390625000000', '0.2133729308843612670898437500000', '-0.0410753339529037475585937500000', '-0.0702346190810203552246093750000', '-0.2611320316791534423828125000000', '0.3050074875354766845703125000000', '0.1760684996843338012695312500000', '-0.0286082997918128967285156250000', '0.2095051109790802001953125000000', '-0.0162088871002197265625000000000', '0.0400663875043392181396484375000', '0.1182230487465858459472656250000', '-0.1352086961269378662109375000000', '0.1923539936542510986328125000000', '0.0764858499169349670410156250000', '-0.1633109599351882934570312500000', '0.4898272454738616943359375000000', '0.1795351356267929077148437500000', '0.1182709783315658569335937500000', '-0.0483470745384693145751953125000', '-0.1647541373968124389648437500000', '0.0764854401350021362304687500000', '-0.2786219120025634765625000000000', '-0.2574371695518493652343750000000', '0.3575378656387329101562500000000', '0.1547726839780807495117187500000', '0.1929679811000823974609375000000', '0.0558273792266845703125000000000', '0.0796799212694168090820312500000', '-0.0480141565203666687011718750000', '-0.1166027411818504333496093750000', '0.1963967978954315185546875000000', '0.3303286433219909667968750000000', '-0.0327499173581600189208984375000', '0.0892019644379615783691406250000', '-0.0933004468679428100585937500000', '-0.3315543830394744873046875000000', '-0.2048489302396774291992187500000', '0.3986395299434661865234375000000', '-0.5643577575683593750000000000000', '0.3108008503913879394531250000000', '-0.0148118697106838226318359375000', '-0.2915746271610260009765625000000', '0.0146351717412471771240234375000', '-0.0871098041534423828125000000000', '0.6315129399299621582031250000000', '0.0592078827321529388427734375000', '-0.5209599733352661132812500000000', '-0.2461336404085159301757812500000', '-0.1335611343383789062500000000000', '-0.1720805317163467407226562500000', '0.1097446903586387634277343750000', '0.0631088539958000183105468750000', '0.0660700500011444091796875000000', '-0.2020156979560852050781250000000', '-1.6577595472335815429687500000000', '-0.1515628844499588012695312500000', '-0.2640235126018524169921875000000', '-0.6150658130645751953125000000000', '-0.1334834098815917968750000000000', '-0.0619677603244781494140625000000', '0.2309497445821762084960937500000', '-0.1803653240203857421875000000000', '0.2182440757751464843750000000000', '-0.2027727663516998291015625000000', '-0.3569713234901428222656250000000', '-0.3445837199687957763671875000000', '-0.3118624687194824218750000000000', '-0.0410078912973403930664062500000', '0.7285718917846679687500000000000', '0.0626650750637054443359375000000', '0.1697707921266555786132812500000', '-0.2463731616735458374023437500000', '-0.1257245242595672607421875000000', '-0.2450528740882873535156250000000', '0.0420090146362781524658203125000', '-0.3022572994232177734375000000000', '-0.0460018031299114227294921875000', '0.0770696401596069335937500000000', '-0.0495195016264915466308593750000', '0.0559406951069831848144531250000', '0.1661058217287063598632812500000', '0.1853932887315750122070312500000', '-0.0888648331165313720703125000000', '-0.5559182763099670410156250000000', '0.0541680678725242614746093750000', '-0.3192749619483947753906250000000', '0.2128341346979141235351562500000', '-0.1774432510137557983398437500000', '0.2480317950248718261718750000000', '0.2330810129642486572265625000000', '-0.1896205246448516845703125000000', '-0.3092189133167266845703125000000', '-0.0284115895628929138183593750000', '-0.3381375670433044433593750000000', '0.7449080944061279296875000000000', '0.1056859567761421203613281250000', '-0.2321986109018325805664062500000', '0.3938654661178588867187500000000', '-0.0000117049712571315467357635498', '-0.1791037023067474365234375000000', '-0.1992710232734680175781250000000', '0.4269980192184448242187500000000', '-0.3076408803462982177734375000000', '-0.2788567543029785156250000000000', '-0.3929068148136138916015625000000', '-0.0006530329701490700244903564453', '0.3356402218341827392578125000000', '-0.0351751558482646942138671875000', '-0.2529464960098266601562500000000', '-0.2646223306655883789062500000000'], ['-0.0553060062229633331298828125000', '0.1742716878652572631835937500000', '-0.0221109967678785324096679687500', '0.0330752469599246978759765625000', '-0.2634874880313873291015625000000', '-0.1007993668317794799804687500000', '-0.1849603652954101562500000000000', '0.1997573673725128173828125000000', '-0.0033856485970318317413330078125', '-0.2387672811746597290039062500000', '-0.3552231192588806152343750000000', '0.0843048691749572753906250000000', '-0.3875752985477447509765625000000', '-0.0272752493619918823242187500000', '-0.1551019400358200073242187500000', '0.0244129337370395660400390625000', '-0.0324950739741325378417968750000', '0.0346254520118236541748046875000', '0.0515689924359321594238281250000', '0.2726901769638061523437500000000', '-0.0136635536327958106994628906250', '-0.2513355016708374023437500000000', '-0.1613746136426925659179687500000', '0.0182491671293973922729492187500', '-0.2902095019817352294921875000000', '0.3811635673046112060546875000000', '0.0385806821286678314208984375000', '0.8529075980186462402343750000000', '0.7502253651618957519531250000000', '0.2951062023639678955078125000000', '-0.0471414551138877868652343750000', '-0.1559665352106094360351562500000', '-0.0699837803840637207031250000000', '-0.1647520512342453002929687500000', '-0.3144404590129852294921875000000', '0.2675083577632904052734375000000', '-0.0610314905643463134765625000000', '-0.5756727457046508789062500000000', '0.2535281479358673095703125000000', '0.2460506707429885864257812500000', '0.1185192912817001342773437500000', '-0.1587924808263778686523437500000', '0.1667592972517013549804687500000', '-0.0507613010704517364501953125000', '-0.3214045166969299316406250000000', '-0.6330649256706237792968750000000', '0.1293122023344039916992187500000', '0.1636806875467300415039062500000', '0.5571775436401367187500000000000', '0.2626869976520538330078125000000', '0.1452385783195495605468750000000', '0.2356290966272354125976562500000', '0.5364276766777038574218750000000', '0.0622231289744377136230468750000', '0.0240254346281290054321289062500', '-0.0372674129903316497802734375000', '0.2010134458541870117187500000000', '-0.0017268051160499453544616699219', '-0.1135101318359375000000000000000', '-0.0724537298083305358886718750000', '0.0004242181312292814254760742188', '-0.3630475699901580810546875000000', '0.0185292586684226989746093750000', '-0.1043261438608169555664062500000', '0.0145778683945536613464355468750', '-0.1697518527507781982421875000000', '0.0416495315730571746826171875000', '-0.0320535525679588317871093750000', '-0.0544930621981620788574218750000', '-0.0642099380493164062500000000000', '-0.0384888052940368652343750000000', '0.1805215924978256225585937500000', '-0.1122804433107376098632812500000', '0.3323761522769927978515625000000', '0.0238361489027738571166992187500', '0.1009287089109420776367187500000', '0.1397793740034103393554687500000', '-0.0773507654666900634765625000000', '0.1888635456562042236328125000000', '0.1858191192150115966796875000000', '0.0454202704131603240966796875000', '0.0133294165134429931640625000000', '0.0154675170779228210449218750000', '-0.0525878556072711944580078125000', '-0.2285479158163070678710937500000', '-0.0726539269089698791503906250000', '-0.0148558709770441055297851562500', '0.2603828907012939453125000000000', '-0.4129365086555480957031250000000', '0.1363434791564941406250000000000', '0.1099777817726135253906250000000', '-0.0202119853347539901733398437500', '-0.1661316305398941040039062500000', '-0.1048824191093444824218750000000', '-0.0019344462780281901359558105469', '0.2766140997409820556640625000000', '-0.0954001247882843017578125000000', '0.0561160221695899963378906250000', '-0.0635444596409797668457031250000', '0.1284088641405105590820312500000', '-0.0939183533191680908203125000000', '0.1080052107572555541992187500000', '0.0848151817917823791503906250000', '0.2114721238613128662109375000000', '0.2276083379983901977539062500000', '0.0715615078806877136230468750000', '0.2526699602603912353515625000000', '0.1991806179285049438476562500000', '-0.1031504869461059570312500000000', '-0.1574399322271347045898437500000', '0.2644510567188262939453125000000', '0.1027166694402694702148437500000', '0.1238950937986373901367187500000', '-0.1901347637176513671875000000000', '0.1833941042423248291015625000000', '0.1136065125465393066406250000000', '0.2113043367862701416015625000000', '0.0286766886711120605468750000000', '0.0787083581089973449707031250000', '-0.0782291144132614135742187500000', '0.1402641683816909790039062500000', '0.2579310238361358642578125000000', '-0.0754874423146247863769531250000', '0.1093452572822570800781250000000', '-0.1809500157833099365234375000000', '0.0777428224682807922363281250000', '-0.2931596040725708007812500000000', '-0.1965829879045486450195312500000', '0.1882463097572326660156250000000', '-0.2774354517459869384765625000000', '-0.0466166287660598754882812500000', '0.0874724611639976501464843750000', '0.0205193497240543365478515625000', '0.0138201294466853141784667968750', '-0.4530226588249206542968750000000', '-0.2707676291465759277343750000000', '-0.4547674357891082763671875000000', '0.0788087174296379089355468750000', '0.0552730858325958251953125000000', '0.2717302739620208740234375000000', '0.2223447859287261962890625000000', '-0.0874862000346183776855468750000', '0.4460383951663970947265625000000', '-0.0885590836405754089355468750000', '0.1672474443912506103515625000000', '-0.1195158734917640686035156250000', '-0.1171374469995498657226562500000', '-0.0834659561514854431152343750000', '-0.2071046382188796997070312500000', '0.0471024475991725921630859375000', '0.1031108945608139038085937500000', '0.2809004485607147216796875000000', '0.3231149613857269287109375000000', '0.0179479122161865234375000000000', '-0.4123415052890777587890625000000', '-0.1818068921566009521484375000000', '-0.2318665534257888793945312500000', '-0.2010779082775115966796875000000', '0.3589273691177368164062500000000', '-0.1204882338643074035644531250000', '0.3000651299953460693359375000000', '0.0267984997481107711791992187500', '-0.0162623599171638488769531250000', '0.1185563653707504272460937500000', '-0.0507556013762950897216796875000', '-0.0977430790662765502929687500000', '0.2622506618499755859375000000000', '-0.1549685448408126831054687500000', '0.2803420722484588623046875000000', '-0.3281680047512054443359375000000', '-0.1425533592700958251953125000000', '0.0307821743190288543701171875000', '-0.1141147166490554809570312500000', '-0.2854042053222656250000000000000', '0.3374295234680175781250000000000', '-0.1107494831085205078125000000000', '0.0759540572762489318847656250000', '-0.1923777312040328979492187500000', '-0.0977188646793365478515625000000', '0.0402461476624011993408203125000', '0.1053651943802833557128906250000', '0.2913866639137268066406250000000', '0.2398319691419601440429687500000', '0.0336085036396980285644531250000', '0.4364865422248840332031250000000', '-0.1890424937009811401367187500000', '-0.1006424874067306518554687500000', '0.2777345478534698486328125000000', '0.0338365249335765838623046875000', '0.2702811062335968017578125000000', '-0.2035602480173110961914062500000', '-0.1292117685079574584960937500000', '0.3805346190929412841796875000000', '-0.3172924816608428955078125000000', '0.1685320436954498291015625000000', '-0.1106375753879547119140625000000', '0.0483979396522045135498046875000', '-0.2841796875000000000000000000000', '0.0765533745288848876953125000000', '0.8259640336036682128906250000000', '0.0890928730368614196777343750000', '0.3867408335208892822265625000000', '-0.2486661970615386962890625000000', '0.1104540303349494934082031250000', '0.1714299023151397705078125000000', '-0.1544537395238876342773437500000', '0.0317800790071487426757812500000', '-0.1619381457567214965820312500000', '0.2805058658123016357421875000000', '0.0151090594008564949035644531250', '-0.0282206460833549499511718750000', '0.0330492109060287475585937500000', '-0.2304088771343231201171875000000', '-0.3833200335502624511718750000000', '-0.3182139098644256591796875000000', '0.1901054531335830688476562500000', '-0.2183532118797302246093750000000', '0.0555490106344223022460937500000', '-0.4843453764915466308593750000000', '-0.0535052642226219177246093750000', '-0.1474163830280303955078125000000', '-0.0229255519807338714599609375000', '0.2017301470041275024414062500000', '0.0104807699099183082580566406250', '-0.3603279888629913330078125000000', '-0.0860549136996269226074218750000', '-0.0308122299611568450927734375000', '0.2682006359100341796875000000000', '-0.2147856354713439941406250000000', '0.1672948151826858520507812500000', '0.1705862581729888916015625000000', '0.1702960878610610961914062500000', '-0.1061180606484413146972656250000', '0.2688336968421936035156250000000', '0.1885575950145721435546875000000', '0.4915649890899658203125000000000', '-0.2951303720474243164062500000000', '-0.5907784700393676757812500000000', '-0.1366853415966033935546875000000', '0.3714492917060852050781250000000', '0.0198972113430500030517578125000', '-0.2019497752189636230468750000000', '0.0444401279091835021972656250000', '0.2511184215545654296875000000000', '-0.0651151090860366821289062500000', '-0.3131113946437835693359375000000', '-0.0683639198541641235351562500000', '0.0140128554776310920715332031250', '0.1027686521410942077636718750000', '0.4464825689792633056640625000000', '0.1718835234642028808593750000000', '-0.0395969562232494354248046875000', '-0.3836520612239837646484375000000', '-0.2898805439472198486328125000000', '-0.0037105965893715620040893554688', '-0.2906399071216583251953125000000'], ['-0.1179735511541366577148437500000', '-0.1035135686397552490234375000000', '0.1058294251561164855957031250000', '-0.0336830019950866699218750000000', '-0.2408178001642227172851562500000', '0.0828703865408897399902343750000', '0.1737490147352218627929687500000', '0.1333822160959243774414062500000', '0.1712320148944854736328125000000', '0.0945160388946533203125000000000', '0.1429884731769561767578125000000', '-0.0877257063984870910644531250000', '-0.0237847380340099334716796875000', '0.0228398442268371582031250000000', '-0.0727430954575538635253906250000', '0.2707453966140747070312500000000', '0.1508958041667938232421875000000', '-0.1120002344250679016113281250000', '0.1504987925291061401367187500000', '-0.0472095087170600891113281250000', '-0.1132649108767509460449218750000', '0.4038725495338439941406250000000', '0.2218611687421798706054687500000', '0.0937283337116241455078125000000', '0.2421851456165313720703125000000', '0.2366244494915008544921875000000', '-0.3579403758049011230468750000000', '0.1670471876859664916992187500000', '-0.0906527787446975708007812500000', '0.3891718387603759765625000000000', '0.2602342665195465087890625000000', '0.0258178766816854476928710937500', '0.0427896194159984588623046875000', '-0.0050842482596635818481445312500', '-0.0495911315083503723144531250000', '0.2551843822002410888671875000000', '-0.3038149178028106689453125000000', '0.1804600954055786132812500000000', '0.0843395963311195373535156250000', '-0.1530963480472564697265625000000', '-0.0183079857379198074340820312500', '-0.2112302780151367187500000000000', '0.2691681981086730957031250000000', '0.1536572575569152832031250000000', '-0.0395283885300159454345703125000', '-0.2637506127357482910156250000000', '-0.2089208215475082397460937500000', '0.3188094794750213623046875000000', '0.1097591817378997802734375000000', '-0.1379355043172836303710937500000', '-0.0805383473634719848632812500000', '0.5511381030082702636718750000000', '0.1178017333149909973144531250000', '-0.4641361832618713378906250000000', '0.4873114824295043945312500000000', '0.0891356021165847778320312500000', '0.4152505099773406982421875000000', '0.4221881330013275146484375000000', '-0.4658678174018859863281250000000', '-0.7361468076705932617187500000000', '-0.4847979247570037841796875000000', '-0.4426050484180450439453125000000', '0.4305860400199890136718750000000', '0.5354706048965454101562500000000', '-0.1583357751369476318359375000000', '-0.0192066039890050888061523437500', '-0.1165697649121284484863281250000', '-0.2995086312294006347656250000000', '-0.1831587851047515869140625000000', '-0.1655774861574172973632812500000', '0.1049078628420829772949218750000', '0.0389421209692955017089843750000', '-0.0526584535837173461914062500000', '-0.0792965069413185119628906250000', '0.0985349640250205993652343750000', '-0.1003249958157539367675781250000', '-0.0396778509020805358886718750000', '0.2831076979637145996093750000000', '-0.0242169890552759170532226562500', '0.0581518001854419708251953125000', '-0.0496851131319999694824218750000', '0.0066915671341121196746826171875', '-0.0055358572863042354583740234375', '-0.1329752355813980102539062500000', '0.0061181811615824699401855468750', '0.1088068783283233642578125000000', '0.4438008069992065429687500000000', '0.0322687327861785888671875000000', '-0.0718668848276138305664062500000', '0.3126640021800994873046875000000', '-0.0370217822492122650146484375000', '-0.0197700243443250656127929687500', '-0.0147768119350075721740722656250', '-0.0409512482583522796630859375000', '0.1424750685691833496093750000000', '-0.0405371040105819702148437500000', '-0.2345866113901138305664062500000', '0.1223635822534561157226562500000', '0.2110021859407424926757812500000', '-0.0022364614997059106826782226562', '-0.1278420388698577880859375000000', '0.0400439724326133728027343750000', '0.2554295957088470458984375000000', '-0.3438076674938201904296875000000', '-0.1434635967016220092773437500000', '-0.0370131842792034149169921875000', '0.2006694376468658447265625000000', '-0.0055672265589237213134765625000', '-0.0408379696309566497802734375000', '0.0646335110068321228027343750000', '0.0491594336926937103271484375000', '0.0604001954197883605957031250000', '0.2829478979110717773437500000000', '-0.1122887134552001953125000000000', '-0.0126469936221837997436523437500', '0.1071270108222961425781250000000', '-0.0310945119708776473999023437500', '-0.0158236380666494369506835937500', '0.0449325665831565856933593750000', '0.1546325236558914184570312500000', '0.2155859768390655517578125000000', '0.1077695712447166442871093750000', '-0.0272253770381212234497070312500', '-0.0628370121121406555175781250000', '-0.2055041342973709106445312500000', '-0.0100995358079671859741210937500', '-0.0224151462316513061523437500000', '0.2979172468185424804687500000000', '-1.6924695968627929687500000000000', '-0.9038890600204467773437500000000', '-0.1926884204149246215820312500000', '-0.1947511881589889526367187500000', '-0.0894905179738998413085937500000', '-0.0295304693281650543212890625000', '-0.1186176389455795288085937500000', '0.0520521216094493865966796875000', '-0.4652648866176605224609375000000', '0.0667910128831863403320312500000', '0.3401218354701995849609375000000', '0.1875223666429519653320312500000', '-0.1414403468370437622070312500000', '-0.0107769919559359550476074218750', '-0.2002683877944946289062500000000', '-0.0725832656025886535644531250000', '-0.0813723281025886535644531250000', '0.3713560700416564941406250000000', '0.1101439148187637329101562500000', '0.0773381143808364868164062500000', '-0.3785689473152160644531250000000', '-0.2740015387535095214843750000000', '-0.0703034251928329467773437500000', '-0.3209576606750488281250000000000', '-0.0418501012027263641357421875000', '0.3431279957294464111328125000000', '0.4242714941501617431640625000000', '-0.1885901689529418945312500000000', '-0.2560718059539794921875000000000', '-0.2534839808940887451171875000000', '-0.0153862051665782928466796875000', '-0.2706300318241119384765625000000', '-0.2873337268829345703125000000000', '0.5649048686027526855468750000000', '-0.0772854089736938476562500000000', '-0.0668546333909034729003906250000', '-0.1046340540051460266113281250000', '0.0543347001075744628906250000000', '0.2012799829244613647460937500000', '-0.3101284801959991455078125000000', '0.1259934306144714355468750000000', '0.3791060745716094970703125000000', '-0.0321223437786102294921875000000', '-0.0184385702013969421386718750000', '-0.0137720396742224693298339843750', '0.4052845239639282226562500000000', '0.0296333841979503631591796875000', '-0.1531495600938796997070312500000', '0.4486062228679656982421875000000', '0.0666880980134010314941406250000', '-0.2057105153799057006835937500000', '-0.1141815260052680969238281250000', '-0.1852754503488540649414062500000', '0.1091481819748878479003906250000', '-0.4046438038349151611328125000000', '0.0240761395543813705444335937500', '-0.0216579828411340713500976562500', '-0.1854119151830673217773437500000', '-0.2140818536281585693359375000000', '-0.3928893804550170898437500000000', '-0.4478021562099456787109375000000', '0.1246163472533226013183593750000', '0.1995155066251754760742187500000', '0.9096350073814392089843750000000', '0.2474946379661560058593750000000', '0.3236835002899169921875000000000', '-0.1398502588272094726562500000000', '-0.0076945284381508827209472656250', '-0.3012477457523345947265625000000', '-0.1602098643779754638671875000000', '-0.0728351026773452758789062500000', '0.6532820463180541992187500000000', '0.4416844844818115234375000000000', '0.2058841586112976074218750000000', '-0.0899432078003883361816406250000', '-0.1245491430163383483886718750000', '-0.0446042083203792572021484375000', '0.4152314662933349609375000000000', '0.4259874820709228515625000000000', '0.3040269911289215087890625000000', '0.2051710635423660278320312500000', '0.0877343937754631042480468750000', '-0.4201700985431671142578125000000', '-0.1950052976608276367187500000000', '-0.1334899663925170898437500000000', '0.0941428020596504211425781250000', '0.5960735678672790527343750000000', '-0.1663050353527069091796875000000', '0.1615058332681655883789062500000', '0.1326528638601303100585937500000', '0.1641119271516799926757812500000', '-0.3191013336181640625000000000000', '-0.2139590978622436523437500000000', '-0.3241003155708312988281250000000', '-0.2875430285930633544921875000000', '-0.1009676754474639892578125000000', '-0.2197345495223999023437500000000', '0.3904248178005218505859375000000', '0.1042885556817054748535156250000', '0.0825240015983581542968750000000', '-0.2450309246778488159179687500000', '0.0310339778661727905273437500000', '0.0140032665804028511047363281250', '-0.5345069766044616699218750000000', '0.0956370085477828979492187500000', '0.0196708478033542633056640625000', '0.2788770496845245361328125000000', '0.2335391342639923095703125000000', '-0.0811516344547271728515625000000', '-0.0694422274827957153320312500000', '0.0369460768997669219970703125000', '-0.0593169145286083221435546875000', '0.7797045111656188964843750000000', '-0.2772302627563476562500000000000', '-0.3243763446807861328125000000000', '0.2161003202199935913085937500000', '-0.3141210377216339111328125000000', '0.1401942223310470581054687500000', '-0.2126643806695938110351562500000', '0.3132488727569580078125000000000', '0.0038592284545302391052246093750', '-0.6549916863441467285156250000000', '-0.0439678765833377838134765625000', '-0.1072311475872993469238281250000', '-0.2214112281799316406250000000000', '0.0987979844212532043457031250000', '-0.7592647075653076171875000000000', '0.5360186100006103515625000000000'], ['-0.0232760217040777206420898437500', '-0.0870710238814353942871093750000', '-0.0852974578738212585449218750000', '-0.0759552046656608581542968750000', '-0.0194227267056703567504882812500', '0.0503286905586719512939453125000', '-0.0348961949348449707031250000000', '-0.0396069362759590148925781250000', '-0.1043492853641510009765625000000', '-0.0953991562128067016601562500000', '-0.1274078339338302612304687500000', '-0.0584416911005973815917968750000', '-0.1597121506929397583007812500000', '-0.0091848326846957206726074218750', '0.0442904643714427947998046875000', '-0.0893499255180358886718750000000', '-0.0535874105989933013916015625000', '-0.0836883261799812316894531250000', '-0.0037600139621645212173461914062', '0.0090517047792673110961914062500', '-0.0062808822840452194213867187500', '0.0106205055490136146545410156250', '0.0019841147586703300476074218750', '-0.0650884881615638732910156250000', '-0.0903382077813148498535156250000', '-0.0266711898148059844970703125000', '0.1399655938148498535156250000000', '-0.0695145055651664733886718750000', '-0.0515009574592113494873046875000', '0.1890915036201477050781250000000', '0.0294034518301486968994140625000', '-0.0374057255685329437255859375000', '-0.0302437208592891693115234375000', '-0.1356625258922576904296875000000', '-0.0932981967926025390625000000000', '0.0342477150261402130126953125000', '-0.0999426916241645812988281250000', '0.0453567989170551300048828125000', '-0.0732979476451873779296875000000', '-0.0187921281903982162475585937500', '-0.0384938195347785949707031250000', '-0.1494105160236358642578125000000', '-0.0298856608569622039794921875000', '-0.0871781483292579650878906250000', '-0.1046074926853179931640625000000', '-0.1449723243713378906250000000000', '-0.1067724227905273437500000000000', '-0.0163516048341989517211914062500', '-0.0683428347110748291015625000000', '-0.1284092664718627929687500000000', '-0.0612011663615703582763671875000', '-0.1541651785373687744140625000000', '-0.1362440735101699829101562500000', '-0.0885617136955261230468750000000', '-0.1011423692107200622558593750000', '-0.0942288488149642944335937500000', '-0.0249886456876993179321289062500', '-0.0365693643689155578613281250000', '-0.0567067153751850128173828125000', '-0.0755563154816627502441406250000', '-0.0033988992217928171157836914062', '-0.0865717977285385131835937500000', '-0.0615883246064186096191406250000', '-0.0531383603811264038085937500000', '-0.0298939459025859832763671875000', '-0.1034810915589332580566406250000', '-0.0659625530242919921875000000000', '-0.0614691860973834991455078125000', '-0.0315991081297397613525390625000', '0.0365352183580398559570312500000', '-0.1021967604756355285644531250000', '-0.0594431571662425994873046875000', '-0.0150486472994089126586914062500', '-0.0478821769356727600097656250000', '-0.0648467987775802612304687500000', '-0.0255064405500888824462890625000', '-0.1383159607648849487304687500000', '0.0028905346989631652832031250000', '0.0222252625972032546997070312500', '-0.0790908187627792358398437500000', '-0.0149582279846072196960449218750', '-0.0584173910319805145263671875000', '-0.0522234216332435607910156250000', '-0.0761131718754768371582031250000', '0.0054931687191128730773925781250', '-0.0396109372377395629882812500000', '-0.0129496688023209571838378906250', '-0.1064857244491577148437500000000', '-0.1123757287859916687011718750000', '-0.0874801874160766601562500000000', '-0.0774248540401458740234375000000', '0.0000379792363673914223909378052', '0.0104489438235759735107421875000', '0.0044073374010622501373291015625', '-0.0059552742168307304382324218750', '0.0390601381659507751464843750000', '-0.1096550971269607543945312500000', '0.0216708388179540634155273437500', '-0.0006184282246977090835571289062', '-0.0924307554960250854492187500000', '0.0123970676213502883911132812500', '0.0100094284862279891967773437500', '-0.0496103987097740173339843750000', '-0.0390150658786296844482421875000', '-0.1239514052867889404296875000000', '-0.0497841127216815948486328125000', '-0.0413121357560157775878906250000', '-0.0201766677200794219970703125000', '-0.1068815514445304870605468750000', '-0.0702645778656005859375000000000', '-0.0644324719905853271484375000000', '0.0783231928944587707519531250000', '-0.0794302895665168762207031250000', '-0.0432248115539550781250000000000', '-0.0137999393045902252197265625000', '-0.1158435717225074768066406250000', '-0.1271940618753433227539062500000', '-0.1164963394403457641601562500000', '-0.0985942780971527099609375000000', '0.0296863149851560592651367187500', '-0.0748623237013816833496093750000', '-0.1123405545949935913085937500000', '-0.0429165773093700408935546875000', '-0.0356953330338001251220703125000', '-0.0055739842355251312255859375000', '-0.0238818340003490447998046875000', '0.0198883041739463806152343750000', '-0.0377624630928039550781250000000', '0.0623003542423248291015625000000', '-0.1574280261993408203125000000000', '0.0940879657864570617675781250000', '0.0219706203788518905639648437500', '-0.0570933595299720764160156250000', '-0.0075525445863604545593261718750', '-0.0969446524977684020996093750000', '-0.0206100661307573318481445312500', '-0.0985624641180038452148437500000', '0.0308342389762401580810546875000', '0.0160086266696453094482421875000', '-0.0499626100063323974609375000000', '-0.0134801650419831275939941406250', '-0.0848061591386795043945312500000', '-0.0423094630241394042968750000000', '-0.1828432679176330566406250000000', '-0.1353661864995956420898437500000', '-0.0481502264738082885742187500000', '0.0047462992370128631591796875000', '-0.0147597929462790489196777343750', '-0.0286675523966550827026367187500', '-0.0396150462329387664794921875000', '-0.0224382486194372177124023437500', '-0.1914684027433395385742187500000', '-0.1921746730804443359375000000000', '0.0234598368406295776367187500000', '-0.0602501109242439270019531250000', '-0.1075072363018989562988281250000', '-0.0579827874898910522460937500000', '0.0149578088894486427307128906250', '-0.0738029330968856811523437500000', '-0.0020382956136018037796020507812', '-0.1731148213148117065429687500000', '0.0015968518564477562904357910156', '-0.0745709240436553955078125000000', '-0.0658180862665176391601562500000', '-0.1066705286502838134765625000000', '-0.0489220395684242248535156250000', '-0.0231320708990097045898437500000', '0.0828697308897972106933593750000', '-0.1207859888672828674316406250000', '0.0045434446074068546295166015625', '-0.1147267520427703857421875000000', '-0.0647397786378860473632812500000', '-0.0187639873474836349487304687500', '-0.1388980597257614135742187500000', '-0.0135244596749544143676757812500', '0.1307439506053924560546875000000', '-0.1624536216259002685546875000000', '0.0279802400618791580200195312500', '-0.0810725241899490356445312500000', '-0.0442607551813125610351562500000', '-0.0920085757970809936523437500000', '-0.1017574220895767211914062500000', '0.0026195449754595756530761718750', '-0.1052064746618270874023437500000', '-0.0934205949306488037109375000000', '-0.0260002221912145614624023437500', '0.0029831223655492067337036132812', '-0.0268373601138591766357421875000', '-0.0509580262005329132080078125000', '0.0748380348086357116699218750000', '0.0407231748104095458984375000000', '-0.0708349943161010742187500000000', '-0.0639112219214439392089843750000', '-0.1255078464746475219726562500000', '0.1229301691055297851562500000000', '0.0336239337921142578125000000000', '0.0469716899096965789794921875000', '0.0610829479992389678955078125000', '-0.0810436680912971496582031250000', '0.0483953617513179779052734375000', '-0.0206586793065071105957031250000', '0.0440925732254981994628906250000', '0.0688673704862594604492187500000', '-0.0637121424078941345214843750000', '-0.1376482695341110229492187500000', '0.0025574311148375272750854492188', '-0.0171401891857385635375976562500', '-0.0186796765774488449096679687500', '-0.0065231858752667903900146484375', '0.0710376203060150146484375000000', '-0.0485806614160537719726562500000', '-0.0235032495111227035522460937500', '-0.0636372566223144531250000000000', '-0.0764937847852706909179687500000', '-0.0282759182155132293701171875000', '-0.1308848559856414794921875000000', '-0.0869609341025352478027343750000', '-0.0199939925223588943481445312500', '-0.0800019577145576477050781250000', '-0.0297328047454357147216796875000', '-0.0846148729324340820312500000000', '0.0190500337630510330200195312500', '0.0690332874655723571777343750000', '-0.0078343162313103675842285156250', '-0.1431392431259155273437500000000', '0.0510488227009773254394531250000', '-0.0916646569967269897460937500000', '-0.0229732841253280639648437500000', '-0.0260192584246397018432617187500', '0.0256811268627643585205078125000', '-0.0215540993958711624145507812500', '0.1143971011042594909667968750000', '-0.1192892417311668395996093750000', '0.0130821606144309043884277343750', '-0.0495630130171775817871093750000', '-0.0617029480636119842529296875000', '-0.1047822684049606323242187500000', '-0.1403497755527496337890625000000', '-0.0297005567699670791625976562500', '0.1055834963917732238769531250000', '-0.0449410788714885711669921875000', '0.0275211762636899948120117187500', '0.0003187736729159951210021972656', '-0.0634366199374198913574218750000', '-0.1249639540910720825195312500000', '-0.0222325604408979415893554687500', '0.0685691609978675842285156250000', '0.0513291470706462860107421875000', '0.0021139341406524181365966796875', '-0.1458853483200073242187500000000', '0.0564277842640876770019531250000', '-0.0013425212819129228591918945312', '0.0689883828163146972656250000000', '0.0518743582069873809814453125000', '0.0932221636176109313964843750000', '0.0047433688305318355560302734375'], ['-0.0413740277290344238281250000000', '0.0317436531186103820800781250000', '0.2303346693515777587890625000000', '0.0597549267113208770751953125000', '-0.0509214736521244049072265625000', '0.0408899709582328796386718750000', '-0.1162686273455619812011718750000', '0.1131332814693450927734375000000', '-0.1927626132965087890625000000000', '-0.3679413497447967529296875000000', '-0.2389082163572311401367187500000', '0.0150307016447186470031738281250', '0.1550833135843276977539062500000', '0.1358480900526046752929687500000', '-0.1227391734719276428222656250000', '0.2600670456886291503906250000000', '-0.2123304456472396850585937500000', '0.0377104729413986206054687500000', '-0.4260900616645812988281250000000', '0.1954590827226638793945312500000', '0.3734062612056732177734375000000', '0.1477848291397094726562500000000', '0.0126503258943557739257812500000', '-0.1109464839100837707519531250000', '-0.2329508960247039794921875000000', '0.3212254941463470458984375000000', '-0.1825154125690460205078125000000', '0.5304481387138366699218750000000', '0.4886570572853088378906250000000', '0.4660957455635070800781250000000', '-0.1392592638731002807617187500000', '-0.1234926506876945495605468750000', '-0.0495475083589553833007812500000', '-0.1578942686319351196289062500000', '0.0793714225292205810546875000000', '0.2827311158180236816406250000000', '0.6030504703521728515625000000000', '-0.0024018043186515569686889648438', '-0.2698676884174346923828125000000', '-0.0972819104790687561035156250000', '0.3830164372920989990234375000000', '-0.3190026879310607910156250000000', '-0.3178412318229675292968750000000', '0.5251961946487426757812500000000', '0.1208984553813934326171875000000', '0.0103963399305939674377441406250', '0.3627147376537322998046875000000', '-0.0425678379833698272705078125000', '-0.0019861340988427400588989257812', '0.2042968720197677612304687500000', '0.2488594055175781250000000000000', '0.2585529386997222900390625000000', '-0.2768856585025787353515625000000', '0.6143161654472351074218750000000', '0.2409392297267913818359375000000', '0.0208805408328771591186523437500', '-0.0445270575582981109619140625000', '-0.0478218644857406616210937500000', '0.3156399130821228027343750000000', '0.1482935994863510131835937500000', '0.3267556130886077880859375000000', '-0.1183354333043098449707031250000', '-0.0396828576922416687011718750000', '0.1939346045255661010742187500000', '0.0252600852400064468383789062500', '0.0273647252470254898071289062500', '0.2435949593782424926757812500000', '0.2063925564289093017578125000000', '0.0170874092727899551391601562500', '0.2202101945877075195312500000000', '-0.0266662966459989547729492187500', '0.0581024400889873504638671875000', '-0.0217923782765865325927734375000', '-0.0421317480504512786865234375000', '0.1069530025124549865722656250000', '0.0465819649398326873779296875000', '-0.0561879724264144897460937500000', '-0.1348842084407806396484375000000', '0.0852054879069328308105468750000', '0.3832144439220428466796875000000', '0.1246378198266029357910156250000', '-0.1564209908246994018554687500000', '-0.0905813202261924743652343750000', '-0.1470634639263153076171875000000', '0.0619824975728988647460937500000', '-0.0912227928638458251953125000000', '-0.1596501320600509643554687500000', '0.0587896108627319335937500000000', '-0.0999112278223037719726562500000', '-0.0100473780184984207153320312500', '-0.1308181583881378173828125000000', '0.1549356877803802490234375000000', '-0.0053980932570993900299072265625', '-0.1621957719326019287109375000000', '-0.0640731751918792724609375000000', '0.1676934808492660522460937500000', '0.2584346830844879150390625000000', '0.0100992396473884582519531250000', '-0.1775492280721664428710937500000', '0.0624852590262889862060546875000', '0.1293375790119171142578125000000', '0.0996026620268821716308593750000', '-0.1223753839731216430664062500000', '0.0428742282092571258544921875000', '0.1087394803762435913085937500000', '-0.0782815292477607727050781250000', '0.0570978634059429168701171875000', '0.0294768288731575012207031250000', '-0.0689287707209587097167968750000', '0.0180088635534048080444335937500', '0.0602869950234889984130859375000', '0.0604831688106060028076171875000', '-0.0026089702732861042022705078125', '-0.0871571525931358337402343750000', '0.0139151606708765029907226562500', '0.2058049440383911132812500000000', '0.1726597398519515991210937500000', '0.0134199718013405799865722656250', '-0.0946097448468208312988281250000', '0.1480052620172500610351562500000', '0.0572629943490028381347656250000', '-0.2448272258043289184570312500000', '-0.0659498125314712524414062500000', '-0.1508854180574417114257812500000', '-0.0914918780326843261718750000000', '0.1532957106828689575195312500000', '-0.2058686763048171997070312500000', '0.0864392071962356567382812500000', '-0.7855008840560913085937500000000', '0.3166407942771911621093750000000', '0.3120638430118560791015625000000', '0.0740943625569343566894531250000', '0.1138290241360664367675781250000', '0.0044394368305802345275878906250', '0.0294259153306484222412109375000', '0.4060315191745758056640625000000', '-0.6153333187103271484375000000000', '0.1898131370544433593750000000000', '0.2491816133260726928710937500000', '0.0313164405524730682373046875000', '0.0405402407050132751464843750000', '-0.1693537235260009765625000000000', '-0.3243806660175323486328125000000', '0.2636195719242095947265625000000', '-0.5352668166160583496093750000000', '-0.0563584193587303161621093750000', '-0.0550190694630146026611328125000', '-0.1128708943724632263183593750000', '-0.2372701466083526611328125000000', '-0.2351564615964889526367187500000', '0.0478308796882629394531250000000', '0.4760368168354034423828125000000', '-0.1756918132305145263671875000000', '0.1006391346454620361328125000000', '-0.0036151292733848094940185546875', '0.1239440739154815673828125000000', '0.2891500294208526611328125000000', '-0.0581672526895999908447265625000', '-0.1088675111532211303710937500000', '-0.0207690484821796417236328125000', '-0.1584887951612472534179687500000', '-0.3764815032482147216796875000000', '-0.0078014619648456573486328125000', '0.0955595150589942932128906250000', '0.1220777034759521484375000000000', '-0.0971385538578033447265625000000', '0.1761577874422073364257812500000', '0.2632132768630981445312500000000', '-0.2494213730096817016601562500000', '0.0872964709997177124023437500000', '0.1473402380943298339843750000000', '0.0216004215180873870849609375000', '-0.0562132745981216430664062500000', '0.1142649650573730468750000000000', '0.1980586498975753784179687500000', '0.4937123656272888183593750000000', '-0.6111981272697448730468750000000', '-0.0067403749562799930572509765625', '-0.0873980373144149780273437500000', '-0.1134898439049720764160156250000', '0.0294209830462932586669921875000', '0.0953021049499511718750000000000', '0.0862926542758941650390625000000', '0.3919576108455657958984375000000', '0.3728479743003845214843750000000', '0.1628783345222473144531250000000', '-0.0844365954399108886718750000000', '-0.0128659550100564956665039062500', '0.3841927349567413330078125000000', '-0.0763140618801116943359375000000', '0.0758460834622383117675781250000', '0.2178429216146469116210937500000', '-0.8057987689971923828125000000000', '-0.7947874665260314941406250000000', '-0.1947457492351531982421875000000', '0.1016594618558883666992187500000', '0.0763724222779273986816406250000', '-0.1697869598865509033203125000000', '-0.0383938103914260864257812500000', '-0.3175432682037353515625000000000', '-1.1888275146484375000000000000000', '-0.3580273985862731933593750000000', '0.1889951825141906738281250000000', '0.1833161711692810058593750000000', '0.0072947503067553043365478515625', '-0.1133827790617942810058593750000', '-0.4090648591518402099609375000000', '0.2431088238954544067382812500000', '-0.8487028479576110839843750000000', '-0.3303258419036865234375000000000', '-0.3200386762619018554687500000000', '-0.0493551231920719146728515625000', '-0.1018661111593246459960937500000', '-0.3655543327331542968750000000000', '-0.0503089055418968200683593750000', '0.4715726077556610107421875000000', '-0.7437570691108703613281250000000', '0.0042865821160376071929931640625', '-0.1894542872905731201171875000000', '0.3509249687194824218750000000000', '0.4388933479785919189453125000000', '-0.0777937695384025573730468750000', '0.1757337450981140136718750000000', '-0.3369548320770263671875000000000', '-0.1473800837993621826171875000000', '-0.0391203835606575012207031250000', '-0.0585122406482696533203125000000', '0.2224789261817932128906250000000', '0.2965348660945892333984375000000', '0.1090883538126945495605468750000', '-0.0980743989348411560058593750000', '-0.2772914767265319824218750000000', '-0.4986098408699035644531250000000', '-0.0528135858476161956787109375000', '-0.2301866710186004638671875000000', '0.0133067835122346878051757812500', '0.0085427705198526382446289062500', '0.2476761937141418457031250000000', '0.2150622904300689697265625000000', '0.0926410481333732604980468750000', '-0.5520410537719726562500000000000', '0.0444648973643779754638671875000', '0.0941179767251014709472656250000', '0.0697473958134651184082031250000', '-0.3325376212596893310546875000000', '-0.1052971854805946350097656250000', '0.1536489278078079223632812500000', '-0.0954768806695938110351562500000', '0.1646055430173873901367187500000', '0.0686594396829605102539062500000', '0.0478510558605194091796875000000', '-0.4108010232448577880859375000000', '-0.0299090836197137832641601562500', '0.0704450160264968872070312500000', '0.0444845147430896759033203125000', '0.3314560353755950927734375000000'], ['-0.0755503773689270019531250000000', '0.0126250544562935829162597656250', '-0.0406453907489776611328125000000', '0.0243462678045034408569335937500', '0.0033527547493577003479003906250', '-0.0738165006041526794433593750000', '-0.0810340791940689086914062500000', '-0.0086257448419928550720214843750', '-0.0712653174996376037597656250000', '-0.0485413633286952972412109375000', '-0.0717491582036018371582031250000', '-0.0389595627784729003906250000000', '-0.0681204274296760559082031250000', '0.0086411228403449058532714843750', '-0.0454670079052448272705078125000', '0.0078995162621140480041503906250', '-0.0068870638497173786163330078125', '-0.0047208913601934909820556640625', '-0.0544867701828479766845703125000', '-0.0671386197209358215332031250000', '-0.0054330704733729362487792968750', '-0.0911316573619842529296875000000', '-0.0511376038193702697753906250000', '0.0005227827350609004497528076172', '-0.0215979386121034622192382812500', '-0.0159098356962203979492187500000', '-0.0460366904735565185546875000000', '-0.0552266426384449005126953125000', '-0.0561804398894309997558593750000', '-0.0078975530341267585754394531250', '-0.0588294677436351776123046875000', '0.0405308529734611511230468750000', '-0.0628542080521583557128906250000', '-0.0491828732192516326904296875000', '-0.0188247542828321456909179687500', '-0.0058049424551427364349365234375', '-0.0911486297845840454101562500000', '-0.0134119708091020584106445312500', '0.0056108776479959487915039062500', '-0.0465332418680191040039062500000', '0.0087724691256880760192871093750', '-0.0716710165143013000488281250000', '-0.0813568010926246643066406250000', '-0.0074859578162431716918945312500', '0.0129248220473527908325195312500', '-0.0014612843515351414680480957031', '-0.0801850184798240661621093750000', '-0.0449104718863964080810546875000', '-0.0330134816467761993408203125000', '0.0019306431058794260025024414062', '0.0338005572557449340820312500000', '-0.0641054958105087280273437500000', '-0.0054313424043357372283935546875', '-0.0825086906552314758300781250000', '-0.0347006246447563171386718750000', '-0.0716964453458786010742187500000', '-0.0103363497182726860046386718750', '-0.0065005165524780750274658203125', '-0.0758689343929290771484375000000', '-0.0831847339868545532226562500000', '-0.0048149959184229373931884765625', '-0.0288002956658601760864257812500', '0.0000690976667101494967937469482', '-0.0467865392565727233886718750000', '-0.0855451300740242004394531250000', '-0.0844230353832244873046875000000', '-0.0317576639354228973388671875000', '-0.0806268453598022460937500000000', '-0.0007750501972623169422149658203', '-0.0610406957566738128662109375000', '0.0249897874891757965087890625000', '-0.0199719294905662536621093750000', '-0.0328083895146846771240234375000', '-0.0384899452328681945800781250000', '-0.0471703708171844482421875000000', '-0.0802632421255111694335937500000', '-0.0357228219509124755859375000000', '-0.0523560829460620880126953125000', '0.0239485967904329299926757812500', '-0.0199676472693681716918945312500', '-0.0382488481700420379638671875000', '-0.0183135010302066802978515625000', '0.0018881139112636446952819824219', '-0.0510887056589126586914062500000', '-0.0217208899557590484619140625000', '0.0308721568435430526733398437500', '-0.0560976862907409667968750000000', '-0.0508715845644474029541015625000', '-0.0135675212368369102478027343750', '0.0133011620491743087768554687500', '-0.0001735862169880419969558715820', '-0.0034232942853122949600219726562', '0.0178343188017606735229492187500', '-0.0223859548568725585937500000000', '-0.0802714452147483825683593750000', '0.0220121871680021286010742187500', '0.0154904471710324287414550781250', '-0.0278913881629705429077148437500', '0.0267216805368661880493164062500', '0.0184439718723297119140625000000', '-0.0667323842644691467285156250000', '-0.0578325651586055755615234375000', '0.0354355312883853912353515625000', '-0.0671346932649612426757812500000', '-0.0748968496918678283691406250000', '-0.0181461200118064880371093750000', '-0.0798552855849266052246093750000', '-0.0526714995503425598144531250000', '-0.0114131355658173561096191406250', '-0.0413287207484245300292968750000', '-0.0099389050155878067016601562500', '-0.0548184663057327270507812500000', '-0.0011222024913877248764038085938', '0.0397481508553028106689453125000', '-0.0419895462691783905029296875000', '0.0162825118750333786010742187500', '0.0267768446356058120727539062500', '0.0208374895155429840087890625000', '-0.0179606880992650985717773437500', '-0.0635251030325889587402343750000', '-0.0080833397805690765380859375000', '-0.0417825020849704742431640625000', '-0.0149877350777387619018554687500', '-0.0717188045382499694824218750000', '-0.0379468873143196105957031250000', '0.0017106466693803668022155761719', '-0.0237738266587257385253906250000', '-0.0606716237962245941162109375000', '-0.0386974699795246124267578125000', '-0.0017361638601869344711303710938', '0.0255475882440805435180664062500', '0.0304532367736101150512695312500', '-0.0444620735943317413330078125000', '-0.0057728877291083335876464843750', '0.0091773942112922668457031250000', '-0.0809116810560226440429687500000', '-0.0226192902773618698120117187500', '-0.0563231147825717926025390625000', '-0.0476391576230525970458984375000', '0.0456442758440971374511718750000', '-0.0141370529308915138244628906250', '0.0219586994498968124389648437500', '0.0275597982108592987060546875000', '0.0208159908652305603027343750000', '-0.0312509723007678985595703125000', '0.0025453304406255483627319335938', '0.0288707315921783447265625000000', '0.0196037776768207550048828125000', '-0.0351065397262573242187500000000', '0.0350158736109733581542968750000', '-0.0325358062982559204101562500000', '-0.0314337685704231262207031250000', '0.0597478374838829040527343750000', '0.0339304916560649871826171875000', '0.0354524888098239898681640625000', '-0.0431853421032428741455078125000', '0.0110659021884202957153320312500', '-0.0096459034830331802368164062500', '-0.0659108161926269531250000000000', '0.0364274159073829650878906250000', '-0.0540259703993797302246093750000', '-0.0625459030270576477050781250000', '0.0368801020085811614990234375000', '-0.0553892552852630615234375000000', '-0.0245598144829273223876953125000', '0.0220288746058940887451171875000', '-0.0530644915997982025146484375000', '-0.0231419149786233901977539062500', '-0.0074829701334238052368164062500', '-0.0555344223976135253906250000000', '-0.0230983179062604904174804687500', '-0.0647778660058975219726562500000', '0.0222235620021820068359375000000', '-0.0044742925092577934265136718750', '0.0490748547017574310302734375000', '0.0522759817540645599365234375000', '-0.0468200594186782836914062500000', '-0.0501202717423439025878906250000', '-0.0108957234770059585571289062500', '0.0006618349580094218254089355469', '0.0159132257103919982910156250000', '0.0241756141185760498046875000000', '0.0050787138752639293670654296875', '0.0305592697113752365112304687500', '-0.0267707556486129760742187500000', '0.0432205237448215484619140625000', '0.0043089119717478752136230468750', '0.0155006200075149536132812500000', '0.0463691093027591705322265625000', '0.0460753850638866424560546875000', '0.0142596224322915077209472656250', '0.0200159437954425811767578125000', '0.0251891389489173889160156250000', '0.0574127137660980224609375000000', '0.0286192018538713455200195312500', '0.0084118861705064773559570312500', '-0.0346215181052684783935546875000', '-0.0109798926860094070434570312500', '0.0042067058384418487548828125000', '0.0129780452698469161987304687500', '0.0167070440948009490966796875000', '-0.0415621772408485412597656250000', '0.0091014159843325614929199218750', '0.0290121994912624359130859375000', '0.0448746420443058013916015625000', '-0.0334210954606533050537109375000', '-0.0610311441123485565185546875000', '0.0089418711140751838684082031250', '0.0661133378744125366210937500000', '0.0201513823121786117553710937500', '-0.0170946214348077774047851562500', '0.0260298270732164382934570312500', '-0.0040177339687943458557128906250', '-0.0529782027006149291992187500000', '-0.0379276573657989501953125000000', '0.0425033420324325561523437500000', '0.0089701963588595390319824218750', '-0.0742455273866653442382812500000', '0.0331767648458480834960937500000', '-0.0502359271049499511718750000000', '-0.0430361516773700714111328125000', '-0.0561571754515171051025390625000', '0.0486179366707801818847656250000', '0.0058057694695889949798583984375', '0.0512141399085521697998046875000', '0.0317078046500682830810546875000', '0.0293561816215515136718750000000', '-0.0001640182599658146500587463379', '-0.0365467481315135955810546875000', '0.0657086670398712158203125000000', '-0.0532846003770828247070312500000', '0.0463126860558986663818359375000', '0.0151036977767944335937500000000', '-0.0415684692561626434326171875000', '0.0284264106303453445434570312500', '0.0437135696411132812500000000000', '-0.0169013831764459609985351562500', '0.0435680337250232696533203125000', '0.0174338147044181823730468750000', '0.0582424923777580261230468750000', '0.0378304608166217803955078125000', '0.0063925990834832191467285156250', '0.0114131327718496322631835937500', '-0.0369530655443668365478515625000', '0.0101694446057081222534179687500', '0.0023259448353201150894165039062', '-0.0240825861692428588867187500000', '0.0346155427396297454833984375000', '-0.0170510895550251007080078125000', '-0.0445493943989276885986328125000', '-0.0526629090309143066406250000000', '-0.0503856651484966278076171875000', '-0.0397078692913055419921875000000', '-0.0364779382944107055664062500000', '-0.0659149289131164550781250000000', '0.0284452345222234725952148437500'], ['0.0342896841466426849365234375000', '-0.0634208917617797851562500000000', '0.0522620044648647308349609375000', '0.2140230983495712280273437500000', '0.0721622407436370849609375000000', '0.1145649403333663940429687500000', '0.0490613356232643127441406250000', '-0.0935253277420997619628906250000', '0.0758778527379035949707031250000', '0.1668242812156677246093750000000', '-0.0491304434835910797119140625000', '0.0477337986230850219726562500000', '0.0524243451654911041259765625000', '0.2112914770841598510742187500000', '0.1917210817337036132812500000000', '-0.0221789181232452392578125000000', '0.1588212847709655761718750000000', '0.0274292584508657455444335937500', '0.2199101448059082031250000000000', '0.1745908260345458984375000000000', '-0.0812143757939338684082031250000', '0.1795956790447235107421875000000', '0.0809520035982131958007812500000', '0.1005449220538139343261718750000', '0.1163593530654907226562500000000', '0.2197616547346115112304687500000', '-0.8484275341033935546875000000000', '-0.1148710995912551879882812500000', '-0.8506013154983520507812500000000', '-0.4343955218791961669921875000000', '-0.1279015839099884033203125000000', '-0.1000333204865455627441406250000', '-0.0049229166470468044281005859375', '0.0365608707070350646972656250000', '0.1905469149351119995117187500000', '-0.2068130522966384887695312500000', '-0.3233534097671508789062500000000', '0.4670224487781524658203125000000', '-0.2979809939861297607421875000000', '-0.1032304093241691589355468750000', '0.0737120062112808227539062500000', '0.1598630547523498535156250000000', '0.0881767719984054565429687500000', '0.2701964676380157470703125000000', '0.1845331192016601562500000000000', '0.2164601385593414306640625000000', '0.0419466197490692138671875000000', '0.1605525016784667968750000000000', '0.2115902751684188842773437500000', '0.0425460711121559143066406250000', '-0.2725489437580108642578125000000', '0.3035804331302642822265625000000', '-0.1911912709474563598632812500000', 